function [y1] = NN_Baseline_u3(x1)
%MYNEURALNETWORKFUNCTION neural network simulation function.
%
% Generated by Neural Network Toolbox function genFunction, 11-Oct-2016 21:18:22.
%
% [y1] = myNeuralNetworkFunction(x1) takes these arguments:
%   x = Qx112 matrix, input #1
% and returns:
%   y = Qx2 matrix, output #1
% where Q is the number of samples.

%#ok<*RPMT0>

% ===== NEURAL NETWORK CONSTANTS =====

% Input 1
x1_step1.xoffset = [0;0;0;0;0;0;0;0;0;0;0;0;0;0;0;0;0;0;0;0;0;0;0;0;0;0;0;0;0;0;0;0;0;0;0;0;0;0;0;0;0;0;0;0;0;0;0;0;0;0;0;0;0;0;0;0;0;0;0;0;0;0;0;0;0;0;0;0;0;0;0;0;0;0;0;0;0;0;0;0;0;0;0;0;0;0;0;0;0;0;0;0;0;0;0;0;0;0;0;0;0;0;0;0;0;0;0;0;0;0;0;0];
x1_step1.gain = [0.393297547788424;0.477583932936317;0.609868613665112;1.00151332403885;5.71669388055511;8.69679806363051;1.16839261832182;0.344223601424198;0.345609292046701;0.726865507913751;1.29419465094183;7.78460262822656;7.97460631324774;1.1246116245284;0.545825560209832;0.651820411471829;1.34290352222482;1.54480161658365;6.27837539725827;6.02635350769615;1.1903132157121;0.237738831137517;0.652031886618723;1.04788308730852;0.817663606888658;4.51524690327607;4.24345138876901;1.93256398072875;0.500733825120821;0.707189951549028;1.27284008032817;1.46287933707142;5.42583272095281;10.204651353044;1.77964375548474;0.274278778874348;0.458534797797968;0.815298351521683;1.31006854794471;6.47729506050355;7.54713287317273;0.963094169270935;0.527332322455808;0.663503625790829;1.16883640931836;1.79326258426152;4.73866093244388;4.32559500014374;0.846781338606928;0.583359370963313;1.15957228872861;1.72609648978409;1.60915347838643;3.6623807373085;3.42600765180187;0.542221326485689;0.413804806417713;0.620421450707657;0.861805686971055;1.05907253407727;3.00389362410883;4.6876324945675;2.68599129565592;0.421919556616213;0.520284508262267;0.917875266203378;1.0362651057768;2.8743975377505;4.73595285618218;2.8118084378139;0.650688564457635;0.833165778636707;1.09722884124068;1.70288461509183;6.33283753104426;6.14290369565393;2.39812869181741;0.600742595227594;0.911277567869126;1.01812082451129;1.43808476353509;9.4361378419366;8.70478764939516;1.53992622914857;0.506344022305047;0.829046956650648;0.942211721014572;1.60782710479655;3.84917980281496;3.79632998251995;1.55995135640194;0.537452082584791;0.768043432143547;0.840715249697783;1.1874945278066;4.6726531392078;4.60624415758632;1.162790517152;0.53080002052683;0.844823905051415;1.3289166059129;1.11323298949207;5.70621726320222;5.55214671748485;0.820813090100115;0.720911403849137;0.978461069741558;1.36380792837178;1.87709037172557;9.39581466844366;9.81605073598955;0.877707244954439];
x1_step1.ymin = -1;

% Layer 1
b1 = [-2.1541312825974605616;-2.3475467049931233454;0.77394328693708991374;0.87755978454325156424;-0.15955067753041005107;-0.26732937929655653519;-0.6729109207025886219;-1.0339148607070072217;-1.9670825836926097985;-0.15394998597125758577;-1.2347818509737897852;0.46722823853694245289;-7.0804705385536887974;-0.7079976850821647627;-0.46961435771574910891;-2.1663961483815579179;-1.7322154181108231352;-1.6942220082412806637;-2.1157597749212624372;-4.0991547889888044764];
IW1_1 = [0.33411407768658174522 0.26947497983122581378 -0.06223932467868016627 0.058065524834508996932 -0.66331229285257875539 0.34795035379405359066 -0.28036037657691315061 0.2933582903136963127 -0.25797624161997129155 0.95832151783606933648 -2.6099897093639596868 -0.59547349544477923278 1.9122769277732689641 0.35682715020811534012 -0.52822893917722968382 1.1975382451876626089 0.83699241220644593486 -0.061031776146184019138 -0.11222566550421209097 0.26612675428394022559 0.37808220186979396571 0.35288343817862521945 1.4745677673727004553 0.082009653029248563705 -1.1330343870037915543 1.9036279734579351075 1.1315764492915814099 -0.12409976409030298861 0.75872610817362828861 -0.59010764342371235802 -1.3381617837918695635 -2.5134767809522706727 0.073121737952728804721 -0.092785381126220090042 0.75807585113252307085 0.60398416104032937035 -0.06828163356786517979 -1.5543144397436972071 1.2864003433704951362 -1.7867647528784851296 -0.0087508344750783229049 0.0044803330993400947158 -0.18952485760386750258 0.0038574280058322751863 2.0751509170556450279 -0.64143221188864441018 -0.58101252862895202966 -0.94710939636285851329 0.15333179189897777617 0.21217859537126074199 0.55400631834204117077 -0.47986642173908589104 -1.2793934976883918342 1.7665344934348108374 0.6437540350961390434 0.29108507666602045916 -0.039849111881789481271 -0.056466791103907676419 0.42022803189299318127 -0.71550452694509436569 -0.16195143801289835217 0.67021940306294769396 -0.23129217893515363613 -0.74212124809920321233 -0.39213162620421038174 -0.90395869294574060504 -1.1164355546748510051 0.72971197353302852395 0.92974246237669300186 0.37160568332791887869 -1.3712473392388111471 0.31165917953730526424 0.62125786185810671913 -1.1519724486832121357 -2.5028228704287251993 -1.4841130734183487494 -0.90928865282061643871 -0.84409671313715950447 0.72090440173729652962 -0.20978734072937263444 -1.1511229140514143143 1.42258479454476916 -0.70183565497583377812 -0.36301563693977889624 0.85351928597742177107 0.26859944994245049665 0.35780048996524765892 0.2605780412563570847 1.8414512188349603239 -1.060672563580957739 -0.89532917674226142335 -1.4617407418624666082 -0.50760735827031555623 0.16732538262188681455 1.1500811679211793148 -0.57498482382749016573 -0.48255174136963047138 0.035623831414130571749 1.8907559038746966085 0.44548002350218462997 -0.20206253586866279592 -0.72971668643782017227 -0.46952238910143351269 -0.57715774396676144953 -0.66816918906393862887 -0.46461677822237013036 -0.90036120298050548172 0.39094732097783063685 0.76992448562752702212 0.78470275403083689092 -2.5053909382868471134 0.19551898417092203331;-0.4387814193037505861 0.51307641093685696365 0.61002001679705064596 1.813903507058636233 0.95962446112482524541 -0.71585764801526619028 0.061122967309097095412 0.46902146713330422623 0.66331551372116515086 -0.14221095992328036672 0.83395960252067946605 -0.53316087146093438243 -1.0483746078509781352 0.45491317615326121171 -0.78304474046018746058 0.83730412386108810097 -0.3932987132470531777 1.1180087151596416195 0.087649551037090864258 0.13102890367369127156 0.29531311872829574261 0.50722027105539657654 0.90708650353409414624 -0.75340357893578013826 1.1123135488972282214 -0.1675372160055305093 -0.20744063294069714498 0.044532004433128227761 -0.080328407176913391163 0.9669512811137921382 0.4231240716222934295 0.3511474519752882939 0.71340939397358005269 0.49112478860376101997 0.28140280929861871684 -0.19642746962621310258 0.60746650862302020712 -0.85461071574364866343 0.23922582508366377341 0.90461339423611963895 0.19497851102509100585 0.29597671806278069706 0.38057428304896573357 0.16968562669130987652 -0.31438297481479404727 0.77591207330274547527 1.0185214208465396268 0.53586228268635238692 -0.023997983208093317392 -0.10310773358371774777 0.68977264616098199479 -0.99136968492234733841 0.90059227277505626841 0.31742877164299448944 0.10686325603906825232 0.25294285414844380755 0.24308081739132622601 -0.18740649635878570134 -1.1831588443551865897 0.60242279916991636757 1.230030034835062791 0.301432039033288246 -0.24652343569639026399 1.2233041417394581174 0.28557239695511277278 -0.27701651650080560962 -0.012099243499155989956 0.17135187427037623653 -0.23890651175461413702 -0.17371041476315374208 0.25727481859645123796 0.81604086413911591791 -0.45935343515554272198 0.48408908985353549248 -0.88087381094780059509 -0.18123476254333120705 -0.18295829689363041215 0.06152108944170010113 0.91059973416399941915 -0.631068721608508576 0.22832144270846729817 -0.15300939848516648123 -0.15877788538304632437 -0.020698445996583398482 -0.54002637431342459529 -0.50633090229654076353 -0.44605918515122955359 -0.90036629106144971946 0.21997976194576371323 -0.23483282102663388669 -0.060199942921268893847 -1.1215291288539304126 -1.0291961441449426484 -0.090411304643583462193 -0.28243084857016231837 -0.23057080000516036455 -0.067775166864010014112 0.1594759154769055387 0.10360671722290377972 -1.0387282854088621953 -0.37520286501075589269 0.29015530571960534978 -0.83524699176662320355 -0.66168142744110192144 0.032415006927979758689 0.13442297151245932718 0.032811735799822230875 -0.78313881666010243254 0.7957137199139819872 -0.26392558129538107314 -0.55755500558747617124 0.27291870321114664044;0.91957172487906502223 0.51262213152796487492 -0.67571128808192593151 -0.47780071126389156433 1.0063692548688591977 -1.4344562418009865201 -0.07408416275334323009 0.28350309978071758232 1.6267134938277054701 0.24911984492728928009 -0.26685374523237415101 -0.93040664376373505284 -0.67572628104829024487 -0.084537412011644857968 -0.45700804693563190639 -2.5460528656251408819 -1.8861315460507508401 -1.0876901447196538619 0.16973104789600992892 0.91957329404374354986 0.84325308184843394965 -0.50057877807167971973 1.9929447508183586457 0.18365614967753840503 0.43084850601685126259 0.37734721310479718559 -0.55185291264489266805 -0.042809977476618625569 -1.7938769159682541598 -0.48344527140846316193 0.47415135175201361672 -0.8183653119556089095 1.4150034326092326697 1.572032137913562666 -0.6707316350393238702 -0.29991123622440712948 -0.63206574668784687443 -0.26754750512706604315 -1.0396046346339504751 -1.8205616665640687035 -1.0713055844352334933 0.061920514451795916067 0.58847312691415565311 1.2701181199172224545 1.0063830908045228174 1.9422520075176761267 0.43979326888375430693 0.88853124203078248655 -0.71606514646951247016 2.0267380822273262098 -0.40144318258479849693 1.2590452589747587187 4.0333902826423697618 0.67341589124734080318 -0.16552461354305120222 -0.48001906081957657069 1.6005312238488014209 0.27476073732375994041 -1.341498508870876627 0.19390228028083189571 1.2216837033871483786 0.2699415674034558732 0.61850621600094646269 1.8245611851460681319 1.14418113119880549 -0.54258547113219501856 -1.5455477863819311324 0.046487364882094081575 -1.5045585100883653862 0.048011058631313982548 0.065984585336218676277 0.07615806770832725392 -0.0047078535323729353568 0.12769464716211520461 -0.92546303340617974698 -1.2491747410917224403 -1.1735560837175009752 -0.2489313283132087995 -0.71160677347685841188 0.35036795526871644668 -2.8982085033616891145 -0.5969753971493347855 -0.4292310937406740301 -1.1158125592945327131 0.43294749762409212579 -0.080477120541111363261 -1.6056981597395414418 -0.36200352904530874731 -1.8225759101759833047 -0.54465732142785916459 0.5490059894192971246 -0.95190283164273803429 -0.079589740911385598032 -0.27943810191645523933 -0.51394421551543301163 -0.29680355213448950114 0.37288383978651767903 0.4323524717903613479 1.2256531497956462129 0.47437630777402778337 0.0829682336065071524 0.69496027701360096884 -0.72012527996555197873 1.2762961922469979736 0.36172660760840213978 -0.64528921752153878266 0.88050484781140581081 -0.16334819380241943909 0.49821645505868128456 1.2000377180280032974 0.63218314330104830034 -0.43546869708485014261;0.90530146824744928136 0.80896934681872101347 0.4004401115657629795 0.4322663201160090729 -0.53202029257732252887 0.24216111802430720368 0.0084676378020181602979 1.7322183017081869139 -0.41654511944507255361 0.93939221495503943959 -0.2081151878852549042 -0.79539009838281971021 0.0033568026700106987081 0.1356447457952759672 -1.9193623527205307955 0.91289603250446760274 1.21178765374160613 -0.61786983702105036098 -1.1578468454775185936 0.073834114018229410337 -0.35556975897407672171 0.64504860923491613711 -0.27146428171219849634 0.9579646161931906212 -0.014869790124302645351 0.065002396827713831984 -0.026796973661777190312 -0.43025629318653108024 1.272264998601451591 0.87649311748867275718 0.29498244629438868936 0.067808803918756349605 -1.3318060043481712018 0.56028777923214834189 0.17984341819882415647 0.89719099744085040182 -0.41285400302963509711 0.8975939887338909573 0.66281735306694100629 -0.50074557963136734351 0.46243869315188118607 0.21758411018139969806 -0.45501567274453058598 -0.38242268660806610914 0.99501195473853842888 -0.086071369316751328293 -0.021472740331866496666 0.4265616045143452717 0.25649410037090791814 0.2740176281914023515 0.94339339476709405119 2.1295451214141913887 -0.62160007482481416385 -0.31194408048129151911 -0.056385888115243448793 -0.023595524915779209074 -0.70744498900706931366 -0.34862580896002359765 -0.54554245360245423591 -0.85697738443785742568 -1.4972824851416151049 -1.9032033207771958949 -0.30611434956396554874 -0.071071125000067680855 0.70848969871685107957 -0.84296470167712977961 -0.91159396882647958371 -0.01988836502459578881 -0.70399722189106062054 -0.56566450615528840462 0.49654195325679895134 -1.2062907423308570909 -0.40962615001850288809 0.49189910168799055867 -0.63175474066161374509 0.010079909875364403971 -0.38389792722546728365 -1.3509449053428324028 -1.1968112454665373878 0.66778131172658516945 1.2479984841905342741 1.5928168657805841235 1.0607422045051280168 0.060295333740712414583 -0.6898052105267298284 -0.82192252283958378012 -1.0356231218898388491 0.18227563438633925808 0.52496339162276750567 0.12135616128723693274 -0.17494243902029094073 0.45805221274857271796 -0.0011722873838500014188 -0.47486684087548786115 2.6600346223180952876 0.10114588853607800467 0.23305837195497022818 -0.057843796814708844933 -1.9546626775871391857 0.67388133113232806526 0.60599706463692881719 2.5603768197994747347 2.1325083424633084483 0.57740109655798288468 0.17550628783499183649 0.15607315683984346322 0.57352199618823873628 0.32838434602680932617 0.08726614542020452725 0.43050904514527899014 0.60416111568481456473 0.085026314769171440489;1.3657965961788942622 -0.22564467683921043961 0.32785559717167295224 -2.0579139025420944975 1.2084628596952313728 0.53021653391912482167 -0.66132834340024504449 -0.19990822155465534649 -0.12823232691263225513 0.59632802337146562088 -1.9038136546733632759 -0.6924862691686116678 -0.18020755691845302682 -0.65736677140590737967 -0.61216455564469518524 0.6088221160291007461 -0.52232275952147411147 -0.65344548532015744868 -1.48687278994077543 1.3115300310096593694 0.15709843392015293562 -0.65547689880047932398 0.59832820228115013439 -0.59584142316086585733 0.20397279578121840782 1.1492766900734490143 -0.1023641432219247055 0.092100458365878379308 0.097843719730674155732 -0.43702266472498585426 -0.33585597235123570981 -0.21839010689623844508 -1.2538672197331290903 -1.1191715481942605681 0.76106750292945668512 -0.56655312292642179273 -0.081935834226036938222 0.32983192512763176429 -0.18579893487062923429 -0.51908879677124042384 -0.21964416369556144515 -0.05043835174966355972 -0.11429570786441543839 -0.97694454486748483202 0.062407951466863273438 -0.30614905821802584907 1.3122086148652232218 1.1125764713057932909 -0.62052889292916690867 -0.50842076489010645801 -0.27292815370812240072 0.38366425648482194166 -0.84171342623930778259 -2.1263091076089288833 -0.47581322143965731897 -1.018610292852672794 0.78968936618671869976 0.068951692746504256171 -0.065487629893232160438 -0.26648660938931717501 -1.1312234618615235604 -1.8628915204246188075 -1.5327346009633491253 -0.34617493867648096995 -0.4957529953685274049 0.31645283571753041185 -0.96456592869189727857 0.82222941053400622202 0.035748344939266943343 2.1340001555151748569 -0.28838894771414247398 -0.54600792175072132562 0.51193589216130086506 -0.20583006767620845578 0.28088748198851259952 0.86996882733131064569 -1.3491974105601842737 1.1358722966638163943 -0.66798801829893694748 -0.63029785299434404333 -0.5578935282177698296 1.8260472653448904801 -0.30689511046643680459 -2.0520722911522968346 -1.0134376772230397901 0.43652384710603453488 0.91847969673102924926 -0.49667418226895809763 1.2528792704400977254 -0.93361804020121841319 -1.0818081384228686037 -0.12392667893864647843 -0.55214017538812831809 0.47412092548290835081 0.67955489627052634294 -1.3727890252914858316 1.1168471276264055891 0.38775046238926114128 0.68485319973759595236 0.058431382109109128442 -0.039694026571080537336 -0.24701960206473816406 0.2829796103083159764 0.68795413308074782055 -1.5885264779183601025 0.076011376521055162847 0.032232027995852036151 -0.16281577901721197565 -0.75886795448115673679 -0.8672111544360002755 0.13020132244014090417 -0.47676200526175649408;-0.022406533102075493202 -1.8026150086556989027 0.33234022252746953097 -0.42966411626815498304 0.74344515435790992086 0.58682739276297013475 -1.6554258313737406638 -1.2526770870582555339 -0.041082213412830220767 0.29123018943252965141 -0.39764655581939195583 -0.070754856538522842291 -0.19316030376312648409 -0.51464463209888544615 0.85607681078051256485 2.1152220007601041374 -0.26178018849493583931 -0.037077326744768435152 -0.86496907443351900291 -0.12795595493986416935 -0.16730570440103265106 -1.0286307941169374747 0.78484761401800406944 -1.9992972309267142972 -0.38238761110562508039 0.75759713398820949237 -0.49886405611113132652 1.1633544359006027236 0.3702173920189867351 0.38377104561559088891 0.83131643870833682453 -1.6889602096533320452 -0.31708256204050322413 -3.1667701076697665208 0.41120310893888684101 -1.1463519835305508998 1.1982969763991782042 1.2556794618048281453 -0.59195074143625192598 0.48540519629332135043 -0.43140949656765348319 -0.88089970496549552248 1.4283957366240664921 -0.58893185527888036734 0.91579242079091249806 -0.9168872162787965463 -0.31822469216887550036 -1.1393583568210130519 -0.42302297587019593861 0.88049580175958497286 1.0352269282641108905 -1.3765386604543226046 -0.53236521964616057012 -1.5086291607854183106 1.688158701954393992 -0.67816136974306595597 -0.15029044236944480439 -0.14892827130911076572 -0.84383025589804305788 0.80606542948160875284 -1.1635767424553273841 -0.48278999226094143626 0.14588132253029786889 -1.3293667517732572492 1.5628631551544851508 0.86754861782918168966 -0.098283356815827338515 0.13186277329349571641 -0.35216803624427994723 2.096633524523747738 0.40804284012783464952 0.031813774468866018452 0.51307777101569496114 0.078719553863081173639 2.0867622173844586619 1.3878134884616457612 1.7381632461105873677 0.81455924710452043414 2.1649796493381661122 -1.6725850325034778976 -1.8188766456869296384 -1.5707030556123995346 1.0934649090093899737 -0.033477314732070571901 -1.4721181469467456981 0.025371327575566877954 -1.1713349433758433182 -0.40500794627336100806 -0.53223538296645267476 2.4205220091339985089 1.4572017408270598882 0.16206101394912056368 1.2618398451783650049 0.91391541242542628787 0.17601374862927393616 -1.1269090016734799597 0.73221267224143538055 -0.45345878431134095665 2.6127426465397429745 -1.8310132867262733924 0.54337321081493894503 -1.7324482261119777959 -2.0048204134891416395 -1.0431435642161668298 0.44484300854152653004 -0.47040034609414377309 -0.32235629130315179847 -0.6563396218437211882 -0.12876299523649298306 0.34216008608850956296 0.27958452219572660358 -0.1176941984467539809;1.257817278112095094 0.2752494890054358323 0.2500789580821860536 0.1981363562916459431 0.56461014813721865924 0.27710274937598994294 0.5843024421463677287 -0.1844012751767664382 0.55870986135317324273 0.22769316030058511791 -0.062450170367156214446 -0.10973338600721731229 -0.038272053349315729442 0.31362987194583075157 0.047273392270398742476 -0.48909730752810792742 -0.54709615716997495038 -0.34228416191069804819 0.49383996310209371527 -0.27078502006721538731 0.58368246288005387612 0.39451045009088692161 0.5067698529696715859 0.77446525746475225471 -0.55580289974397922848 -0.45980480196224171596 -0.48199589489197625092 0.47465711883161287865 0.73259159658405215154 -0.97891087697950962543 0.0024532173542592093651 -0.10218110425108452299 0.12573430740382129933 -0.010571058824267190457 0.91894180284801840752 0.97983741426359827198 0.8696213668486013626 0.11594900683579682787 0.71704316284088454037 0.30814884342936621486 -0.36000806533965035161 0.77025921991121082399 0.064901803205817371056 -0.074524875415815317048 -0.15751764582156460581 0.8786943808823396429 0.63322547785793026343 -0.066858551911644581445 0.41999562022598335709 1.8349405494883037626 1.1826714512968221626 0.072252619673005877288 1.4144725675429845602 1.1931151658013170458 -0.36972342280464320918 0.28619222393141408034 0.50675498590339163041 0.18366936020881080571 -0.35671996001696132383 0.40923059884125190244 0.50493811379875752632 0.33574950377651774369 0.28893802587861433517 0.82841829320779813983 0.22120478473414698084 -0.18771954307247856741 -0.034528181628925319613 -0.57712454999431561653 0.17851578450593952319 -0.41127345039413182315 0.33568965374295295367 1.1621995259643163045 0.13592997054752603558 0.63648043845036050836 0.16564327521833058232 -0.11420674797908952902 0.39627525266586838271 0.37211672445071070081 0.8069014070789408688 0.71099615916149161432 -0.18849814487290939002 -0.27148544996560103337 -0.23047698338082334146 0.027651784599219304817 0.31390000588040001261 0.28915829418214078483 0.16341811955648521959 -0.27917014449957611166 0.42501255569572138349 0.47829467460442393056 0.81076337625988481594 -0.0031133607162564455595 0.0085802473265688666143 -0.45447100212921526241 -0.81503948523278579863 0.19415506271831833862 -0.3121531251713245414 0.20325996547183852736 0.5154380628782609941 -0.061251016704137899171 0.039466093711838914904 0.083126410443787102089 -0.21264183656024485125 -0.21357411183237409724 0.79669588058286877619 0.37330981735024559853 0.85342227545900251062 0.083033399109962408025 0.87411063815604528315 0.68150408124793626641 0.042015189268734411121 0.68664254734353602494;-0.60883401888174326633 0.11079767195431097782 0.20879198191596839984 0.22928921172531602224 1.9320708377159778735 0.79980524687888565616 0.48607685067793154898 0.75540891679010946369 -0.79116156411871807475 -0.77291400101881557738 0.57594763900107670551 0.13833483144581409929 -0.26179795309381004298 -0.087539481536229146741 -0.30523629789974271453 0.71928029797148584912 0.35693555675798371851 -0.60815524413113719593 1.8443541520602089179 0.56161149017435230135 0.41894400407740917114 0.84479442470687637901 -0.54863526577213550528 -0.4039874410355283052 0.82168092818475479966 -0.075206162666904247116 -0.51011097913801350945 -0.19950458561985701111 0.79615370313491173881 -0.47616292583047697962 -0.26124832864187941261 1.0754120482206128706 2.1280596378223237686 -0.37154980789880259762 -0.71001161933601042442 -0.18960646548792151056 0.19826069850389224647 -0.31937711509358873707 0.32860681497074595292 1.4028829820075452428 0.014877351568431340656 0.94348603599208347159 -0.97763943183425117134 0.48363551339781640781 0.29804283481451498972 1.3261672411998997045 -0.23299398011519517615 -1.4735890613353725964 -0.018970794191888039337 0.92444703264224414863 -0.32646949063417085579 -0.87378444544070421607 1.0923043334571536089 0.18264889582006565982 -2.372712604067808595 -0.25193261130141897386 0.39852122480241630731 0.097165697482103380311 1.7592551738693713581 0.38551381900577719186 -1.7383545981272869874 -0.28406305149571697832 0.037205856134956361014 0.30075030250708639779 0.48008098797020937187 -0.26647933848657934242 0.60386104689137409807 0.93813983848433646351 0.5810759478832080438 -0.70217575590454295309 -0.29718010438589381739 0.82402679349850171953 -0.89631813664069248659 0.18709451760044720769 0.14696179201601311526 -1.2724299180196123604 -0.67503382040704795752 0.68236753250640447277 -0.85579651796771616379 0.27737798102863914229 0.13933767982522615725 1.6237102422578284511 -1.1704200037912455556 -0.38204550345918592003 0.35471328123557155365 -0.91689722750605495705 1.086766165713664245 -1.802893172005031408 0.18487770127744479476 -0.73631641841555550698 -0.033463435696099018413 0.44775364988244387154 -0.89405793259916466198 0.89303228918557631122 -0.32796354536265182045 -0.57190962318826943367 -0.53633055006936658504 0.88203366988250642144 -0.35174865676413641369 -0.32986833793161218775 -0.10772030747151700725 -0.35894963003643554078 0.78346495160888307563 1.0049674307027902653 -0.16772661728093390954 -1.1195453766298442133 0.088671673243724352664 -0.33814265920968644696 0.28779104789341891646 0.67348664622344178721 -1.0275452142330192551 -0.15953165029022026156;0.12422082997802308402 -0.26240750702060211541 0.5980016922812645408 -0.066913287137671417781 -0.22413697428850251625 -1.6983808756629679149 0.74368241395469647514 0.76212116633354776152 0.28960975202166067133 -0.45992719813882676494 1.0068211021235611291 0.4292441013536818506 -0.036098668058789445956 0.54482907483656894954 -0.35355873396382364593 1.0244840748825279064 0.68220091300587415439 -0.39611615121063786793 -0.65417588472426790869 -1.5710802999361388466 -0.37833216530711605285 0.07929586073489508502 0.013938469666291863902 0.43240148486184748489 -2.974364212817639519 -0.30100823038978841151 -0.36486095077648827978 0.0023304759859947704603 0.28188943077030759188 0.19881969234753199549 -1.2976694276037419318 -2.4948635005445698454 2.2616741998601215258 -0.68294396271523338804 -0.0021921327771996512723 -0.41956094750919314951 0.17644795192237905379 -0.49685538399791351338 -0.2018525636823639835 -0.36679830591380380156 0.37244291366192028292 -0.25736237981755399895 0.31715426568147164765 0.15846389145155892475 0.76535697502860033925 -0.33751354962640156554 -1.0638649830864839174 0.0092947548444563821146 0.93277371801077069158 -0.10287400505012622709 -0.61163997425287397469 -0.43406019486556768339 1.0184335501236501109 0.93648704506108426671 0.18159440448021293979 0.91625293643306249258 0.016044222549669279188 0.072497603471176563783 0.070201471951931160298 0.61029343504073152449 -0.50999876761231521805 -0.97685890474749026424 0.31161351406226822647 -1.1619352140602436929 0.23396451746463026167 -0.093830453808574604269 0.073976103320281011433 -0.42227063962911670636 1.1935889996203474794 -0.35617843579370744855 0.33007390708425454751 -0.55785982295144220799 0.1187039623419641754 -0.36435822478107116051 -0.3727790025297008647 0.68687268079458729808 -0.62873816916527613952 -0.52203310772574240683 1.0931672496658870752 0.036270097381000357406 -0.23184454920126074118 0.36038129356355452781 0.42061141077902680641 -0.70856883857590080567 -0.39467334380532881344 -0.22338653099167771199 -0.19441543125986920915 -0.43575564781591946684 1.4637801170507038773 1.0081796938331377689 -0.30640260822721576695 0.72335431957393125924 0.29535734752783593393 0.50655878143637378397 0.35177612633864435709 -0.74099095129802783344 -2.2455445248616205944 -0.17511899456071583492 -0.038542255496560540173 -0.089072898438382980268 0.38826893775261073216 0.52693821921056005486 1.1052803677580804731 2.132974269526688893 -0.61373341252939583867 -0.25776284785397229893 0.20686918275052323946 0.4483625166537688056 -0.49149490956455660351 -1.6025641081065997717 0.82429178351219645204 -0.41656055477791381625;-0.3163044965966881894 2.2045836775601821422 -0.12351438890392968384 0.47026670730211617144 -0.39601146867476305635 0.43172815676592735112 0.36593666554777731781 -0.067715428147254910773 0.45014027908613063467 -0.2076380631686708389 -2.3106563080996034287 -2.4249199138040098411 0.3193192216463660027 0.35812113027414321786 -0.39829179460221614262 -1.265586640444786859 0.37881158100040507319 0.84203486215916911739 1.9136412062860883587 0.42066287638695770701 0.57537537497056179259 0.23789150183289681229 3.1709033670633326452 -1.1197888934854287601 -0.40285916390139797638 3.679946232023206143 0.15198671032656191349 -0.33484389178747792082 -0.90015021195523470254 -0.17746865820671314795 0.52227459366249251449 2.3850195204013289185 -1.502245197898429252 0.38127281050331829348 -0.25850823435524633576 0.36141585995070096837 -0.32461793280435835563 -1.2776386179955216971 -0.025864741714904687653 -1.5132023610921725432 1.6614296634624481364 -0.40876717807692780626 -0.96194171717906562513 1.8110303004419381345 -0.40914389289611641232 0.5746944364771247038 0.37425019246826585206 -0.76158123993969950583 -1.0371489429698970142 0.75161219948695034976 0.17605733825787284186 1.7247621044878087559 -1.0246079131148675412 1.8080279454942687067 -1.0996833205401472799 0.27530196944909535173 0.96259672551867758727 -0.52658675744497829285 0.5829729239970781185 -1.1356108601542036496 1.1242466699494748639 0.65434092771154495072 -1.0236330131403756916 0.455894692515958877 -0.53561245392632350626 -1.1428519408321986539 1.7010761199683717138 -0.88008058002412192788 -1.0252213195587378536 0.5668760554994968226 -0.47327190892920156795 0.30831594673475770652 -0.59535686328843473447 -1.0127217449171896924 -1.1130001424468982663 -2.889268683201362542 0.33315956384467632079 -0.076989963245389730906 -1.5552156982443094968 -0.30470818488886097786 2.0938532423754447898 1.7396219614480676885 -1.437843250598885847 -1.2006141492470625565 1.7537305320996574576 -0.55554483160122025698 -0.0065940167749529710051 0.12232503684020665236 0.27836487436456613942 -0.67005248823357810295 -0.83840058188777089043 -1.0197658652289904868 -0.52476681081507492443 0.21918743870594364909 0.58488859564017992021 -1.1164679741382821376 -0.51063287444824212447 -0.23794154078768239846 -0.87878570912723863451 0.8952028148747682712 -0.67099290664633282066 -0.56135167919874917608 0.24771730031049399301 -0.062786868690399011417 -0.061147523704641826292 -0.98740540392016518112 -0.83576445945455923869 0.27946785410851265885 1.4755147108901542907 0.46281823019858747692 0.75950010666298128914 0.68398589432271617028;-1.4158296626586577283 -0.60456996804765450459 -0.7151572241472173852 0.79581968533690428114 -0.5779145155231559805 1.7269561535209625447 -0.17923669008318210416 -1.2051838351289267948 -0.2547597862109773903 -0.86442794439522441241 0.3399507966810847992 -0.76572420200027802029 -0.88236774198399570146 0.1871935598637227971 0.11683924406730256118 -0.4159477085081129677 -0.56589217391850077377 -0.20899913010501097732 0.22732022322560538341 -1.3657822156131138591 0.96962690858799915894 0.23494321297267328763 -0.59975921432205137052 0.44538430433064912783 1.3387007890609590177 1.7124351650372624523 -0.063388061178223126246 0.86718762681443795071 0.42407105166258896034 1.7701900258929677001 -0.89392103021378654937 -0.56552461475531456969 -4.3497472604941860297 -3.7274007434084190926 0.56765563111904981941 0.82408652954280880998 -0.50614027715575105049 -0.28347856509827096261 -0.55858943972471863937 -1.4823043766111276831 -0.044617446421623352393 -0.026638751595474761957 0.78537917279590785391 1.697200701009661028 0.093243253897220157445 -0.8588464393581615175 -1.8927675087204709481 -0.90354354988889018507 -0.25792719727933349771 0.63176350069212527938 0.37081490194608879296 0.33487439044821282197 -2.2336547248370348662 -1.5130562162189806763 -0.57715854268901767288 0.19799105795595339785 0.49581691781418796294 -0.3641391491727067331 -0.42229454752222084224 -0.86937227236861946977 2.2361580773563511926 2.48479783237870544 -1.7530230728665727735 1.3579037710163781583 1.1958919998466368551 -0.4799318969228798526 -0.21481518031739352259 0.73282637255005889099 1.5451612460596224619 0.89998894260975159654 -2.4683060491547026416 0.64011006202393461173 2.879529813243780545 -0.52640229072674959987 1.6177904619453267188 1.8695479590725438968 -0.88538126525762883556 2.0018866917629312141 -0.5722782703940900717 -0.50078052063747635625 0.96672752358894031843 2.9739037519898010586 -0.61928559748268274809 0.12597397474843574638 0.40924126625275009106 1.0909464628102607531 -1.6524144139208951643 0.58687376983100114636 -0.68408909207473223013 1.5072117053919986684 -1.0584262497970566841 0.38763414687246938728 -0.35124920701032902315 1.3765218647254608975 1.3996273131616532304 -2.2854987038024234813 1.1221425127599209404 0.77663204462288193408 -0.9760317377668084049 -0.26937288958255739546 -0.021253755526393913744 0.42225149887795465631 0.86204435157125047784 -1.9732209061198520139 -0.7011363067772229396 1.3177293352030852169 -0.85235138847299185549 -0.86670388336080361746 -0.97861321730138861597 0.54935755738763414335 -0.60598745392595632087 0.61859052586979401678;-0.057855649026508595978 -0.51888275201830180716 0.88035824738560819469 -0.42212297441456952951 0.98061075073960235482 0.92357899384194630521 0.17654224388472972151 0.60394828802618372166 -0.49426897492227189757 -0.20041191563315130519 -0.45318793852568656222 -0.49423633219666263106 -0.62035183164969587288 -0.41252415732673020088 -0.20679901731860711456 0.016174975286019604992 -0.52187375276222314202 -0.75640800724636680918 1.8125236901866894623 0.76518929376735700387 0.12916668196988109751 -0.2157806642683834375 0.54714477610839051813 -0.46637756167347654834 -0.31796468928341714566 -1.3285959308438468618 -0.1827235364426313402 0.061553689711042441912 -0.017713712045259177863 0.40474921542498426552 -0.022828924072480563656 1.449433900221966276 2.3262463538090938364 1.0995524621380774466 0.076650537877973823342 -0.25650928253547544688 -0.92794106058469927323 -0.12076642495851802606 0.929198809924838387 -0.31642989597633081056 0.41494943027022834769 -0.56916312926324941213 0.065851484211600752605 0.14971306009239609969 0.99959811299734946388 -0.041586977012153289457 -0.28919942604103854311 0.87437604817608993724 -0.24319385840611981719 0.69761208153027631784 -0.74280789721377904478 0.85263889340654586135 0.8330601755276558773 -0.62933046411303439349 -1.077522681571847718 -0.11234982979223166744 0.10312493195438379723 0.83955776121854419625 0.53469136861700305996 -0.52912856814284381368 -0.85470666493506719519 -1.2314823080492263152 -0.48017760486805743936 -0.34363520848428996679 0.54825504239916300619 -1.5530553494570316087 -0.018981369589821241867 0.34965039047919072024 0.10682487864050033144 -0.99980322209620275942 1.0062014841734743253 0.40832022661126377017 -0.24306285526555143628 -0.34033799357981608935 1.3741587199769753624 -1.821372380861044471 -0.10020025053722941832 -0.23277456179866418129 -0.3850006576092396271 -0.023907719932830362453 -0.53009343322256641251 -0.79521185380260783759 -0.43836036225069979766 0.37683532039242878531 0.43322698580678037361 -0.27926154449274442904 -0.40045470656610715476 -1.2857586658870026053 -0.017835682885385839569 -0.41503807560912331365 0.016346738173322286625 0.50818417247700442552 0.0045883591352755825898 0.17045836324420976515 -0.53238770897903109347 -0.37903922198079875727 -0.89886742628989257931 0.69295898758521135008 0.58793956588099560712 0.66837835797154121487 -0.57268683019862731687 0.27282336663867201576 2.2941603999804858205 0.078623190237445739204 -0.27496556635632246612 -0.34289522127820148967 -0.053582911704203567416 -0.30876455029988492118 1.0365654596225009065 -0.22865308995855926355 0.62612303445482697661 0.78659887678864814919;-0.19322284402442141404 -0.88651834584718802734 -1.283368883104312852 -0.6449908667455089839 2.3956989047678760585 -6.6140059601191527605 -4.0867696321109745483 0.79870539847210841877 -1.5275565513480251489 2.7257218600041595025 2.1393513074829284548 5.5773494899785287515 -0.87605069136386470863 -3.374067942313649926 -0.38700059768799394133 0.93872603893832751165 4.4150840838269411748 -3.1226098889596545227 -1.9515357455572546197 7.978847711418272759 2.7520397595186429918 -2.7882100278957304695 -5.0311512615480298294 2.4118023460234367938 -0.62122818650052336054 0.10671420913952425757 -4.041607528643207381 1.541325953644182567 6.8415806730546675496 1.8061845749668190564 0.97459071833599020263 7.98964652703267042 1.2979263711039656926 1.2499607188267907176 7.3759056125327493447 -1.2321812770570006457 -3.7788689936964230398 1.8995295827862168636 -2.2383294743891593015 -1.2271063680609866076 3.3821303680778518341 -1.4950715255550293126 1.8377965261501807426 -5.3892552035940841648 1.4636183454784239544 -5.1767876076842194166 2.3955824022078702207 8.4125764512682366103 -1.3144005080474157054 -6.4774336933154925688 1.1549190432660649819 -0.23922321171125285333 -7.135071978361489542 -18.291087111220321049 -4.3441688204090134207 -2.699937082523470977 -1.1634630984569955814 -0.15868022840104592519 1.6183591650355702019 5.3503387111457669789 -3.9086063062983513738 -13.644918631093021943 5.1393072784180340307 0.1089848772449198977 -3.518213023596127087 -0.68227848029874804681 -3.5801880052561441126 4.7149721832723070492 3.3841199016212328843 5.0417082503958781103 3.6540522389981262563 -1.2928067587151286233 0.48310743058861871368 0.20023600960765441936 -1.3039258688172263856 5.6597818428692390214 0.49026687347461683775 -2.4616919607525065139 3.0024244463080642653 -1.3454644658348520192 0.051886032005191207173 3.1487895680738162696 1.3444396015440180925 -4.9169381869311203914 -3.8891397857991707454 1.3994128459669883391 -1.886177343638523185 -1.1984869337983559134 1.084979148467198673 -2.0584646368658190418 0.67570177566080336096 5.9998554402509673977 -0.17880875790621769683 2.4510116373995285421 -1.232125365316961263 -3.4920956700838949871 3.1088589819296599259 5.138637851844482185 -1.9807624283464557724 0.12036333866257228897 1.1708158963188650681 0.34831141619709593549 4.9041340335564358455 4.8982277605233885964 -3.2276423051525053864 -1.3965330221895599916 0.73993226735832939855 -0.25684250325860402686 -0.21370367646510365911 -3.8270673827151848734 0.68691635504022574565 -1.1056669263809879578;-0.65604847420313061601 0.010773349273924537339 -0.37835825653091009757 -0.69774632561315430568 -0.36378450973275833213 -0.044081663760526079709 0.26119779295689277143 -0.79990386813435199187 0.13597469953401836174 0.30622604628111110836 -0.52961905525115238191 0.25773223801017891565 0.11466187894165694172 0.14056861681720303481 -0.059636241799531641838 0.28592148632223202132 0.03849186846938817963 0.28956758976904195535 0.16847321068290055379 -0.079709244595883715911 -0.27643585156427724625 -0.46597229090164316023 -0.85626876581149469203 0.018756637914912152598 0.025990694060764603368 -0.11745110726597547679 -0.081046921603736082895 -0.51650642964008830482 0.5098757810970472315 -0.83309930123675179914 0.66679354904431842321 -0.26211426100517987159 0.41750855304403267088 0.76229100517394210446 0.79432798241630275804 -0.3391726276878112567 -0.38494509933661241741 -0.19172140147167959778 -0.14382201328101926197 0.22539268262806327892 0.05658478227768499319 0.84886644445239356482 1.02098193930290293 0.098180392254456974599 -0.21515061400212784348 0.53042758573850090631 0.7767072703473381079 0.17239338285889657665 0.41084884713962860348 -0.082965616386719842623 0.52333078194556292839 -0.86543229418393885499 0.077545992328486967882 -0.20363156947427002441 0.1649532305563286283 0.47131166988605804891 0.45960313329118501757 0.21343157774445367658 -0.43387609565009360724 0.31086707701777138713 0.24352479354840411707 0.32202821573025236512 -0.046578130134615966518 0.14729870181905532767 0.46001831716659208338 -0.71223754299506314425 -0.23808333908292411696 -0.088012727084021608048 -0.7044915093216820301 -0.33497941562583166686 -0.24403107966576648158 -0.07856383572001464366 0.55405465046536073181 0.21277807050038874404 0.37789501388743063082 0.16448848691074094419 -0.33477594447478303818 0.46863163572410371227 0.048331420816559944598 0.63273783641687109114 -0.6550991135970659629 -0.67791481696362509979 -1.0010962122376132477 0.43968026676652294249 -0.0072114237521320422031 -0.058300918702981249786 -0.48747070834003791706 -0.32905184220142347229 -0.17062353785376746518 -0.23770503093759032254 0.50822406447049117695 0.14012371699640699396 0.53638037554720185973 -1.0420109422713359493 -0.61548478501727976742 -0.24379637288355249236 -0.15295445605684943047 0.62192890684844659432 0.16370583110226874513 0.28259217574319500654 -0.1356113362200416228 0.078662112661612576536 -0.060239400640688944844 0.12345623876266234586 0.56242418050813147712 0.33001519711105470334 0.62250221294020913199 0.85625884602811441759 0.16604948629045576669 0.046543805754908441907 -0.18083014126766955298 0.34104218996302543276;-1.0264011142477684757 -0.78784416875690965743 -1.4033087352293232009 -1.0285168029053011196 -0.89802906824842132494 -0.63957633236853439485 0.27605864210782787849 0.60479809380015314701 -0.36224226898951600306 -0.18393098823767806138 0.28851260102150178 -0.69834712403929932734 -0.72822101599356614532 0.41209007090533672502 -0.79926482892873951247 -0.16128618082832779645 -0.38913534212860567685 0.29348145209738885075 1.1229677011599932257 -0.73950029658376015274 0.069777831165362264043 0.0011095846763586464379 -1.1444415164518526584 -0.66450376845815739557 0.028679458352976638924 0.1691793550786922784 0.52596785011230007267 0.23339183028007803866 0.51715594799806541282 0.162212035725764675 -1.2837906262376233002 -0.45453415427084553624 0.69223302204691183892 0.034806188209135328904 0.059232738646776181279 0.45785667292098430892 -1.2206147189957041732 -0.40143110935040277054 -0.23150463066796095335 0.25402318037769039405 0.42962170363498614067 -0.095418294406315273815 0.44062068905170337363 0.29153962225675256192 -0.25461148657655680028 0.12762138997308014599 0.66765798602228387804 -0.38796855240846578328 0.43242456487609587379 -0.25962498850582566012 0.18824653484540079806 -0.083946237250460520318 -0.16294813638085711704 0.73790487103701829508 1.4841112917689027739 0.49834622871912132025 0.040111917570293351143 -0.41929279485986847842 -0.70650322408986010458 -1.0372411014672437979 -0.56991587849748537309 0.10359320709749526845 -0.090202494811857422685 0.31792085284700066783 -0.30681640440761820399 -0.54678862830551822061 0.40162096727018353759 -0.042149126241712173147 -0.78564584225893530078 -0.35809347562381405039 0.35445673228534302357 0.16417900773759053212 -0.63511628932611030596 0.10748429913343059139 -0.11917825290509795333 0.35425343887628907291 -0.10299030363008319922 -0.30606089518265872096 -0.8096943581214837149 -0.65265334691694132374 0.027045722000709662702 -0.043321782486674433044 -0.17262265735053403115 0.65260896363449660829 -0.11295888075643614745 -1.1854065059236840174 -1.1925833024234913093 -0.69209349967094535572 -0.88775605895293829839 -0.74200616196392477075 -0.31862060840448858112 0.15268514723035250813 -0.1296542707076258627 -0.61588945625655477922 -0.70553629226212122294 -0.044165995986866275758 0.10820267192899840625 -0.015192029114227166911 -0.67465990746545223544 0.37162497108153486058 -1.051923423455630946 0.47576743017368278155 0.36449743488048558238 0.47553370545245554624 0.4242945790488397706 -0.88964712479380880783 -0.60987960475529212623 -1.0352668303050291954 -0.78668596299529724991 -0.3999316047568082233 -0.63136942616972957509 1.1071745070705825142;-0.69104039921973337002 0.55474891120276748069 0.28254648752467925732 1.3322228165887453066 0.0070123664390090989507 -0.26731831566478447826 0.34850171994494616445 0.6385368009909444531 -0.66151129751544424096 0.064542120201960179182 0.93676318104118183605 1.7077047128478783922 -1.3690793137392427425 -0.60163616918900630903 0.85953401105332039034 -0.88487393569841843455 0.1755507864530996831 1.4170164013664319214 3.0432482212632647744 1.46345024077962238 -0.44465643692427825329 -1.5648908613776293386 -0.6945594232751132191 -0.91375451912216698602 1.5857319526452919867 -1.746377782172707116 0.88331238493947650259 0.81066678489597754353 0.59827851648119989569 -0.58337113041750787712 0.48898022398311347114 0.68100079770027688308 3.002903784483847538 0.28391815853677970782 -1.6513071669378700523 -0.0086961317261343706875 0.17457618509305108945 -0.21670120256541960946 0.81132163187851480401 2.3537042928990548063 -0.52161517780146315904 0.2599628835004230698 0.64359559380020248121 0.42231376408347121032 1.0518879315023583754 -1.5781039492425490423 -2.3224741256672620793 0.66887270901890283348 -0.18145986310541609154 0.13430572313159949704 -1.2954250990956532874 0.35368967556169544908 0.31937869883402381088 -3.1359087647311274516 1.0367341980813056246 -0.00039597201424916572687 -1.1570041055287210163 1.2958282349774405962 0.81326783407699465567 2.8933908072177394466 0.41245362377091332462 -2.2856003199335086506 -0.084383109034259745629 0.37289384973804423629 1.595294915210714759 -1.9852358327253891712 -0.16547958128525552812 -1.6679069142828495398 0.068713634126229994337 -0.087049554178121726911 0.58517570151378484056 2.2442577502345377738 -1.3621945526654788416 0.0082286882428089583308 3.4135277954297409408 0.56511756729239204233 1.7918678397526872637 -1.7147378547544853689 -0.23450895168417146275 0.88875233572175760255 -1.0783391531657211537 -3.3500421651689866742 -1.4621032516917944477 -0.32206960892607061631 -0.97253618528778873475 -0.83403641044541010352 -4.1630218364120592511 0.45211057780800267825 -1.0209151062037882252 -1.4541850882728453165 0.98922899729100077781 2.42904411095519146 0.87390189750527513812 -1.5724793480569179138 -1.0713275789664591375 0.45114431840782548422 0.76084916522132683969 -0.32170643822026007141 -0.35850586204739698371 0.91109789168950439109 -1.4990370025771049267 0.88349414610853826968 0.20518065713711364229 0.33312029284140498575 1.0697464951571065139 -0.45778878906548403638 -0.089026198408680687346 -0.026247659709402848538 0.22943176976067136685 3.3649162492523778667 0.43304000680292975556 -0.47880446359253459043;0.16574359284107156864 0.039573595870150912734 0.50740331550741979427 0.024849802258051108955 -0.42509734963537332275 -0.51106538870254314411 -5.5395456779044893736e-06 0.69608263775657364114 -0.092983818061344758465 -0.25282761979412293751 -0.068173180520680026762 -0.4439210755540117237 -0.047753480159429192997 0.91128687404446506726 -0.37293642087279765818 0.35826368342699155267 0.35865534859073971985 0.017851748565308980798 0.28989601076121362944 -0.91563153337735114778 -0.43796857537738670407 0.028697620857620370627 0.5271607773400764918 0.36333857842322497822 -1.9633962453847375595 0.019924978370491466806 0.15608106914038219482 0.1821419107023211359 0.29961102797578959001 0.15240103432852744603 -1.2721902309888575289 -1.2309899976359293117 1.6158290337075957854 0.7018185821726070639 -0.88682705101483971788 0.35015355519270713325 -0.61829123573249533674 -0.62485128621039121022 0.22632081537502909963 -0.91603651667193441988 0.52430512515143434804 -0.19666981981682601921 0.065385461317155085803 0.14429557053871602812 1.1462055708177172342 -0.33176656849340524502 -0.7931174810921017837 -0.10423973508093162255 0.53972191876968200752 -0.19041296211217342838 -0.44118059735077791439 0.50940382126684224939 0.17037938669366159417 0.84805687200669055414 0.2291686801405315721 0.31008662620587279513 -0.24454547528260162093 0.27323670858298299002 0.11800356319625268653 -0.25102430953016569015 0.25737000451789121547 -0.2916963443146606827 -0.92802856157741042686 -0.91636387234009675229 0.20882136860967875913 -1.1262435096692815506 0.29315635148481489214 -0.73391183361906553451 1.114076256226706807 -0.89357319849058902683 0.038423096512026355676 -0.30900889605154890916 0.35930855257706117989 -0.79610778830226447411 -0.36060697302360517069 -0.46524093660308091236 -1.4320419000494277739 -0.81912519964829444419 0.37959868120078238407 -0.089992274621640666599 0.3324192914711942004 0.24466890892737536145 -0.12429547677786520476 0.94366311920781764666 0.33510558482350255582 -0.013478060294854730949 -0.03276056815903903574 -0.39033826622855605226 1.0187036192368457144 0.44331741759453519025 -0.56549174456605499905 0.26909976927273399072 -0.028782064677863664071 0.071657911898603210421 0.17356481603854245765 -0.79561485372936480154 -2.3888290473001450032 -0.82838944188962715387 -0.058554305830751385287 0.63557376252951192086 0.037812775161210315789 0.69975313296432251065 1.8941572677256406365 0.73939271029276720792 0.78458154212056607779 -0.13333063604311728989 0.018623212957578155757 0.34628465740819169838 0.066404828510593927327 -0.85428175352392621278 0.77024660096351627026 0.98337739227021336852;-0.050839130837414925335 0.32420801123647613462 0.32544289039700485811 -0.99775577779274315926 1.4444411104159931014 -0.33594224942959088898 0.2018529629678341708 0.64326776031300048064 -0.56245154126053420462 -0.28858414290168288296 0.67580611363363662925 -1.0472470339178705512 0.73529938360537538955 0.48945057888654142086 0.057993092499714127275 0.35268026729570511879 -0.1899310737180895936 -0.67454297116280226287 -0.82877440585179662502 -0.84680177691781977067 0.35327827846825254898 0.12541314144726750657 0.29918536733246708925 0.0030369022106379456316 -0.087135588837655347794 -0.20945409141787840746 -0.69072921902136108496 -0.36395744879589536636 -0.21064680509397043506 -0.39805310512970476511 -0.10808894741697280817 0.50308147719331353098 1.5929451488463102216 0.8629185044931597659 0.68337240634949036888 0.2912545016329798897 -0.67794431174766611736 -0.27260516191928230167 0.83343881058248259208 0.034229712873705436804 0.039856474407751849021 -0.064342468542211150861 0.034088193464816354816 -0.61092434935075923264 1.3596843148232138354 0.62158443153492881628 -0.53449624689096975061 -1.514830854150560846 -0.095437196279893804496 0.43770991605895498422 -1.0770371584162199419 -0.1886522658609955938 1.1965955841994444508 1.7228669284539517292 0.87064847509593479291 -0.36704715595296549813 -0.80997681992894210445 1.0189772773747525214 0.44435754057995258126 0.22749193016174476534 -1.1747767988512858306 -1.2584483772248036271 0.65456748457967917076 -0.092604719167419663473 -0.23594251006501198997 -0.76007461440566181921 -0.49860325900148927403 -0.21745408688863193669 0.19354694457817633868 0.46757633651618624171 0.16799596306688291403 0.42601122530223778373 0.10531629814836859782 -1.8058209037194214996 -0.34614679316238528006 -0.19203858107531585064 -0.48656959210531158799 -0.89888138008923545996 0.44729260245715646294 0.21322150519104351996 -1.2196029436566415693 -1.018702106813274666 0.82316367395052625344 -0.065119827097579213726 0.28023511832534342414 -0.2813640022425567544 1.0819008660735158767 -1.072807287058213932 -0.1487704803234450035 0.68869952329403161251 -0.8137285231591178114 0.48011701939308215614 0.016921142096729256676 -0.56597778797077802349 -0.74829647514722208435 -1.1865679986975559146 0.19127797554741171604 -0.29792994715227794078 -0.0019418770536231144686 0.61388003723253947719 -0.52223975034138825357 -0.029671645489576264909 2.4893908591563600474 -0.050470139666149611835 0.040383169036566274324 0.0083023148847090472158 0.061541492591647761756 -0.004726406766801305448 0.5146508534207563379 0.05846920026049745589 -0.81950061565580678558 0.0090110309581321115791;-1.3660958335795994056 -1.3013302348016007048 -1.9051544906419857206 -0.76594070469372255161 -0.46055107341490836292 -0.50055896270834432382 0.1849498505260560588 -0.11187209638105186094 0.84894067608086576371 1.5895818441347790984 -1.0315145486217704995 -0.99011690087792114667 -0.26332415442083001444 0.00081128433035154018382 0.64535426949935015273 0.42996850346329051895 -0.66202060895412717656 -0.53907283034926756216 -2.6431013940039798094 -0.17293773648762622575 -0.3743212782964399632 0.687187301975259901 -1.160954351335830026 0.42760474391029684726 0.62990845072140921879 1.2085962568551382734 0.16714991319802185998 -0.29185107790591624521 -1.2531596607208921323 1.0523093371830771758 0.50354317903814471702 0.47875226367984452525 -2.281904122323846984 -0.86474420786807670858 0.22895575525852768228 -1.1139685199915578817 -0.020349435443882027408 -0.44316785972816152839 -0.012022654555568723644 -0.77885649906534226705 0.66741477184837050274 0.22634658340926214204 0.91164272178534577762 -0.93082109147933556059 -0.066793961757567313353 0.23202186201598937187 -0.30520837129806327459 0.7008074050927517451 0.14235035350684122069 0.11881962696799713841 -0.46201299564736242331 -0.67078525730831362051 0.52154750091927082334 0.80198349418944092637 0.080593422311189016893 0.1478254039833793998 0.47403011870242495185 0.041737842986507414644 0.37100410438825914827 -0.090417908591667872642 -0.44945286381481303062 -0.072709814501661973463 0.86750994398983705125 1.2421708842795824435 -1.3294530984376995431 0.63362790951360048464 -0.87247173914493081348 -0.88720819829791119915 -1.1643754820434577546 0.13890944786070358319 -0.66138584418867052417 -0.43950380918379938766 1.2834016795926941334 -0.99254235429004467051 -2.3924015888283589604 -0.25617330705048363404 -0.5662840985574530972 1.8980968548367562754 1.2015914226178456836 -1.2834079122591486311 -0.00078122393861717459584 0.906626511592710016 0.75727362781239271339 -0.44761548673059375902 -0.53147737588278465282 -0.41628745849519355193 1.4806603193653602446 1.1003728232152594213 -0.25167262240719939781 0.71515398634856774951 -0.050422434646397201741 -0.35965408446621827121 -0.55292817678099315248 3.1858522417893508916 1.0852596672230667707 -0.51748833214768374944 0.98354245520701721883 -0.062630522059872281715 -0.04622804568991611962 -0.74296164598518088518 -0.46487214063794424224 -1.0762672867066251925 -0.69933593860283860266 0.50722505530473649404 0.13406759795816403091 1.6822981755735466614 0.20047950531393665674 0.2840391807693498083 -0.60573782433345590981 -2.5825032673274996853 -0.96218589740705784408 -0.12749872242854262683;-0.01956165126612358085 -1.4512309155895786184 -1.2489245504510131379 1.0254539278440197858 0.43225458324696192092 0.066820644529544420687 0.90820463694708608582 -0.56850285467075267754 -0.99306383840763912119 -0.63668631054014290793 1.409959027721645608 -0.50950094112784105604 -1.8661000842296555646 0.66976837861389304507 1.0975859550679707421 -0.71298212220500822855 -1.8654407402206725219 2.8410273776297629844 -1.4803705967412983391 -2.6952502709540948622 0.35128020563065676107 -0.17153174462380535448 -1.376013872004113292 0.30830705816313885848 2.3428570583717696074 -0.1830915607299527792 0.32609009924671539249 1.5643888002344297217 0.25229378055641576983 -0.38826586286784725566 -0.62067194698894800897 -0.62723962698355595347 2.2827903553004622594 -0.28247810161768782677 -0.63642643773392915119 2.0897384886961734018 -0.17756509784050206191 0.97982491196348153739 -1.1900850509131837285 0.21918213405165928864 1.09467083575859081 0.63866896736247658062 0.04403813729673887456 -1.0602375703492534775 1.509763569674264394 0.44164629812239197815 -4.9825102978557689326 0.53631917960906450027 -0.62578583266783938122 -0.53816306398045787862 0.27513177322260529145 -0.23563656999592447194 0.60741624952215822475 -2.1137677627933442182 -0.19820514383830295513 0.48703163731489829136 -1.3964009529077989757 0.093862010960748615274 -0.015599080426726728149 0.15032911970773382704 3.0524035857270441774 3.8669787040388667876 0.46348559478206807771 0.59292439582882494609 1.0922283534066170585 -0.33464384437261057714 1.2978814141469725563 -1.9230158987418672911 0.40423829303236957777 -1.0683413284879592631 -2.0837275021714467549 0.49277883990488619004 0.84103836646289209522 -1.0831949285805901884 -1.1293605382986144914 0.82928956225878769359 -0.0027697728593135406694 0.22324737501087435487 0.46711433737151952794 -1.0337285375957976363 0.96425345336869505708 -1.5472978788789393256 0.75066611274226668904 -1.4547034964201017715 -0.45482649887600012928 0.086479739384204529218 1.296414618218218795 0.0017144218065200736434 -3.1185521481781264264 2.0423202919397676069 -1.6567870567746838528 -0.15815948187591305496 -0.32516319225438489182 0.30255526132810245388 -0.77545756435081103497 -1.5151497178623425377 -0.62773952504031016453 0.56870277193066520738 0.16682584508624065389 -0.67488833871242781548 0.71657959728635445273 0.86288636789995709631 -0.33765084170136538955 -0.75318339309033299767 -1.1269156196535634606 1.090207206284707242 0.63439493319288919881 -0.24428450629876502509 -1.5567427064834140626 2.5036592221975468853 0.96876325486922532093 0.30239824933182529731];

% Layer 2
b2 = [0.43759681710608377969;-0.43768163720172909015];
LW2_1 = [0.16504428100177678806 0.74914861543236255237 -0.10180999658338178715 0.026711432120196665352 -0.0073078350544429487856 -0.15546384427978826581 0.0385841157073169988 -0.19302676295870835332 0.52482952867459242707 0.18523240532327750474 0.1322209664593638756 0.30530487535482919714 0.93818475871777129438 0.11758807556335321154 0.012247208909007217467 -0.73035058443896694325 -0.72175930825579226457 0.47413733379478589791 -0.071174846279118214598 0.15868787349603319381;-0.16503954712838775354 -0.74921400932427062447 0.10180418892712642109 -0.026710885459715040524 0.0073139043724944965974 0.15545863079883096014 -0.038580429411296329745 0.1930167742131673192 -0.5248023492432130066 -0.18522441369314363024 -0.13221839093462706138 -0.3052926316886804825 -0.93818892736680348232 -0.11757645287915231835 -0.012245538519014716877 0.73031407641880285997 0.72172531069496737022 -0.47412794469432129052 0.071174804511799277806 -0.15867963883839245054];

% Output 1
y1_step1.ymin = -1;
y1_step1.gain = [0.001001001001001;0.001001001001001];
y1_step1.xoffset = [-999;-999];

% ===== SIMULATION ========

% Dimensions
Q = size(x1,1); % samples

% Input 1
x1 = x1';
xp1 = mapminmax_apply(x1,x1_step1);

% Layer 1
a1 = tansig_apply(repmat(b1,1,Q) + IW1_1*xp1);

% Layer 2
a2 = repmat(b2,1,Q) + LW2_1*a1;

% Output 1
y1 = mapminmax_reverse(a2,y1_step1);
y1 = y1';
end

% ===== MODULE FUNCTIONS ========

% Map Minimum and Maximum Input Processing Function
function y = mapminmax_apply(x,settings)
y = bsxfun(@minus,x,settings.xoffset);
y = bsxfun(@times,y,settings.gain);
y = bsxfun(@plus,y,settings.ymin);
end

% Sigmoid Symmetric Transfer Function
function a = tansig_apply(n,~)
a = 2 ./ (1 + exp(-2*n)) - 1;
end

% Map Minimum and Maximum Output Reverse-Processing Function
function x = mapminmax_reverse(y,settings)
x = bsxfun(@minus,y,settings.ymin);
x = bsxfun(@rdivide,x,settings.gain);
x = bsxfun(@plus,x,settings.xoffset);
end
