function [y1] = NN_Baseline_u2(x1)
%MYNEURALNETWORKFUNCTION neural network simulation function.
%
% Generated by Neural Network Toolbox function genFunction, 11-Oct-2016 21:48:07.
%
% [y1] = myNeuralNetworkFunction(x1) takes these arguments:
%   x = Qx112 matrix, input #1
% and returns:
%   y = Qx2 matrix, output #1
% where Q is the number of samples.

%#ok<*RPMT0>

% ===== NEURAL NETWORK CONSTANTS =====

% Input 1
x1_step1.xoffset = [0;0;0;0;0;0;0;0;0;0;0;0;0;0;0;0;0;0;0;0;0;0;0;0;0;0;0;0;0;0;0;0;0;0;0;0;0;0;0;0;0;0;0;0;0;0;0;0;0;0;0;0;0;0;0;0;0;0;0;0;0;0;0;0;0;0;0;0;0;0;0;0;0;0;0;0;0;0;0;0;0;0;0;0;0;0;0;0;0;0;0;0;0;0;0;0;0;0;0;0;0;0;0;0;0;0;0;0;0;0;0;0];
x1_step1.gain = [0.37198913735639;0.859419225109615;0.600140938478566;1.05021374269337;3.5335626739102;5.82411129161639;1.06043263096983;0.350296481846745;0.836957475006089;0.84938665423528;0.881421006581704;4.71362067684272;7.4906637469959;1.13609646964785;0.418625759427804;0.757609732104845;0.778254539071614;1.01182981913405;5.77318790147821;10.6775955162568;1.1058168102292;0.442609272192677;0.905095410620592;0.926970863753116;0.595935627135583;2.9924078683065;8.89182057907653;1.85105371451066;0.433241891557725;0.5490974945937;0.848621302776009;0.819730823739474;1.57776438827457;4.40550934977034;1.20063645722842;0.400420707219261;0.392697075358481;0.432977575575641;0.399201084636583;0.550166598939255;1.16011728948035;0.739839367361478;0.376499143872122;0.359935909620585;0.447355779281228;0.525950496647998;1.16439155061131;1.82140989445903;0.628274168022099;0.402527003055298;0.338870236487458;0.47393490454983;0.487062993095215;1.7715568940996;2.47699482107017;0.440581390829554;0.331394308837742;0.884978069157479;1.28825742026567;1.29635747325355;5.12013555046356;7.97723211154763;2.79632220944112;0.415846963545734;1.21753712761892;1.30961010543564;1.67294400650622;6.35970236354459;12.4556468178773;2.04523112356252;0.501834992844225;1.2871494774288;0.994555240290748;1.2935931301428;5.61919343322789;7.24195488394007;1.69092979078175;0.648382242014087;1.15278843474757;1.0013479257557;1.33322303412926;5.7667812652314;11.23191732794;1.19890702705399;0.429579604784682;1.12327415235973;0.707841885929439;0.733386605211668;4.48345369805342;8.41847305933255;1.1153595470809;0.743972732200581;1.02992186212288;0.525138954855158;0.800843478715795;5.56455796670214;11.5077754249877;0.86686675080493;0.726732765561809;1.28524848366456;0.871954707377389;1.14472901617004;5.23381731819995;8.30175452529669;0.612260898537957;0.821438097942637;1.57369796156351;1.1561308532807;0.987203182357976;5.48409715654024;10.5486737737942;0.669849204619708];
x1_step1.ymin = -1;

% Layer 1
b1 = [-36.225502827163985842;40.325784627010470729;-38.956646223912763105;53.01770758155468144;-28.671332154462735531;-1.442861488381360191;-124.38571277642600421;34.33241342603204771;-55.089491569442557761;-42.562106532679131021;73.614284912632101054;-64.88084929068548945;-87.898297815852899362;67.477036872911980936;-55.662413504879225457;28.651205850497323269;-101.41091853889061269;25.361762653303284054;84.119578637520405096;108.76491406890960434];
IW1_1 = [68.132441238578664411 -105.08983895229090422 1.2006977012863462306 -23.076201335500364564 -81.011604871358287028 0.46282448977166534831 287.25055964160623034 -12.602345334242201602 -12.500103364581818255 24.674479245156195617 -21.312024655775786641 135.97705364503937631 -11.198598010249616763 24.517458275101667198 -37.23612533824790205 91.372715721992335602 24.970873001643902001 3.7828482149467634876 -27.701244004186641234 2.1001007140755056923 130.66999211224668898 -0.29902799259261447773 -59.124534133707420835 -3.997114552982780733 48.913994667115233028 -23.574530755906721424 8.0792089431818077117 70.592885713319816432 -56.415956634407031345 34.138048714685524487 -204.23683909467035846 67.352071449682725301 56.349326522319749699 90.673537721213762097 418.53870325767024951 -10.701114752088709992 90.185029125528828331 -36.011048288368428416 31.912401355537092229 51.867258187790199031 70.660062868483265675 -113.24876449776522236 -57.248557627687027605 -147.6188435033447206 -14.336926988956463447 13.346445438076806056 -43.329914671045393959 77.625771793928649345 -93.889456621837425132 -50.597026223689752555 -47.996110362590712839 -0.048483406103518422725 201.14028230161895294 -109.6217843486454484 70.309134046918273953 -114.01777283304778621 -97.201627338194512618 -40.401623864400164621 119.18697354425327717 -82.225448897721676644 104.48171768000860027 -70.578341356286472319 -202.49529281110909551 104.70915707895804303 59.40305731774677156 -40.420676815689468242 -7.7870060155638807231 -3.5328270475421148511 -86.863905438688263416 15.772024163635192551 47.680550688504389711 -32.573928562245768603 21.781697099495563208 -31.423337816225817676 126.63792951812085619 -101.50347444176551903 150.78207824391597569 -123.09030517751359923 58.837547548706254474 44.332441409162115065 -42.807337070903827225 6.4425374945698372642 9.4072930581963554175 -232.08114786485563741 35.343249104938806227 94.502804921341805766 -53.725197781847640499 -46.441894642407525851 8.4756303270705934949 -84.268067520146118454 -43.002764017063583424 -78.782146298541704255 -35.28484721613916264 178.89096554166599162 -31.411091807618646499 -77.675908070807039962 -49.325156860471366826 -164.98650491643527971 -31.349807882149136162 115.90955488235391613 -77.228825652182024442 -29.212832979260653588 5.6040955263211476023 7.6795410690250420771 -168.20155381513353632 9.2627500433502998334 -46.138221857042758245 81.022245543955790481 74.277207989049372827 35.271818692399712347 114.66464376060888242 -109.36052004472404064;1.5124676370674898784 55.607753618410264096 15.73679955461631863 -36.238150399633440202 82.017745171569373497 -5.5755408834308521904 -23.590120162500472389 9.8476958887121455177 44.647810050083172939 -85.796605904432652778 29.535323300999632323 91.423758020477109199 -32.383814667144775967 -146.96721749977436389 -42.381187460995327854 78.966101068348805825 -22.249240620127821444 -41.117581145709905854 109.83368693390372073 -58.299962888760020974 -78.188382764137344338 -6.0652071002273917344 99.955845596761776051 73.470420554490715404 -60.852772929111097255 -102.48940075097428348 -20.55237405346060342 -4.0591610271005968968 -0.14187036653949181009 -0.056670393817454645102 -58.226417958467315827 -29.148046013457392434 61.975287593076913595 -64.284848491169356066 -242.51854924710713135 22.208468926474175476 -55.021761258763916658 -45.845714732177079043 14.036455058448240152 -58.135364509729832605 23.584666784511679083 156.93243676396411956 40.182282206320870444 -97.815365599344744396 2.6718309296368780714 -3.7078742402331048567 150.18290273747754782 -55.11841858457169252 19.395118816236166737 42.381122159757154577 5.5703053490314058394 36.315367100902768982 -26.874775776259596682 33.995964371459265863 -20.870170908843999058 60.192734372727990433 -14.211655181074119625 -86.657670379053342913 55.962095022256463039 -42.495789034643763671 -20.852518632657151443 -7.68943471282307911 -59.774756813577376136 -22.354971525487595585 -7.9615987026944203819 13.414101328594172813 27.525548533203185286 -53.979126527867897778 10.99874512207554389 62.904798691869288518 45.939378281476379584 -21.590304807458952752 24.392768281576362455 -102.8937929856492417 189.14531595062834413 -21.493142083874719361 58.841973971309045055 -29.117601302913769246 4.9628122645723982131 17.846793473979808198 0.0090167623093662108147 -14.723448184981096531 -31.399632137973988222 -248.94026493645691289 -13.294339409984740286 19.351993059074850123 -40.053393769706978844 31.438799395369336764 -49.695264360476443244 114.74064883720978969 -96.604075164423207411 10.069821015672955511 -27.21312110183523103 47.147380421837887354 -69.043839304918947164 69.013338537256942118 -61.847059101494444633 61.445969298095917566 -90.611659447551275548 62.113498875942049438 46.266689901530966722 -4.5018118788220409243 40.96836511231957445 28.610574439016367876 49.919848046708111156 70.724166987379945226 -24.769091477209897789 -11.377570365489425797 28.469785153282721524 -124.03653499027409168 26.147895127430356155 376.67911227266290553;14.512308134823811656 -1.8433621515928448886 -19.066277623350195825 27.409061130862220068 51.457349821338361551 49.911338822175920882 161.9371431277128579 -66.656815063323364257 43.571485844413231803 4.1835987260815592492 36.957263080040597458 -26.469352997659029825 49.966139139088852517 -29.490822573478023827 14.159088007397503617 12.646116858542646 -88.227847168540051825 80.562979160098464604 8.1823403656948059393 -47.53337431819980452 156.38551389677024872 -2.0526080550795611224 72.283258543174866873 -52.272852460000521546 20.429257620326623623 -29.257302271454847187 10.531944604367822649 3.9839824256181408657 -42.800930886856434654 11.021112313898759894 1.7345059072696491498 96.99907080042345342 9.1945508268437610155 0.68062094586224120008 34.518598299822265574 91.400277728769992791 22.370565724161039611 -85.932582447852894347 -95.214598260828481102 -23.969628996028617962 -0.70055060802889412841 63.505815521827670977 65.967560077645742922 -117.76944209715098566 -5.2012865020193634891 29.190410759944860786 82.713614062291355822 1.1923164772096450648 60.48253085641900384 50.089808693707787768 -34.662445745851201195 -26.254436882921662999 63.843242216048658122 -2.9518275679599774719 -36.763515060548087376 -126.64355026383947234 33.197913929999522509 -34.972965711706791581 44.333071560056069416 -9.7078140772700720618 -52.247701508223521216 -65.184947956993497087 -83.259020100292133293 -114.7647550745824816 13.232326681405190527 28.298203535689143706 5.1323563006961148147 20.657793255202683724 -47.089985179655627689 17.185080830816250597 16.194579243220644571 25.473010353428939823 -20.336903670104433672 -23.515546115539883942 -11.609229699761844046 27.814367799105983892 -96.998656575767441268 -6.0771594761819445196 5.5600517434982119624 13.182416793399745814 -28.289394073511623162 27.575515675347247679 63.543932813847746388 78.820482604053410114 11.088737189646938219 -17.842843359533404168 8.3577653079648541734 -62.989149623286564861 -56.646241115479796235 12.096780808868135892 -200.40773867947689268 9.1868820822145096372 42.932642094580259595 -2.8652646403599288938 -2.8694499118355656364 -11.454804436803520673 -100.17752277476064648 -34.509168343516762434 12.229397299343609973 43.311996888946815432 47.921264523871201391 5.5482568553041096138 -13.115787099055975062 26.048132760563902366 19.536260661119744242 -44.461538893336651768 -63.91663596346521814 -58.568759482437371844 55.324178884846631377 -108.51085328118267626 74.669906474132829999 -97.600618900110163167;-1.5281664617015444652 27.301987248077399073 -53.388472165921250223 89.881612585589152786 7.9183771723452984759 56.940115015677342569 55.896725703194150014 -2.7446915917346625946 -29.086273264827902096 -40.227003115053520332 14.268479870672038601 13.135753852270815045 20.137609326759307038 52.359730230347956592 -56.735640407414798858 6.5577734803140659281 -95.846576040327590817 74.647744839648041193 -101.8041865769403671 161.89266276008115142 -163.27148970767760261 9.4245024326174409168 5.392530434078071977 -22.089383955220469602 78.107443046921574137 -91.035599932870269413 -75.697157657474676284 88.696024571025347427 -97.737134549262293604 76.442914116085020737 3.6714202962160427113 78.510340156840143777 87.419181538780392771 -159.73339786501512094 -321.78213657515431123 -1.2858312544182906034 -59.191743900784388188 126.80087703070546468 -184.99398248311968018 24.5411301132831845 207.69706126595096407 8.6671745312508470249 -23.844314601375089069 61.912674892258507953 -160.44351445256202737 47.164286450035788789 -26.010282164949931172 62.02890219241144365 138.75261963720475933 -62.357662270480609834 114.42736275416834246 152.79279192907040397 -235.10333588770933488 -66.68802308160910286 -108.33403149088597672 -19.599170941031818671 -51.05728832743925949 -95.730769310767655611 37.755746315333460927 -6.8106243218488646818 -90.75267778902107807 147.99807530659194299 -90.265149765639705493 -38.863155383387258723 -35.630037419606061633 62.160694456586455203 -77.383334882750219208 109.58528834695039222 -22.62922602470283806 -228.84764278013344097 44.718703031443368445 57.758395485960285498 -100.38118039451899222 138.72278501333781264 35.612695160929376925 -127.95529222306930706 -133.62303455927505524 92.709364229239611177 24.015512187793234489 17.887327886762498963 -27.243186858552196128 -132.41095099180469674 -6.8353172976346119327 101.98614300001567301 14.128352141364224792 -94.501780913599773726 -84.464055593498400754 169.66460779691485072 93.048911950799862325 33.805145680409488307 409.11187382250381006 69.297813630229185833 111.03609480311165214 -45.411241957609234987 -70.59505062681951415 -9.8611299305355935019 -12.273995497463483062 -48.04509688115594912 15.405647524237192414 75.888717116454472489 -4.8884688909369486964 -47.903660299584146287 -17.215004254748514256 -73.817944693591911687 128.31354815843454276 59.395049265839453767 -65.350640590637311789 75.64397565226261122 32.040437309488744688 126.84098480573743473 -141.47072451064613574 -26.622171675667029689;39.352170684096826392 0.56890071332730229869 -14.135788981437906742 -19.003210905016395316 52.160524707698336044 -7.6949531656437715199 -107.07182486491221596 32.998427834391847568 -61.397302024729697223 -38.217973217800363273 67.479949817641312393 37.00703147950192573 61.137779984141033651 21.349703286441073402 52.614789568929793973 -40.343061792631843332 3.7462595437132266696 26.602984645217439663 74.467579468533003251 -77.090308088962146371 -27.797467968765822377 -25.656501998891009464 -0.22920601483474456472 -9.5388603878251831958 -109.42192960588309347 23.621456594630714676 93.164833445061603356 -13.860675290981440355 -70.683394843247143058 26.259717138444763407 24.952649783221833246 150.8493919171306743 -81.402460950909031112 -150.67786712080899747 -33.601887436692720712 -2.0454318233254413784 30.238807077481652641 80.16157564436880989 -20.090551667258864654 12.719449955918479489 8.6821736838689869131 15.037640362632794577 3.1923593507962837457 -24.867711871929650158 -2.3100728347962347087 -29.453322152436250292 -35.422003021301229353 42.320164724697669101 4.2551947705312773707 45.455400161129517755 -8.4998415779240570345 -28.688340389412992693 -28.123453505784766548 -34.247714997277235227 2.0396081649453070561 25.563623026919508163 -17.657559885672387878 -25.472807811550612911 -8.7999361833895406448 83.3888990831233059 41.009874219948564189 -43.829594181626134741 93.351232499869283288 9.634926635822868235 -2.1744060782147696109 -26.477764728695564855 71.766362111997949569 -39.570853820814861024 17.89799193482535955 46.751252365473845884 -9.4269489585886283578 -27.714876605080284833 -44.71131524416578884 63.336233336296523078 -47.316086813579360637 16.132677143785645768 -20.740209127694178903 -35.611717681637593103 16.298747337861890117 -24.430718347385024458 72.756345875900137798 -38.706697506110266715 -6.6648663802209275886 26.795613307802813807 49.693091907046792244 -63.969422859503943357 -14.227745390806495251 163.11193779570578499 -27.292153095341490143 -115.04574755055779178 -40.447887857027424729 138.41858195482765836 -8.7016970239905102602 -32.534957206557891141 -103.86925912810231409 -45.641302400200054024 12.454285703142677022 -2.5691591417544081821 55.651341095288458405 28.933550921895061947 27.742903696520553325 27.707725655750650162 -27.099790735481761317 32.308561158378303446 35.941328669759656123 -180.2551943258722531 38.003121299501323449 -12.393970118061371721 -5.0688125768058807097 -38.935632193293137959 -14.732879195492120772 6.8198408178831506632;68.223834106316857628 -68.724689168754593993 -5.9785416709028531557 32.042736398051246738 -20.765686211067176714 -95.685720598048348506 195.22119890029966882 -8.9497153774166875451 -88.914937382778859387 18.450259674782621744 43.799651218270497566 42.288615387819945113 73.778118995204181374 51.501505817960428146 80.016112891589528999 -1.6788287095817127081 -2.7472880009437519178 18.614695126494339661 -41.33458788288274377 -33.993115431160056517 -136.09542430690461856 -2.4518320737959271582 -15.830885164442904056 -77.460552795701318018 10.156489573940962856 36.606053735647947178 91.833230840461212097 18.086216352113197559 35.822997961546867884 -80.363279068373174141 58.706851119000795336 40.529447758503110322 -76.439945024189768219 118.49065522549078366 274.30688451286346208 -40.23897009430093874 13.5844565983362493 112.33994416951205153 -22.314276066354508998 -34.020907393089359516 -19.684204447832335916 185.02603843553072238 17.953277249296800022 -97.954198768572325662 75.292233994660804797 -72.61238486891566879 43.564516954645242208 16.940910057670137689 -143.56558509021360237 18.650299391328353238 -35.547392916151061115 -2.7514695098746884128 42.692606158246888981 -151.52048556886353481 62.603421477709851217 138.05242878370739845 -35.341538292992950687 98.552749240041549683 142.24396034337672745 -57.574379997715141144 55.179636340146601015 -40.07438467998737508 -2.7648296865247137255 24.069202683757797701 48.765800783126657336 -49.606097473966585198 29.727194241547671538 -39.670967659823958229 35.129657183690767397 44.188084605128416626 28.379097915955775022 -20.900901889694075919 51.104552872545838227 -51.920354832477165985 -9.3143579083295158227 -52.472724219897017406 -96.09203254635329472 62.96328028463000237 18.251899028466652908 -54.521717179897194683 -1.5131371590983802022 -101.95642677007774068 59.414156891909428282 -213.98355636280484759 -37.084755570071372688 26.036033241949457562 -30.06815429086819691 -9.3123499610408924099 -88.227913493513455023 24.540002475977455987 -270.32124084457905155 -15.088721197937971397 99.11808871594394077 6.5325950373476908695 -12.513854901229716887 -57.639850058282789291 11.077496545225756108 -86.460045529481405424 -66.446036592340092852 -6.4466182027160998658 -91.35347320310783914 88.064866032243145355 42.292090792420893308 -88.382106580717689326 20.712092558519714203 -90.43673929693765956 9.3737564960903867473 -4.1510275883061549251 -55.578718589725468746 28.988873124701800776 42.199810406621011794 56.928133182330434181;-37.791233069394536415 44.810871270260250299 -65.127478763302249831 53.869718584981761467 -26.964372418145529764 93.052201861496030233 43.380040217601035124 25.24947843787011692 -62.498427359667793723 -22.312881320353355363 31.383079400854338559 9.3843313339320584276 -124.48040252575222553 -27.91357739735971677 -1.8264355693250440282 119.92105089684882557 -106.97123417885948982 -68.693646023687321645 91.285833430752873596 -158.92677782024512112 33.29859657146955243 17.47530646504840135 -63.121835891224655768 23.665138870827131967 37.423715168961059874 -137.07075690489708109 36.079613383085160194 -34.108822786245667658 -64.864834003260099848 35.752422056959318297 69.543336501604329669 -11.646227271400462655 -19.702293724296307431 2.654827263997162845 11.434775192627567364 37.427451237336164525 -9.8083721256397442545 -36.975254721453701734 -143.19414142826170178 -167.16868546942760076 -21.662619543942323475 -126.07616549680327012 46.5501799980246318 44.378294059388650794 -21.050084350172205916 -13.64752014140848857 146.72071758540823794 -16.313023072893805931 -124.76313894468724186 -31.621501380720719254 7.0456775192643315009 38.956484824341636397 88.519196251038209766 6.8721153124954055258 -52.653118338154719424 155.6786663675093223 -6.0611347331628859791 28.684258391145878164 -194.49163240376475414 99.386764116512125611 -122.1987828623386747 10.967563418109715911 -0.52629531708230725684 94.704588889285730602 86.677297218134356172 -108.23827394142155356 -23.366773532930832147 -65.913758866835408412 44.364451704403649046 122.62747556759931911 -106.43450187399768936 -71.970667104702187089 46.457200269038693818 -35.602960779580776318 -184.90776448363686768 174.94548849515265943 -215.3020115043576368 -1.4692386168694966386 -49.328019410473039841 -34.060442399413588532 128.05239386348901576 62.896887937042393446 137.07284535504624046 -73.551505304938658014 53.058656926913307927 -55.102783337741939818 25.299826775488970299 21.108973574082881441 221.64674104975779301 -150.61020935486590133 17.730192772568020843 51.248835512034190742 109.09575362573190205 -136.01245397754308897 5.9191519056945933741 -9.6299613071399363662 28.179587537634795069 -31.306249255143118404 -18.887043784783799083 -178.06190646773936237 51.42271421526940145 41.459303982845909786 1.6077912875957667271 118.94564400296228257 126.00766263445714799 37.73880618493463146 125.21415914051871709 138.66199275418830439 50.301038625758017986 -81.35808568831369314 26.315957006120136441 42.16352364799905672;23.669118169330179313 -142.13722406334332504 78.656425028179910441 -71.305291258349683403 -2.952884742784107619 21.060459145473508613 -48.785363541621130423 33.412048374239134318 -36.688829437748722739 -88.073337422767622229 38.053375698821483297 -111.42876096667754382 73.352805255585934674 19.812699996667781477 -32.365991283721896821 -70.529553134081723442 69.696225957862409928 -10.483903180029981783 -59.148087810648362961 20.120077538348901669 109.21307873754307138 19.642012887781717723 -163.26967573903792186 82.409227259074881999 -51.575081150818164133 93.125602983463863893 -5.276188074314533516 25.407664951701118383 -18.779756118913375929 -27.695314369614749239 12.03487078927146392 -35.080939115960127594 103.47205358455511259 -146.45344944053900349 55.589542691539250541 -135.84647164980862044 13.681875096139016534 -51.215376411189296846 -33.354890824111045333 164.7615591432964095 34.597362574735242902 -112.06301213077566103 -25.733540702681271028 48.671871543114328063 -28.451749030807384599 -31.466295032189115943 -63.87671854241099112 -71.291918953024918437 -151.36822177549669277 89.008902017121286576 38.136840139326984911 18.762421910504262001 69.243828029539102431 -47.566989353249766737 -45.719979208458802589 -45.109600342878302115 -18.907615241399788886 73.237673163685300892 -59.406530494278825927 39.008547336951700402 26.434623921461920304 104.81385017726590547 -167.86367320727700303 43.250612098513656179 -90.714018296429259181 -18.386953339003635932 14.885782970069909581 -63.771720281737295011 49.592546683217875625 -56.379020076936100736 72.907261413749239409 11.466300800510495606 102.22180284850392695 43.77777833067307256 -32.078723230049135395 -59.325354955976543181 58.926209880201618319 -33.028386168876124884 4.329180163371216139 43.027407864632770895 69.147003247032017725 89.102175048247175937 -46.514291203618938653 -182.84920853323964707 3.5508960617044271757 23.677783272611613086 0.4547834966024042469 40.74366897224764017 -98.356612207453707697 -79.221647034208103832 -0.13417319023004925516 131.70069880820045682 -75.64307330840354382 -40.260193852464475128 64.415277466539578199 96.675534722415875422 139.99714439041716219 193.95385670105801523 -142.81648736507153785 97.566413058614898546 3.5360582233084327797 -118.24970875999531472 54.480805549431309487 -57.138748168303372665 169.15102049303425247 57.935784209001347733 17.991543632034257882 -74.74523679319831615 4.9027952123110800642 -72.615908005169927719 -104.17420349866952733 67.125778541741141225;79.799500396199235297 -11.167683892820486236 -5.8045182613460903909 -7.5696235922768178028 0.46062964673340855981 1.086909102783906178 14.941346689903994616 -14.882468616545136086 36.091242733753738037 -13.689013522126501243 14.631415604781480511 -62.710460275116396645 -5.6862252668029995561 69.711923667554046347 -9.2979136077822630568 -56.533106059763241547 -19.257537136065813854 -8.3745767621846542994 -13.351271194700684575 22.57498775224251375 -119.48617770727173593 -9.7384286724006230429 61.306979281666194481 48.125185894720395652 -122.43905453601675504 -31.333358542151259485 60.436367944262045171 -2.6333662361140901531 -20.280336248363301621 -6.395436084384012787 -59.042228004126876328 13.451701540868398865 -14.702895568966086515 41.794438500997109998 43.825584161625698698 2.6515003648843129547 -51.105488532155419534 47.676475440324232125 -5.4052679990658045739 26.367081019233776118 61.92185794749153871 -105.21232499012454298 -19.799712134517594819 -34.643040561089996743 17.818248457112762395 30.148884419083007202 -27.924367794108217566 -40.181466296811507277 -45.183852841245951026 65.81575750613652076 0.41554660385633246378 2.3808704371866045157 -43.73500632351218087 44.977716094633692023 -27.773126349562588189 66.462302555039229901 63.705044204055823798 -58.434286301766036331 -14.695089878029733654 -29.701924161549378312 -45.652316951973183734 53.711446167771448756 23.723429555953782 7.5725121617886888004 33.106932909794942077 -33.317525926170773687 -24.88158491693451424 35.385689757139452638 9.2765819382827743311 -73.556344922839357992 -74.004206786184411726 29.440801845366561196 -60.786932733990653333 80.819466885210033524 -39.060176011260310247 15.74893924357685826 -62.301901343212932716 11.3855646747579069 -18.495505494709750138 51.587363863152404519 -41.416173530708377371 33.36541228818737892 -33.099964358407632403 172.58038117824426649 -24.679290597047017997 24.73727955911705223 -0.44796812253209861154 -65.888173715104855432 -66.382711741473030997 59.038053722784276545 135.66983729792286795 6.595116508173628489 -42.33032346603678775 71.245105070259995728 -23.114936656823459771 46.210689837577682226 2.5519298587519512189 -123.86148689219017172 -49.938429858190623634 54.182360883278640529 -56.951834389135697734 -7.7956743012337383902 8.2037894810238274346 67.319569700449505945 -67.180397944455734205 5.6850687904440428966 25.580556856962925139 13.54579639668633817 19.57975772716734042 -4.4186949703465021599 5.0506268107709857418 68.826281429806940082;-2.2646806259204894651 -1.861724164453895769 -1.8559581108491840507 11.327710044847107085 -1.1796888106210916547 8.6600642625660668728 91.429225013566679081 -10.931790482934237829 11.235253385553177097 -7.5815501477284286125 1.1680070535352122807 6.5068409519026033649 -14.722954787419460843 -24.506510936325810235 -15.339268088156313041 26.847571433536977281 -10.456260353706714028 10.739204395891299271 18.27670349699944552 -6.4697949905030709417 28.852129449886607659 33.405256181834246831 -36.316363770274826095 -1.2626955511227093698 3.1833161507705742821 30.381615038598660306 -35.66948745153978706 11.174998418069955974 0.15794818397482490724 0.61474454014048141026 3.5871309699687663475 -4.2387092380252333612 8.6019056706362562181 -26.714482862854147527 43.228253816632765449 1.5456462596794364739 7.31743414608148246 7.0109604488942940392 -7.8975353753956696323 -35.808121724592261614 -0.60874405682507948256 54.571648552386967879 -21.181987741389640689 3.3949286585082680823 -25.769444456371907393 -0.4415306729408394748 -24.451706922051805293 12.676432931813636174 33.02687752321917003 31.616087198400748548 0.86337055222697589585 -10.855396208307979578 11.824920221691110456 37.266312203359618138 -23.405666017356484332 29.040490932706269689 -14.316667052055713327 -3.1268662257937083204 -6.6818628375056059454 -5.3186591757649139822 -21.526664651922502003 -7.8634805232783744344 -20.355377327099819951 9.7262233990750495138 -20.357201654700261884 8.9462798060479098439 -3.0201942546852609262 -38.113936725795845462 6.2141878298836417116 61.262046196288473254 -5.8942155109162319704 7.0159039303937404952 9.314549828312237878 7.4693198901524020528 1.7425617805714865849 33.05145913562713389 17.688893558580428333 -8.4564217787276820815 -11.607727933092530037 7.4759535210455227983 -1.9865265932357898393 7.6948592026786286624 7.558844015563193075 -119.68069188350790455 -12.066508503642033645 0.17686158238935856257 -16.850657106988695233 -1.4059779614890999255 -10.952196902375273879 -3.4142377668147334546 -56.816143014842651837 15.324190986783159829 14.905212025782113017 -10.194445935572854722 -6.1708559325557503783 23.226941616739896546 -1.518092675151732962 39.715881690491279699 -4.1655293712423446806 -11.994122858212300287 22.349418343121623565 15.538212813578262228 8.1122384635667614816 -18.323476284607490783 -36.842179135518463795 30.224519769687972826 -7.9322215357659571211 3.9950210535857189065 -7.8978345996721541766 1.041940097333709403 7.2995430944641954696 -142.35250913464309974;56.747717032921933367 -22.643412990078928715 5.1147027732060861283 -40.193994391524221044 68.403196159617834837 6.1412125908997534651 -39.806871756002195184 -29.124531276231973465 10.946272836894126002 40.51258955260998107 -11.057158358001849763 -59.494231581534471331 -14.878243612803956353 5.3008116098577966468 86.847819442801622358 -51.979439147497096485 15.079496753555540423 -40.568104011516567198 37.927014661152043118 -72.607634235714868964 -109.71159635585426884 -16.28672392516239853 -6.2214986430442102971 -17.119848906750466 3.6282411510893477491 41.920785046316460409 42.69752191692476373 -72.945691603273061787 84.368455768313921794 -31.033188896857140548 10.731848843304675256 10.124831230549091288 16.734357885007902667 -5.9885291531639337492 -3.3154918984115608893 -38.870637737340047124 -10.286464355335318999 -19.268209935002815314 -36.802725498689341066 -84.543853058654505617 57.126174363594344641 27.131158732318183979 68.019021687978749924 -10.711496685724448241 -35.895313100744957069 -14.242738122507725862 -66.802828838162383818 -29.073383305427224599 27.782461584748990191 28.276924749077689825 -45.902168172141522007 -23.248414743433709617 102.05141500541390087 64.665941745984341082 57.744479946636872114 -90.845699734566863981 27.40820718077508289 36.097818426252956669 23.107258793755462989 -24.413132148032794078 18.577216778920380591 -29.267718378590011241 21.563931322921419564 54.794509502829306768 -19.802996788923397986 -12.950069476307840333 38.826578639128392467 -14.34443708183784949 11.015910485455105317 33.778978343810265983 -14.306469821299383938 -10.139168966389696891 -27.991503550759230023 30.137035687455366428 -99.860963162021803896 -2.0286826147328107517 53.985248479066697769 -42.011068540199147492 24.172491079790251689 -71.776787698964611195 61.336399595754564018 115.50219450922413955 57.106294537322249028 -11.817891357821842746 -15.183795754119447707 91.57819271985866294 60.593282354202720796 -77.271737503622603072 33.305506457613397231 -46.236574090035290396 -4.410377382614551145 -19.549572199506073389 2.5584073309477886049 25.343460411098284624 16.193191401361030302 -71.339915486339776862 -36.647294114264774123 53.567729842100085591 35.793825628100606195 -101.67529568047459065 -29.360149263306471568 6.4172999364286615886 111.29131188934178454 27.544695424924952931 78.221103036290045907 19.650717643259376644 -0.79678926659862592263 -75.44604066481925031 18.543709715314179221 -39.095767380027389493 -88.937499153604221647 31.827239754258666693;16.607193311788808643 4.2003688713049633918 15.330419818173899316 0.37189054661358289522 -3.2091853884316150491 -24.479870614090927461 2.0220459373170549533 2.7064828045324826888 1.0230339838752326997 -2.8920158426915798522 13.610380384233350171 11.427714460078403746 7.2885232462265294728 -9.1000605443259150462 15.560783971092787326 8.8058486738757899559 -11.132901035760596642 -22.024970394373919902 20.175064033933153951 11.190919134196136042 -8.0009776798395986219 -6.3547672281792291216 -29.772988519176728062 3.7630906939960562241 -13.072772695524081499 -37.670737528737802791 52.180556062348536273 13.715966595892810531 38.778816609298047524 -1.436776089730856576 -3.1045715991936617684 -22.801127655839163566 -16.046941583686379573 6.7093800479875458365 53.773836345957199967 -13.355856502842733846 -6.9050985740626025233 1.5357003292565014618 -26.298378715123966742 27.658880327500924068 16.409224344203551027 -16.52624046030528504 -2.9291071034083975277 -2.6993550072657779282 -10.439013005043996429 15.052976180410119866 -17.684765390359444837 31.024422649042907807 -32.771230329720744123 34.942424358125862227 -6.0744571982376394104 12.351555220829496307 2.8368754982796691166 2.843870436285367731 0.88810495566767277964 30.123614019832174904 -15.370437602621898066 -4.1408394937154522353 34.283803799514394939 -13.861716254485198618 -70.852073822937271075 49.865047649325703105 -5.5392831882400326293 9.5332985493224420281 -8.6913720208761553465 -24.754742570023577031 15.4956998241569881 6.2808347607960719472 -4.7540454432101046933 9.6007497073641001606 24.260724717508754367 -17.969067572181398162 -2.0595156259432201296 -14.406590148961200271 15.575485510478046081 -35.923954965919463689 -24.360314681634783085 5.9648420408092608369 -19.986257942741612936 -3.7839245793111979665 13.696986480916780948 14.861073027051080686 13.012699182459927627 -98.092676992676175018 -14.299343961537509529 22.042573995134976172 -8.4180854368045157088 -24.519395938613993025 17.166788617101591541 -20.493078112412646874 48.920622052243103894 -38.684930718199652233 -9.8062822247753977933 11.854445752038595074 -7.7654320097490394659 22.026167792743677865 -11.067863202682652002 34.95981649197671004 15.614903330191509667 -21.372185073227338847 -29.028094461452106145 50.979625957529933089 22.297899539102715494 5.0238665938282212053 15.423923252660491912 -8.6405704228365483033 20.694996309323325789 -3.3805020435085233466 8.9033094279458833142 6.4997661313160071117 -11.670804390168346032 -13.954306605588239876;134.21260202420592123 -27.848914323654224034 21.410564047441940971 8.1794834536963207938 -9.5729432303259756054 -51.821094376137125437 -15.09276084523032857 38.75666782580655223 -61.790254377418669662 -99.340188135145027104 28.145588726452956507 61.895846309719338763 11.532986684129554078 -48.283675197606882534 -66.314484558956536375 33.88730906619025518 -126.83161631341074838 131.78296466424384903 -24.203293736702377714 150.2795104527914134 142.78939815832058002 37.387947102300259417 -15.706173715705460836 -13.027917209018520239 24.772326964599329813 42.654141277927685394 71.629881644117631367 -9.4588837460138215363 -50.377802936932909006 61.343562331401201959 -111.55170238092992463 51.411908734808832833 -85.819154960275952249 -73.199815084636483675 -136.94149343680209086 206.19106826859095349 -86.60716903856764759 -27.815262944416726754 16.878641437500409239 49.262535223671100937 -127.24805362092067185 -4.0743745491055598507 -27.491663766908455813 40.578670620967400851 -122.42094400877856231 11.741335646226850997 132.15420720266860144 -48.403909973542475598 -47.770377448335999304 22.320876005487050975 -177.89899157035767985 48.6823369486647195 29.614969110193460011 172.06894035275260535 78.029441263325480804 14.013622559291860625 -151.65964232112739296 -13.8138388701499224 4.9512671883954038066 -211.8595826676919387 -99.871314596374887174 -17.141755806912705395 -77.699338944126722595 111.39491362789719631 -72.919426136693672902 -65.715944395496094899 74.372162857726024754 -17.074082059438410397 28.182040469177117359 -48.69564984996591761 57.941053836614095474 154.24079013893575052 -31.811345898800865939 168.43092252421948274 -17.751881478926673452 -131.6928869745720192 18.993870427805799039 111.62139004613945303 167.08112090691636809 -39.647917835165230827 48.158059677609948324 -156.47325808775795508 -67.431216669047984169 12.502967049182931447 -96.447585787336976182 -93.37112043156388097 -45.955929971976871684 65.691940245050858493 122.00371620090771785 14.307389248430776973 -85.780074625681024258 -92.905019057574833141 41.319835742550068858 -69.933161683879546899 -13.626232841736481305 41.540595883026753654 -20.758869964864448576 70.176369126618908467 6.0125811421527721734 51.69179102129357517 10.559823641762696056 115.36514823381904193 -53.772234508322817703 19.871357102659761296 117.80265711216567581 7.9949923932779318747 142.8624694054805957 16.108260149113796444 -33.731527831092151359 64.71279458389612671 189.36649181430928479 29.638657615091407393;35.801983717347347635 -107.5739468578480853 -100.53017822138329507 65.858381622615922879 -110.09820470652806534 80.864152286849247275 12.887791836192930006 -204.17183844121956326 7.8737921644777895125 45.307558356293753832 -6.1033988898611282181 3.707778970245271033 23.082371023283037914 130.64796498774853717 143.53213297546270155 -50.657517608517764529 -71.179242928680423574 22.004013577268306534 4.9816279166415577961 91.54134260077390195 -82.58858171214527033 29.098564067291864177 -171.59524937623118035 66.990398745298563199 23.390407686352514105 164.61760762253587131 -64.907107060020805989 76.378594574763155833 27.389754650516593415 0.13091949311650563637 -52.591605146466164911 18.502136584566649447 9.2620153767050918958 -126.87983365734102392 41.554112984268101627 -112.59315149331608552 104.16313060770941945 -9.84356502511367637 -68.974951925585102686 -80.504958765244907681 -105.23367305865212984 -57.077472450397849002 -140.91649236945306711 58.240115078172067342 179.42588184682489327 11.058823688088551762 -49.895131267284078547 -43.969899490465344627 -68.87204041490863915 1.5503934107425041411 -40.680625904397466286 -77.149617946308993055 121.46350557450317353 7.415543229022578231 -87.096302574081875036 24.955292849948481404 -10.930286999643326951 129.36909125560728739 -73.669976509389556441 -110.71327819453409802 17.877241976290797254 66.112279926196606539 -25.583784356300036222 151.03363538004117572 -35.583130806941532853 -63.379422711393225143 93.354331094294536797 -21.54243615989219407 -1.1994276540624015936 68.4812979637804915 -101.97430763795264852 -69.644587861743943336 47.153440638738274515 293.66810966193003196 62.916994312973876902 117.69331849864911987 0.92998873881387278395 44.737906922349765182 102.08051210208813586 87.930854224994149604 -161.03775264036320891 -61.968869068270365119 -5.3820524783166696636 -20.323037810756208188 82.306837455644526358 -14.560245166818150508 61.81449445434169121 -47.784627828259871762 116.68417306200957739 -103.83602255366785982 -5.4089309150253672698 166.43837656807110648 -81.799380286042691068 -8.4071280683701594683 42.02960883834900585 67.948906478638207318 -186.98471669562269426 167.67129351394697778 40.295899522299791329 75.715538958161545224 -1.619843483301566911 -62.907126023478689092 7.6810845364780284683 -27.192199452816247174 13.430555607636044613 -132.54430658663056875 47.827900131706115872 110.45674002794416424 25.32398211882508221 -166.01582408444565431 -80.064661662434644995 -211.39924090960411718;-17.209615567041275597 35.501775870286323311 -0.88775678910557331847 9.6232022452596197581 -3.1652849139219663144 -25.437299852703052494 -51.118247817411159417 14.071497767540904533 12.199852735353562849 -34.831171577282574958 21.800106856750531392 -94.920187784313384327 -36.606347456642588156 44.141259839639815254 -52.24458277385985383 17.814965025422722533 6.8183554892691322635 -18.633400652455097912 21.34875771354428764 27.462615599824850676 158.56779394651729831 6.374505908805863541 -43.481583176514732259 6.3029335958753129887 21.765934525042666792 82.827717756289800377 -73.971864488537391935 91.563094208344665503 -15.807394503554224485 -26.86250991832645596 -26.966253623399015993 74.518774005205813182 -51.29698097795624534 62.845294379616760239 -98.729163920022557477 -7.4815699911048403337 129.1252445855031965 -136.51553709274793391 -51.477832048594855507 140.46290416810234092 -203.36978479331520475 232.38568523366814134 -20.43009487126132484 -38.157585790478584897 35.365812715440135605 52.63981615225194588 -10.81081885023098188 -21.962783713767681348 176.38221898221942752 47.277056462555613336 43.11103019051371632 -15.545872897220135656 -43.320110198038243254 46.50400752551210104 -48.338417604590389942 -61.050501690027026314 45.789337326275294515 -0.82972090661276975965 -2.7594077545293629328 -15.087115560827871974 -13.021864328116359744 72.181850165292118504 -18.609751913481396457 -36.193715419702840563 -63.274141264764772075 25.403509216312873065 11.82456388246088963 -21.789299485484612262 47.226611850077276245 -51.211010745989057114 121.02019238141355117 61.797744505933323467 -18.067214351340890488 -52.810558496108143345 -33.371776767309341949 92.855431656318998535 -58.42277666809804515 -5.2395672111613142974 -49.358294132424170186 55.776331728829937617 2.2588766066613299444 53.998094129312661948 -36.820095710389153965 185.92771973928753937 -40.604678010144546363 34.303243515690205356 4.9791404689394402894 -5.9353770106857215438 34.620014472294691643 -40.365845777441769826 -145.7915521488092736 43.801247345127805488 25.782782332741177811 -43.971279702225530173 16.640542008510529115 28.208648482863893037 9.9134233601870356267 -247.11605196601362877 -51.039613000085296335 -36.948752575921467667 6.302637798582477302 -26.212400573814679916 -26.533096810671953136 -64.95564256430957073 -98.317175713610836851 -33.801321083163969661 -28.416525256458776028 -1.8215679393334527347 12.972743651234404538 -46.800042655188121898 146.95298689238239831 -45.738399081982308303;40.469331417465440381 -57.264050624861951633 -51.941089121623811309 57.69046895298701827 -36.227105599112640277 33.220888673714469519 165.12772054432934965 2.3924235921472893907 -49.973624728264887551 -5.6394834068632757607 103.16764587986965296 -17.991059110096724538 -12.226585556908332819 17.929460657541159918 61.014970974001499826 21.060510062222896011 -16.118872075823823309 26.961338797794134337 91.60025629460443497 -104.74857405577417069 -8.6986393059533124728 -21.065050526191775759 70.74249161275190545 -74.548085735200189106 113.56287767373491704 19.475270455771742206 -58.665718192751803883 -31.773978334974344762 69.352938649689093609 11.994933172585128034 -61.823427777611271949 -36.565215500008946492 -6.3398400574374749183 18.498489340318350571 165.5098131548796232 -80.877752561828557987 83.420858400475580652 -53.926512924657977521 -10.247888754816212753 90.933282586922786095 -151.81571591418872913 -13.089406900943865608 46.649721218351452023 -81.86047365341862303 112.88246916629235272 24.520226680074401315 -15.798863162215670997 -17.947902674190814309 -100.13083388684384545 -0.8741910161339556673 49.209044602944047142 -83.523314161308761072 24.964100642768613625 18.311571826933445095 88.795275522873097884 4.6630428951505997759 6.5486724506730578099 50.3735369780501685 48.344156585802949166 -88.666178546350863598 -19.573176772178332072 -95.601002193420143271 -31.34347217454832446 32.788203178971215834 79.569877079658184016 -4.4979884521900972416 -24.573834949802421335 -58.630466495052338871 48.302520756718394068 -80.694511454434405096 -14.642294759515779745 1.9518496890075662797 -39.533472294349586207 19.976883133092666611 -13.611263190896675468 -81.993164824255401868 -66.555921644585524177 -38.129588881443886805 -99.580144218772332465 64.857505866100439107 -57.914158256545626102 50.556280003644758381 79.155513651704239919 -263.98143027991625331 -11.820503552354880483 55.615566259653078873 -55.302283404649003273 99.33393436025052381 -72.909391226942503295 27.441015535666032577 290.24184419792680956 43.992669080712630603 -40.689765488560183826 -20.353023582807349356 21.846707637317223316 -30.926507763588684696 3.5706574410840201672 -156.13442664905201696 9.5625001818623616145 -109.00625483579771924 8.8259412951392448576 -79.598307569407580786 103.25606484619515868 230.30214803309607419 -126.07479468890895191 5.3651266196167606282 40.022954103080920163 -49.578291938084319668 19.430743992410512533 -62.000244652450732019 1.1216665396221126016 179.11172527724187375;-38.902944460404576432 -39.648564882446365232 6.505581267431827186 15.783630470044004213 -45.406558313155386486 132.26338830672801805 -27.961015772173443139 -6.1651140174093743695 -86.274037016833474922 35.750545183189025522 96.909799746524385 -165.19989826996899751 94.80276838963385444 45.184713875830944119 -61.933646196546135343 242.86189894281849888 -65.043788615949509335 74.037981504966438706 91.308390889684574176 -103.35148520047374632 45.328115157031334093 -15.828013011724342718 22.974791250042208901 2.6174360149982076607 -124.3566298318801131 -53.276453863453099302 95.772100192483776482 -54.734937789795914398 84.617644490435608873 -31.615037488420615119 5.3661335143227386624 -42.31591583270082424 22.700341575810099926 -91.608603282706951632 -62.263266723743448949 118.06228164171139383 -31.590553763238439444 18.054615929123812634 -129.25946833424518445 -157.09490129032997174 181.28389376785514742 20.43839013634636359 -35.425803939840108114 -8.1429407437179541773 -61.456369079835035052 113.63043957631130354 212.83612396342229545 -186.16016895400957765 -103.42373573421960486 100.54013114711295884 18.014060489988004576 -59.806579252872801078 80.288185813271326197 -102.06847844301906036 9.9974665530135755631 -389.63399087095535833 -33.215088905441021438 -28.86891959728436774 59.975970683531485861 -56.976842217026259618 -105.77682975773460328 53.557681503148835134 81.549098456290181502 -110.10518079436489813 54.68014336741991599 -66.058268835962408616 71.551622426048666625 -19.376421174737167519 -95.728850654185436042 241.04931347389748453 13.133806944259633909 7.2333193013030232521 6.9681294078658302382 70.575086386052987564 15.397781368837888394 8.1839756048077081374 55.276749710954277361 108.84295313896134871 48.269466289470258857 88.833791484780221026 -140.87947585002621054 35.441394685185457547 -182.91810284159205935 346.094670155866595 -27.026427066786183673 132.87408026399558025 -80.09054654490076075 67.897252106341667854 169.31487267732350688 -49.664018225525069283 -39.55459931027765208 -90.775837511487097231 -219.67135027427485738 94.66066001650970918 74.439141174425046188 -18.993995739259528222 51.337749938170908592 -417.10840768258765365 -55.990432718508614585 -14.072893960755987308 17.299368271981613532 -79.587870170464313446 -147.24778754531055824 -48.115468960413316779 37.094349406740242614 25.69156643073770141 -7.1030628219653033639 -15.849623390976709914 18.980253454970604565 -135.72841815734753368 142.16689763396638568 222.08729420319158976;36.601069476666538094 -49.494815353402543678 4.6412721446130849046 -127.4101523442328272 149.2260098410047533 73.060785342104423989 30.84371801652770273 -122.24418586472791048 63.257074252641437795 -63.466720641257332147 -9.4540462416058819173 -111.31696809704278905 -56.996842285985962917 69.400452575487747708 34.559507607433239684 38.308296388756595263 62.838006712660245512 -93.691729295126194188 -46.805551297175234993 73.177837410226828752 -115.99882273502886676 13.969310760609475963 -63.955444480964857235 -59.645426684907562276 89.278410522350554857 77.187880459213999984 -69.327005502954406779 -89.622030050181649585 40.373827429745503537 -114.83473707098858085 35.70170667797307118 134.30598193909887073 -61.27290710636265203 31.795739401196911444 239.22132868096440461 -104.83848994744526806 41.264844223879222795 -56.182592793067321679 -56.942501698740208838 -16.517844636306673323 -70.636021921168236304 4.4984562494976154667 0.21547588057612898638 -80.800672150487145018 32.188208757730478737 145.36033568839826557 -97.70329059726725518 59.713516551360946494 -51.329605675536875253 -24.090305040329127451 -72.245892057688664067 86.602141329123952573 -46.546434433124076691 -3.7167262029018948155 34.166385948972020969 -44.89616127890024444 55.310515031338013614 60.400978471075106313 90.244217082703599431 57.86167735991747918 -116.046760330985677 61.902209858874826409 1.7668829233315102023 33.917906521287470412 -80.477271974148663958 -45.685647521100015922 50.990946599711911347 44.379113539140675471 -43.081586013356385934 -0.13042732437488030461 179.53537479472726091 -78.052954525691887966 99.62091753603640143 -2.1432972222360109349 31.337031293479107319 117.63439121886607097 47.619950092875100722 -13.448116564363733261 82.281966888324078013 2.3122581874353431708 -32.170645045071253776 115.84538808805960741 -99.176533660399329051 29.933199233476134538 -111.67971591559239641 96.382594695379523841 -90.069161507158980839 24.691782899523442296 16.887945270140445331 0.12493759925190950355 -29.844436699099254895 -100.37075553666194594 16.785060410366639871 -5.4947643047590428722 -29.974107119295656076 0.79939750375844242924 63.721487070764972316 -13.502735252187768822 28.024743686966310463 50.404258991175346694 83.69885377857181652 -24.332320759836484569 21.528661162200275925 -143.81479169182384226 -162.06305802976865493 72.280746739989396588 23.422700355278273321 -154.89757540113964751 73.07210586268105601 -16.896495508974123112 -20.594694387840558392 97.962492594670010249;-19.7882915421463359 -20.920370232681811729 60.93608604304893106 -5.461651473638387877 -5.0546620551809491317 -147.70595674232833971 -302.10766917034101198 112.16265064475352631 -90.349704178138637189 -5.740413261090422381 100.91199863015984306 -86.42127650749525003 33.764960620659387303 384.52320165002123531 -101.51388935027860327 165.56143641351010842 62.128752313353089676 -27.751699187436425831 -100.87602034690905839 -3.2688832952796094133 210.5098830656672817 -79.523050793087890042 231.17476434848109079 13.531927874961034775 -138.13129895220490084 44.451910446602497018 -79.836482140050748058 50.222791646117094899 46.680705720103297551 168.5760524340263089 108.52384307007000075 -375.29025395869587101 6.8366522864940542092 114.66983151876763714 115.1193699637082517 47.988413755306865482 -10.613060558411167023 -122.8880502000676529 26.144152674104287115 91.781379362316528159 58.480752589745684134 -256.20637423453615611 -107.50289011528350613 -39.991991516868381495 179.20709236657967267 95.538499652250322924 -52.807673341133302358 52.103206777009361872 -21.93765674722283876 -49.069979879620994723 106.23401632271547612 -53.425522926694760883 -34.737266112662283035 -165.40580056091982897 -65.608786244413153099 -117.19225998246263032 134.1697134603986683 -57.859472739452264989 -80.61098076485413344 52.051055915388779738 163.62210412442172469 47.602894441888246035 -120.25370359991367764 66.540526252559942577 -47.055472462587424332 8.4954128486198818848 35.097391160581302927 -13.92288808654710941 -5.325787171903663797 -46.725052783501560327 -90.926888197920405332 -65.261884665237076319 59.089246407365678238 -127.33035919447343076 93.874761772649108593 -42.389415170080553708 83.481557562711685705 -161.77331084773484804 19.90352513107891852 -14.862038805932591856 -33.071736755077409953 -22.070624687644304629 126.4198980487654751 -15.436270120684964624 -74.760198033123572259 -119.36919315592898272 129.397658621476495 -117.89402990921215064 -16.049352499455103782 -21.952720181514646214 320.33601397803727195 -64.9184142504828543 -105.67814309220888447 127.18278458883716553 6.040026223499951108 -33.667002352746976612 5.3068971392016877076 -86.621170329900479601 46.0812102272627655 95.784360723528507719 9.4563951193408648521 50.893782364372675886 79.713214494235671737 -78.271917934613483681 106.10302582444705877 124.90899650469796711 52.134061964092303754 -185.23471172950908681 119.29528177196675642 26.607892643090735874 64.480046570026601671 -305.09022658448952825;31.68412425818353384 -19.722299248525313686 39.265658005937332575 -15.34329715128632543 -28.153991116915829451 28.2941546678432303 153.95603115172147568 48.272138708789107397 -47.700132133582670235 10.398669009441952937 48.530700842908011339 -51.221693751334846922 -21.708953390571718245 9.5049970970587036589 20.488477807129140018 9.1624427481146870633 -24.795583229938884529 -28.406836888444352951 5.4875253958511009955 -12.768747559918722345 -132.28117080422785534 11.135526010429208199 -2.642892164877304495 -9.1883246119801942342 -20.294911431801988755 23.38591950387448648 1.8881672220445615551 22.09910751983305488 18.739978337455465152 -11.642933525610356327 -23.55278635350602201 -20.162311693261305123 17.960754862794701125 -21.004169686202782685 157.70776213196404569 -34.387427107071907528 -24.4222799065362004 86.413922081200524872 54.758846176456074772 84.502054792178668663 78.031264631614789096 -97.946463410050526477 -58.616428518102722478 -19.255284493896308362 40.530186338377070854 -94.635462522130325169 -11.705947597946657623 -7.4461858447414170925 -79.378923869603454477 2.9440704090875589038 13.207551649633863633 6.2573437692022153556 29.860610585287243879 -49.679048176005181858 38.932883557513548567 -2.8724154521925582273 -30.994951835145446495 -22.645394919607930717 2.6279238257211474661 3.4306228446785933528 -48.617458348290192305 36.411048803270567475 -26.178205609086834471 59.226872451789205343 -23.700016727690716323 -32.206180908447748834 28.603797362861044462 -50.05828058774697098 46.522819864468047513 -62.812905264536404104 -28.810165321065849042 -25.070017499403011385 -0.86734759282090490018 -13.390287003412057132 39.852196652951676015 22.351070886090305123 56.926017804413234558 7.1064336137367414281 30.496480563353127735 -12.74861731721805036 -11.092180868206810374 23.308907440626825291 -50.024679042202798485 -76.291460440399916365 -2.2645881478424598754 71.586724888836101854 50.140628170129019736 -45.278820935761075361 49.116522355044445192 -11.486418701427414391 -17.808555794193978272 13.281715083878339101 -79.629232041936631958 11.454540938808946748 -8.0580596229346319603 -12.674958686555067189 -6.2127757363214843878 -51.79818437012945509 -78.228843518557781067 64.056624023275162472 -58.570940864753765709 5.8322868842846080639 78.356214545297987684 -124.34086313954483671 290.56329468906903912 -17.643012666966836122 14.767072838222270903 48.457202958856576913 19.638001685459929746 -58.148962694264753281 132.2242725017141538 -119.20829663852342151];

% Layer 2
b2 = [-0.30886011613397335029;0.30886012022894049345];
LW2_1 = [0.022887512144898758404 0.090873800490680153863 -0.071967211725752266993 0.061670140513946994365 -0.029080213465868115508 0.055465983573205333845 0.023256793823504290364 -0.026897034608412244416 0.0036588168621821230697 -0.82493910090695810045 0.069185861591258765446 -0.057626682014248552244 0.021946604471354970445 0.042736734629997503998 0.05343057466469375294 -0.07495132384056162056 0.0535623455949770233 -0.054901364557839768543 0.066050827218137708741 -0.06076955445652081067;-0.022887513334147555066 -0.090873799355636705743 0.07196721024750790674 -0.06167014079106450386 0.029080213527213918945 -0.055465983007830829687 -0.023256795947543734693 0.026897035041679423495 -0.0036588167597150153543 0.82493910116300306345 -0.069185861317286156957 0.057626683302828191069 -0.02194660328335897026 -0.042736735421644828081 -0.05343057431126881085 0.074951323771616354397 -0.053562345914818551562 0.054901365066821902761 -0.066050827567727191103 0.060769554104062123434];

% Output 1
y1_step1.ymin = -1;
y1_step1.gain = [0.001001001001001;0.001001001001001];
y1_step1.xoffset = [-999;-999];

% ===== SIMULATION ========

% Dimensions
Q = size(x1,1); % samples

% Input 1
x1 = x1';
xp1 = mapminmax_apply(x1,x1_step1);

% Layer 1
a1 = tansig_apply(repmat(b1,1,Q) + IW1_1*xp1);

% Layer 2
a2 = repmat(b2,1,Q) + LW2_1*a1;

% Output 1
y1 = mapminmax_reverse(a2,y1_step1);
y1 = y1';
end

% ===== MODULE FUNCTIONS ========

% Map Minimum and Maximum Input Processing Function
function y = mapminmax_apply(x,settings)
y = bsxfun(@minus,x,settings.xoffset);
y = bsxfun(@times,y,settings.gain);
y = bsxfun(@plus,y,settings.ymin);
end

% Sigmoid Symmetric Transfer Function
function a = tansig_apply(n,~)
a = 2 ./ (1 + exp(-2*n)) - 1;
end

% Map Minimum and Maximum Output Reverse-Processing Function
function x = mapminmax_reverse(y,settings)
x = bsxfun(@minus,y,settings.ymin);
x = bsxfun(@rdivide,x,settings.gain);
x = bsxfun(@plus,x,settings.xoffset);
end
