function [y1] = NN_Baseline_u1(x1)
%MYNEURALNETWORKFUNCTION neural network simulation function.
%
% Generated by Neural Network Toolbox function genFunction, 11-Oct-2016 21:39:55.
%
% [y1] = myNeuralNetworkFunction(x1) takes these arguments:
%   x = Qx112 matrix, input #1
% and returns:
%   y = Qx2 matrix, output #1
% where Q is the number of samples.

%#ok<*RPMT0>

% ===== NEURAL NETWORK CONSTANTS =====

% Input 1
x1_step1.xoffset = [0;0;0;0;0;0;0;0;0;0;0;0;0;0;0;0;0;0;0;0;0;0;0;0;0;0;0;0;0;0;0;0;0;0;0;0;0;0;0;0;0;0;0;0;0;0;0;0;0;0;0;0;0;0;0;0;0;0;0;0;0;0;0;0;0;0;0;0;0;0;0;0;0;0;0;0;0;0;0;0;0;0;0;0;0;0;0;0;0;0;0;0;0;0;0;0;0;0;0;0;0;0;0;0;0;0;0;0;0;0;0;0];
x1_step1.gain = [0.671546903607021;1.22752039390188;1.54804054103307;1.08873275073221;4.68183520442476;7.10401476254288;0.57362231554572;0.490374611332631;1.20062881024062;2.09088913364189;1.51336310288391;4.74885579014273;6.97153247910271;0.796912066063288;0.446175450406151;0.793652601767594;1.354009372139;1.61732159298487;5.14917941668347;7.30532508539352;0.75586766426518;0.304574148481408;0.673063408039187;1.11902498741221;1.64303032902686;3.37767165717587;6.40419830886604;1.32708429720452;0.351524688587121;0.70292118501844;0.623977073108032;0.415872527353981;1.50494611120814;5.07930033894364;0.78464431053911;0.486157455380842;1.0136491964621;1.58151697358655;1.31496755065229;5.56055816321322;7.45702017940932;0.404328683247825;0.126379413881866;0.906122940132061;0.968400992388998;1.35347282278988;2.66317380608544;6.58453122122408;0.358478115146893;0.29536310021738;1.0679770037472;1.30599596771055;1.44275123795784;1.92507441107962;4.99304592563978;0.268039186866137;0.268658446809387;1.00412171184598;0.894260125338721;1.33464157336282;2.95847710837935;4.57195334716456;2.36190136172553;0.263131532642005;0.600432870128797;0.640760032365661;0.787036788582226;1.23857320743069;1.1203546731317;2.14129752510188;0.350886715307608;0.781263405454328;1.14852117394782;1.4484980821483;2.68837012468784;1.92911920634963;1.24387438491029;0.228530803817637;0.506873474746503;1.06464947896813;1.44934898486838;3.67769738817139;5.39129346397232;0.832656592463892;0.212419857072157;0.447116811940671;0.653900677597169;0.503894719346239;1.19167637165675;1.21891051712178;0.627565374697378;0.346080105879305;0.52274215343813;0.899919530196237;0.763110485076758;1.36450283880766;1.04629546824004;0.600255383427555;0.266574518479857;0.485682438583689;0.778258871257591;1.03636240429276;2.08631684386618;1.74058256528709;0.368799437327061;0.489521737846613;0.999637258551713;1.7758536758597;1.82836697120531;3.80794815246985;3.705202455115;0.488273098335079];
x1_step1.ymin = -1;

% Layer 1
b1 = [-11.12507807641129709;-9.1057102518484818177;3.0674769361938079015;4.9824506581306273745;0.099439473339884468239;-6.8473176941097007031;-20.76992478484539717;-9.4268940656928599253;-6.840323678451358802;-8.3213635032474648767;1.2161092921533569466;8.893179391349342211;3.3526402996667297174;-10.450825027746383;-6.8288157081932583381;3.4336970087696516707;3.6540274868651154705;-0.84523784781327893079;7.5284990902564148385;-27.297174463976066505;-11.017766562499760497;10.149453236268799472;-2.3273847390095938614;5.7247239550585877765;-1.7626319704214390427;6.5037567132618177013;10.129831969351922538;-15.879616013423733634;-6.1067433937405901645;7.7328460659119668819];
IW1_1 = [-3.8223005634287621213 -15.635571115659217867 3.3248317260898150316 15.837589890088471734 -6.5924052858653343634 24.692428591285601414 0.91301677181347462575 18.970505166919490847 10.590104307931877514 -29.915958261691230291 -17.204085496540781008 13.314450575835770962 14.545660725430435534 -3.1410061953035981475 3.7483209548269456057 -10.400863033558668036 -0.29272571450945639171 -7.7435400436076298192 12.630614244628466381 6.6967323426557952004 -6.7531495340578580056 14.484798294402255081 -11.217072549047403029 3.6300588072381017035 21.949169367520401153 6.0771712944824543001 21.163214226197649026 7.2808171393133385152 -14.64974579365967422 12.096370312375713141 7.2589996071548377188 -10.0927019300845906 -3.5615948682123010904 -12.209526020140060609 6.7869205388442956917 31.204906849659316492 0.65306115238184636596 -14.863121745670827778 15.168001423171286746 -7.6760353572650332765 -8.9249891090916655401 0.82947060451469578624 -6.7778046738548347605 -13.626312109125327865 -2.8023964978994979624 1.4047510724303124974 -1.0381777580471303057 -21.359798438600979154 -4.3510513221605480183 -6.053605160523940043 5.6070897966268349322 -12.99751233695388386 -23.161297421929727847 -17.549711062004519135 -3.7994207093423093546 -3.3779210173951979002 -4.133825292374073257 7.8572386993514440334 25.733229725975885316 -11.201786339480724664 16.752259317614281997 -0.17515557124716357729 -23.238276011320106562 -6.3027981185957600019 -8.849934438274651427 2.8626545190940442254 4.8658648086450959624 0.1720590121369925396 -0.3524489108545585947 7.4527976777983822032 16.230009103861824826 -3.9687530415459701949 12.562410294456272553 -4.0867967996347482895 -3.9602734152599410322 -4.4510937785946955714 -11.903437756265152103 -3.8487778429124137602 -11.395611256954104817 -6.3241991339130816385 11.341542761066456535 -0.99127616283652697504 9.6232223649998704929 5.3867217170894665657 -6.0893898484454300757 -23.695162874203482772 9.1463537204497420419 12.124763674878112241 -0.78038274810653396329 7.5095315276236567215 -0.42890905236786031063 6.0249460672980195142 -4.5021966220765339273 -12.124877274839523267 0.83965183218315542213 -1.9364805696490683395 -8.42988060881053336 3.0097660056551500674 -7.5285232156800230285 -9.1550199779076386619 -0.75046633171239207627 18.091826832180665008 -4.5546058577922599042 5.8913452306708702366 8.1132959182583856972 8.5698345520218364157 11.53177481124340531 1.917363179785159133 -8.799565212572156625 -10.97502059016831133 2.7623806975192768398 0.91510059634702101139;-6.6116616997110533305 5.3668578750983453318 -3.5575312462192023588 -10.31809203971993405 -17.667123415301503542 11.905245110246852391 6.3010584498867592274 -5.1971344042737932511 -1.3789102630459710852 -0.69982810608934387098 21.181223508130450739 -14.157028134268564656 23.61129103153735187 9.5966236594796257009 14.359664550059180854 -10.030424981594041611 -2.9008276219967559229 3.0178376922615890443 1.9503405389878247789 -9.7005643918941668602 0.8270702090926036476 5.9376417251698461186 4.2213402954551622059 7.3923761597516453037 -11.419112148193924838 7.0105201171907012281 9.0750055441449752891 -2.288136336710280716 22.609880851957804282 2.0774246671488691973 -33.58339367723113611 8.6314332058352860599 12.260173042646748343 3.5776732247631701789 -9.5106295474866477946 -16.117519467738969041 -12.879442881732488857 11.076218332928553068 7.4501596903241820158 -2.5267881023230476245 -8.9711765343976193066 -5.3906021155286749647 18.73319656949566081 15.536819635334726541 -2.7705799796940882018 23.280721132579493826 14.212223942211160477 -4.6360327998971495589 -7.7427012365365603941 23.799889424367080437 -9.8814313079694002795 -6.6417806837795536623 -8.6618046256940708361 16.483707591392025904 -16.152429026834173698 -4.406541393679876073 -20.41866103444924363 4.425401362280839912 7.7112598619420404944 2.0354535954568002687 -23.11177985726401829 -24.903029828828373127 14.644988072294266246 20.706927020812443629 -24.79954818580918996 -4.2117346852106649635 23.220714595074053221 -18.664784461303657537 0.38660669743477160676 5.9500450527953017144 10.594014254831483512 15.3721439615089146 -2.2889130297901161271 -0.75389092439646010479 -0.19875085911993056742 3.1289832266743951017 -20.526816444864582678 -6.6235812193605463349 -0.8173444546881645234 -9.3575093435948293319 8.8845092989840157571 13.306567295083031155 10.998163567264736429 -1.3679048312878099303 2.599329615653745762 -2.4998661089776956779 2.0482873530306071608 -0.97368705467775029661 -32.485299719477254143 0.40699157812956254787 9.4194407215650457488 6.9626713416503029919 -28.50203381395366975 -1.1941376320311185566 11.630235075637887832 -8.8850764113398401634 -6.5000577739002203259 -4.0363236359998202474 -15.367886388943682974 12.23902023445057452 10.32222859718556407 -11.838086432966461459 -2.5839600300973466496 -24.264620195275362846 -0.60797244038007458578 14.545159158947400968 12.882167587600740433 -18.372722503891917967 -12.886888017774708715 9.7959082917072244356 23.084032184615502103 2.019204143955525943;3.6273711829694934572 7.1186874836802065403 11.207155649233811801 -12.242710582326470359 6.6510769536378360201 -1.8789966705953404791 7.5908677584956647522 -6.4460702736279147373 -0.40399902519218611197 15.66108889673921567 -15.365319962930582776 -8.6970660144080671472 3.7658656526892073657 -7.611154185278302009 13.378958412736157157 16.902806309188957101 5.002610116705261234 0.16282528727636469412 5.1651480852616744599 -0.83679672940436145012 -6.4813347143880148948 -33.0397775705725536 -16.96064152822221871 -3.0984847723225166227 -0.031598555645755199706 6.9893275696411603093 -2.1711432962993613138 2.9012864555125026378 6.7843765686384438496 7.3882837488625661138 15.304573145278073554 9.7148437025972622649 15.772182743557689122 2.7022011825761005355 0.66624305662120364424 -0.29860826860680977912 -32.458815436477173932 -2.7229744625818836923 -13.652005733339024118 -9.254780393681537376 10.682761092850569185 3.7045627339104769682 -14.762005469525471213 -1.4276669250788895926 9.0893730608283096473 0.08326226462813557383 1.8849223393922687197 0.16147398211429564441 -3.9323305999961108981 -16.404229572521021652 17.496369378839354169 -1.150353532286669811 -18.134321467654235249 0.19888637773181272461 12.045065862988304062 -0.97718612683913241845 -21.332793156919859001 -21.927385029792979765 -24.608249045743679773 -13.332919485356336864 -10.51688346883453562 -14.705041484743672342 11.84885136460431454 2.1357236783200947983 2.708743759816395702 1.3257526647619959359 -8.8573063547553321229 15.276098028385444394 -8.6972441569475584799 -4.2315994854038221362 10.956700940418812706 -13.499638920558101773 26.190380078387853757 -15.176202625570750726 -1.1844591710363752135 -11.669739793892984991 -3.7612165946072924072 -4.2465801318267377695 14.48525505857237583 27.031124023265892475 -1.7472237300468198562 -17.594850503974438283 0.87803878703405713324 -0.46294818800786186053 -21.018238569017206885 2.0360265843128724228 4.9387608365048301096 2.9438967308839876225 -1.1071281003078834448 11.166272660653527637 2.8877243509526300258 18.157178646695136592 -2.4667114202065056894 14.395574853330556309 -13.755412216046295271 16.302313117883016957 -9.3694073474636478949 -12.305974623701603221 10.562658039494074558 -1.2095976985695631178 13.153810988427647288 -11.023598412202911589 9.6802929886412236726 0.95223867117690075279 7.8605609269619556301 -38.723782647353367281 2.1495585656490461268 21.433365524978082561 13.859817699606770347 10.433242174194734986 8.924821980303164537 -4.3396953582119435211;-14.732140445472813539 18.736235785190874736 8.2915187016280729182 -11.918654001631583839 -0.81754291374291920835 10.845624563979338717 -2.9234177234590865702 16.263496357923841629 26.299321254821940386 -10.960736792871369261 -21.219298274665252535 -12.402740835615244208 -15.162439180769164082 -12.295813957145842465 -3.7065882516388075629 3.4484853530570553914 -3.2021710139487140623 2.0732290757430966721 15.025510608666946766 28.703296288839027284 -0.46356361339263868482 -22.613968572747957353 -15.39971106581679372 4.2362714912746435303 9.5483357710646572514 0.51807840780582847806 3.5183893205315515118 2.3826248838403678576 5.3832312354392017895 -34.677564062033830794 21.567432674895844258 -16.496423846535606117 -10.135746162739462051 19.126814565320849226 3.180516249412111307 42.245092288465748709 -3.4577935389459923954 13.02132498602569477 0.59354502259962860222 -31.313333971962094893 -1.5962614123897074236 -0.13113139116426919539 15.795719840590042082 4.0216164956010693743 -26.100564303312374648 0.35178321251396177383 -12.160785218470200775 -12.1338566595439179 -4.3797967097247916257 -15.272491054558066992 -11.154854693509415497 8.9928702917114424764 16.172711164874836953 1.3916819631136865265 -1.0414393133198767138 -3.6872403436711955749 -30.377739420211590016 -22.362105346926206551 -6.2595260938723624733 13.767933034982311469 1.6213349525888323122 -1.9653116854275702874 -10.381892291508306059 -6.7937954550133223819 0.067332906104897283228 -13.553298542209647692 -11.790381157811003376 9.8341209341253268406 0.91022146237738899011 13.593046934999851061 8.6792363432403938361 24.211596739533881362 22.93161959222567603 -20.05093430002732191 -13.882702447238798982 -4.9605616279712769767 8.6466837981135871161 -11.408134105348704423 3.467881691248665188 -12.18975691603081124 28.483888261254399765 5.1698926971957819276 24.999485999761130728 9.485091760207170708 1.5753677608841016866 12.520512692841874625 -8.7305340814889618173 15.487048620669023435 3.2322022461536255022 -16.175937856696609884 7.5507852015281615721 -7.4599894891788220974 -19.456778747763184612 1.5476757250494892482 11.607733305188110862 -1.5018022891682070163 3.4393907535501178074 -9.4169352014498901582 3.0950190896219704761 13.666136497361074831 2.0110622857609894432 5.6766223756887290719 -21.088194015453041175 5.4677799568272957842 1.319250144991678475 24.492293979558894534 -26.469860847728440945 -4.21776185133822068 -1.2310317335448193177 -13.422047986394437302 -3.4924992627465138995 -6.3272642754948318355;14.866149192366520992 -11.28905146634131107 -4.5188767287557958241 -14.93132256766705801 -16.520839265206781477 -5.7213519610653893466 -3.958057797047852322 -9.6384683475313472911 -4.9216112779755523121 -8.8181831152397638363 5.7640748087433060221 19.06457052466043578 2.196524639015484226 -1.4026103289200146929 2.4421843799299973732 -9.0539410742429353718 -2.7371002227059997303 -7.7283179639161634356 0.19538785037136841005 -2.2496764547168881521 -1.320805095350022107 5.713052703723666248 -1.525254679807510616 5.3605406083495754643 -1.3639135859202156098 -5.3967962866153875723 -2.2767554707876782594 -2.1528481144190525498 -23.865075551922899422 -9.1727607653956031442 -6.1381103896276227871 -1.0583312348482554199 -2.610671506649687057 -7.1103849316235194777 0.0079079522472532276511 -9.7111720698856931477 -12.668823037775648999 -2.4655602194686974116 -7.112833131941086684 0.10957439065932472744 4.4040805389629937849 -1.8566949685548486126 1.500661298921570852 14.661632360463155322 -5.8240544840975996266 -3.7593736761740723651 1.0035314375049526614 5.8280330906635544608 -1.2133603522020408594 16.705984295691237662 20.046603302023296322 18.710374264258344823 2.3456396043074390079 2.3349900842650170851 5.3806626514237620995 -2.132817409412863352 0.52837511187740804353 -22.421781585743868703 15.838358070688670409 18.89690241590885833 5.2820674164676582052 4.5291285433290706663 -5.2641778246575681166 3.5129758157027621834 -6.4880210356946301786 2.1340577497782402538 1.4250912153204033928 4.3664621422391247663 3.2149102191018710251 3.9972819650283764048 4.0130281789892849886 -4.947619871473881048 -2.7611429493339696428 -12.697040578559469992 3.0771410165712484996 -0.072361046422048436177 -4.8098887972438024718 8.0233016848525320341 2.0008892771077095851 6.983513796673105567 10.203883075367679467 3.3377121688754729512 -3.2273238984671581697 -0.29741994803170224149 -0.0020452896883575433229 9.1610060456756521319 9.3069968330702543824 0.97366837310470744082 -2.7691135133982585081 -8.8787982437173074146 -2.3858459724273815006 -11.283933459510466335 13.644231420941018484 -6.7157869062252899539 2.5351086733609569102 -2.767841024915941972 -11.964484405487432639 -5.4487060323874203505 7.1947855757363017304 -0.93011090954392305896 6.3262988897058649584 11.612423321733365 -3.1286602389390689716 3.5953397740240617964 -1.8832238685233200215 0.87811325675242635214 -4.4554528272844002856 3.1280242704663083764 0.63786881503575454389 5.5934926817505328245 -2.5994566638323819419 -1.4288101759574922678;-2.010613901050374519 -2.0161386688349507423 1.0163826854217439255 -1.0610705950771892603 3.6285021969368198569 -2.5037178994338677995 -0.41403095129725575596 2.9624736871824115525 3.7942248901720416754 -4.3669065950999161885 -3.4225349022237585572 1.3747506782101557299 -6.7887087804268668734 -1.3673734426715555834 0.93068059776601086419 3.665211100539956135 1.391100304063130233 -1.6710348059086466144 3.4127488434270945028 -0.75199712662780582306 7.4618127629993580285 1.8730781636587621186 -1.2365517666192828994 -6.7132630757073723515 4.3436486480908689245 -10.979633364641284032 6.880742340166749571 -25.757088437594067187 9.3086203322915714864 -7.4219567717009482521 -3.8061379026452231145 4.6626560023421941281 -2.2415866746926003117 -0.60176503416693361004 -0.21723895421415928553 -2.6132722321975188073 4.7528606213463788777 -0.2673868923251307983 -4.593529696826372799 -0.089982064841193643012 -3.5685535750589099102 -3.8909636443381439008 -3.2930442768236716233 -1.1518376958944096522 -2.8720172362838174429 4.8855093384183554406 21.802883454115576711 1.9564177011590313526 -0.13774657431802928009 -2.7832310676977165542 0.92813871559561200719 4.6279956512346149822 -6.9623822616792816476 -8.0454787077956879671 -1.0235915894080576116 2.7958621536793550888 3.0452118336940765531 -1.6097243569886177106 0.38653887522918284336 1.2094674326364223127 1.4594562420905690114 -1.4683539094650641665 0.092381482957557770064 -3.8101650528872532675 -0.044736937381332442243 3.9228226918984847593 -12.337336214843086069 4.3211791262151635351 -7.4461084415903231459 2.4070963644022023153 6.8009018373468634877 -1.9102250778681879595 4.6960089225165928539 -4.0254690928594634158 1.7026284407803040644 2.5970232640286776693 -9.8119792611504070834 0.95036483516711722785 1.1979406686763252043 1.2444765075343333649 -5.6697914469457222353 1.2080731386407572714 4.7451573434922629247 2.0513033797433086747 -2.2713915661394135093 0.32078406598141961936 5.2703947320095121398 2.9794560627303234845 -2.1645334225628181102 -4.2442447884617617859 0.60714052940899954081 -0.62298311346867096816 0.93654424120456614133 1.9893501838779159563 -1.531817573643346142 -17.971407975230281551 7.7242849423774142537 27.266442857079113082 -9.104771359070392478 2.5294276365984944555 -1.0635914906476797714 8.1697392865033027221 25.486725439888189726 8.2266610202235028737 8.4930434875954876617 -2.5351188742047945368 5.3586058463449770528 -0.6417416885136653093 -1.3734713345909055349 -1.8425985495039065576 -17.4090594621025474 -14.43299366867334399;-8.5599199895124851167 8.9917155689430359189 6.3727731089328454317 12.406501473473685593 -7.2416191924686366121 -1.6129685206083719251 -0.6419602808775346503 -2.1250283428961789234 1.189144029644516154 25.314464491201476903 19.174692252145568716 -9.3017848956084510093 -15.610630622074783247 1.2470882228086117571 -21.106926514008094387 6.8003245073959197597 -20.394533680130383146 3.7317952233021669528 15.244144171931438336 5.090394255703769133 4.7997459723341435733 3.0392128999310088489 7.1649566609336226009 -20.915720928417520952 -12.826342944013953584 7.3414016789840248478 -18.459235517506691338 -4.0995184426742445893 4.5840967907845060481 -5.2856279170649660415 -4.1680751120562851142 -4.2112289660631656574 6.4199896119181456555 17.316143488623403357 1.3065313016752329034 -4.4466178864383198999 -0.412086981859957735 1.928407639253940431 -16.926569293242398118 6.4145047539066801789 -7.9199622262683408991 -3.5612469028835782581 0.7163111057638520407 0.30054365118546377822 23.937726084030764184 -3.8144389905893625325 -15.844521935439939142 -7.3081183610770308334 -2.0563845592265992401 5.6885376843704191785 -7.6898621459352956009 -7.4780273843695663771 10.091293636637640674 0.80051331638594025453 13.02377792436463011 1.1815494909381771826 1.7011465028273411448 -10.558690825991414286 14.108168532054348177 -8.8309291283188677824 -1.0602911474537521919 -10.336088887022649274 -2.4764439358872172292 2.6381788961802525861 -12.132392295639629509 2.8471590350133881842 16.137201378722938472 8.8352662709717968426 13.164806935387634468 3.9359719044811258826 29.426272375663529601 15.184358886012963907 -25.395349662546291114 -13.868704530234378325 -4.1116414673002639191 -13.175991555332586813 3.7658820771350125511 -13.183178077855258081 18.531475308138634972 -7.5421606086352568354 -4.3474523746445443706 -1.2464627520800402039 -13.005825694032040474 1.1001734196675685418 11.565106668861842465 2.4253876685806363689 8.7469678377213675446 -2.0822174220159062052 -6.824572553151626586 -10.669571112083849229 -16.470509246415243609 8.9024047352819586365 1.5528677427080055384 -25.973800170294225609 -22.325382182418863408 0.51005957789923561663 11.117156052231463192 22.121229782531660391 7.1056328810397593188 5.3262407293193243518 -0.20446059869830968125 9.9181526689505545846 -5.15392071694565157 -22.850853503937678113 -11.84735004548634052 7.0641427469577493525 -17.913437126445341363 -7.1511423081143110636 13.984465940880452806 11.107746507714081119 7.2997905557847317937 -3.8911220513457713821;8.9036508463593087015 -6.7846284421668654474 5.8109727390268854919 -4.7861046829982587525 10.836109168384084001 -6.0157035462981856 4.4488554336386929577 -9.3472290716499131236 9.2568600517073136302 -0.3605312258366906164 -16.128150525809321181 5.5471692174340718751 -15.144694616125370601 4.7191931758244809458 -3.436548270993731613 7.0253967104940961974 -6.1012085028124776187 13.060989067077199977 -12.126932729246247433 4.6269061832441451543 2.734994433669358127 2.8812340616476586064 7.2094802280626115731 14.686940881939204218 -8.0875108411795686436 -13.406968277910660703 3.3037259514009997829 -13.924375444702452143 -8.8311256613870181553 -9.101502121764397657 0.90812171140362585309 2.7176999220588626827 5.4808528175263830917 8.9169664099757373066 1.9602731696887447654 6.5595699005113781155 6.2548222285382220065 -15.6037972169312944 18.035031984386392878 -7.8078952019183525124 -7.6274451911734431064 -12.619600268239141272 6.9476920213417781014 -1.2463048868326671581 -5.7694184380229263098 -5.8895026402033430202 14.133251923687694784 9.103187793592899979 -7.9530880259496044005 -3.6969011510142282262 12.325230172731258094 -1.467164500301427088 3.4064064442996264681 -33.740141008887263752 10.407268302199954135 5.668596414847734799 -2.3641183606766551506 -4.8185121256743634888 3.6534971891799825627 7.7175310382223409889 28.297495903963969965 -11.092579402185156923 -1.2689770507751501061 11.468800188748641489 1.2451510971491634994 -2.8824551804033546887 -4.0514878970451029261 0.91838495879159465218 -22.218105309690230342 -3.0744546596043003106 5.8848149601101766848 8.5515109809178078137 -11.603166887033591337 8.9642850752243106172 7.7742483863526263832 7.5501605166404770486 1.6534463998496051751 1.1933071598684779069 -8.2788747778940248168 -9.3392765474419476845 6.1822344632709302914 -14.469254393555440075 6.9859880297837522178 -0.74725807294906243516 15.670066359761984032 0.32797525670762062155 -12.06776701326484158 -6.1563702694081596789 -27.82386614619418097 14.72177439304230262 19.364430709717009194 -7.3284750700522582889 4.9449920899218051673 -14.848348549161356047 10.406808759533200615 -0.86137650806128329695 -15.426429325755481869 -0.81524792997976369691 -6.4631017401876560413 -0.041118805615063092063 -5.5868662166096569877 8.5009187416524429892 1.9753880544787674189 9.3651775175882328028 -13.404311420554504863 -14.335266448016557916 2.7927591474228021795 10.255345759750966295 -6.5257119995149617253 15.873918082014608189 9.2450187752176979927 7.5975156128118683796;-12.151969246821005655 13.779718509984400399 -29.902911736804810516 -4.4938849986976832085 8.4242763366357191757 -9.0347026759508359817 -1.9193536376459436887 -11.737265385836739284 -14.199656039597066126 9.3249355895521031101 5.3293515007823852869 -5.6009862083046924042 4.7373736026248938202 3.9739847374568446625 2.7967561635373732187 9.0964029024181805028 16.245108740908424494 11.686656076103721702 -1.3931324623469216739 -15.782342192137370773 -0.82072512251711082776 11.408327558336532448 13.247469350426257506 3.5021582708958787222 -36.492305283599435484 14.670510127198440387 6.4064486540876455223 -5.0068452281647841673 28.144638658998260894 -1.937589992749603196 12.004602735521849866 9.5933464224568538725 3.4082506227410931388 -23.798030616140771087 -1.390415953517783576 24.728678670329486522 -19.76162924754236272 -3.5386757300757230027 8.1759517295816248605 3.963588113082974651 -14.408407199062704507 -1.6384400216423107288 -30.800630336322470271 -3.4275087273377273789 3.961634835741695948 -15.741450955523445643 -9.0183679759547175081 -12.603765267209514178 -1.8993856899446879272 13.7912570694117953 2.2711797716775028455 -18.629378807092411563 -6.170039905410387604 -7.8721235023756381821 -1.4299476757480160671 -0.77972612394369200661 -16.480412413805396454 27.752749157855014062 37.773411615226585525 -20.49517586390311763 6.2308403622345167605 -8.2649781546448490843 0.44230597846625796521 21.043756973562310009 -17.3892582849015227 7.2588408621193911685 7.0961945527056364824 6.1348455633215239757 1.9750487473503461899 1.2963071653488340562 -12.223771935917184805 0.50745256455955134456 7.9728912433279761629 1.9868897837570211884 9.9869617489542044098 2.3296629299964752846 1.1073855678976429751 -0.7597139382987965206 -8.759671479082765444 18.291141518742708882 -14.623287534248810005 6.6469189886139270484 0.98862169244886100028 -3.561139854678383454 -20.670905895266347585 10.769195284430448822 21.415098596962014454 8.2748066124751158412 3.321836523696169774 5.7086810003511905265 -7.0480331719547439917 17.985711199125752557 -1.1164872915973931278 4.6363533967315735396 -5.7431628586808702863 8.9925767254924817706 1.2246814205234040074 12.547333904588098719 24.554724550994205146 17.12004239283213991 -7.9101575991320016712 -0.2727375099976662165 -24.162725664389121505 -12.477050440404100939 -1.5929440425179461904 -22.188781053537177002 -20.714665188269577811 -18.188206203030439667 -3.5893581212551013415 -2.9115740645203076475 2.5280785261042915124 -0.29015004258996029973;9.774084649265114777 -5.0226027576474292502 -7.6426191458369991949 8.3630627949534410703 7.4591430529848263831 8.6985116210820478955 0.74520001743948482975 -4.3775446511989049014 -5.0462865623799117998 12.068641335869731535 5.7806690576291659411 6.5392507663172398935 -2.8857929721373181131 8.4678536804857991172 9.071084981537124392 10.161186594929588978 -1.4917628222375294289 -8.1388828957544330223 6.4453234069138014561 15.833125716205762146 3.11646784657079845 12.346821047315948761 10.36913788427529326 1.0073711534999429951 6.5496857328401638654 1.9406978424065646216 -1.8862863498258024553 -5.0932206250981844065 8.1120471054325946625 -6.4465616554210489753 -2.4819697720543403285 12.000034417019504573 5.8202092998043202243 4.789726375511161649 -11.166134369299303586 6.475977821202697271 -3.7456621227294002452 3.5257801233081340619 -12.539738603659797533 0.72982707348977449158 -7.0843533621481533658 -2.8237987942421760579 -10.55742366810652122 -1.1134926842024084337 2.1149787751765996013 -14.370649693826408111 17.001293390013529461 5.0807715082024396125 -8.0157218186743879329 0.17669836940253402791 1.8654654031050463825 10.98894465383998309 -14.834941838293996597 -6.590129420051574094 7.5878886766072408676 -0.93840163478657989682 9.6765347462941218026 0.58934451690655731415 -1.5031998309095950805 13.047952939435987219 -20.633871201688968711 4.4795536795103485517 17.977226215460159864 -11.882329660838706786 -10.64713141133841745 6.4796823203026683302 17.001500379341802471 -8.962133709199175513 12.589519481639039 -7.1494779001873718371 -11.40769389919976895 0.0036302791594977623646 -24.541298419622851412 13.458506574886369478 -5.690116242145518477 0.63338477335881737673 -3.2922159126353092162 -3.0787751438289312489 -20.71812779730926124 11.469486325800787085 -19.419311811219746033 2.700726460049556632 -10.209707960479567745 5.9772749527827375715 2.8900160438269693053 3.4065944936429692902 -9.7758406655027751953 4.1812279205029891926 31.839990736580546127 -22.420284503020457834 2.321778264294612093 -15.5214907430384077 2.5381704646856517726 -4.903943290052389159 -1.2014194373713440456 -6.1554780164561169187 27.086019943163517354 -1.3940512895771999258 -4.5752135035708070276 1.7990191463048157416 2.8803538226278213585 0.56768606599017223946 5.999410900751234621 7.0788301831433235733 -3.5068408287577073068 12.120662170773702115 8.8468061149320220693 -6.5346973089249269506 -2.094649329875599264 6.7032042685163775175 -15.976806599847639845 -1.659248212036645409;-0.31988018938778062239 0.14507459232390107484 -0.36411462405997696568 1.0417553837033848296 -1.359520269698325734 11.114078636703361269 -14.985969366506921574 1.0850433482399990393 -1.5248978006951019459 1.4297154494472259501 1.5183723817837497805 -5.7093826033865298086 2.9325756205116606523 -11.523713367910488614 -0.90537674441415272319 2.2111961936687438701 -0.352310120270548921 -1.8861596283974420007 -0.27164202931510961214 -3.1866456104335227906 11.569186563873225637 -1.2732276228762313686 0.47483943099330760962 1.7651900919369332144 -2.7180561059698189474 0.66528770130522896231 6.4751719085940786513 -0.14466356887958387034 2.7826939659337455168 0.071067667428007741393 -1.4396314807475230069 0.15973594702004256796 0.11487360743097840832 0.93055415783883388414 3.6954111296031721956 -0.78053435050437935949 -0.32231880229506215674 2.7287288355127508055 -3.3685794237750994462 2.3380578244909062668 -3.3195339008206792286 14.617313637692667783 0.0380573928126906047 0.33245573614172518884 3.0037076083910352331 -1.1179265128767186255 -1.3693828200681039675 -5.3288838561225917445 -1.6097452152042264206 -0.57171494970049430151 -0.98243760804544322252 0.010484351462176771941 -2.4805954757612189709 2.7884321697285203712 -1.0623641129053080778 0.16979431472178085905 0.70774465278516007771 1.5899591182246566312 -1.8720722465843306903 0.56122085514102493242 0.1596917222150293636 2.5054288795146129054 7.2937966454376574887 -1.1425176231840059593 -2.6041483284105466645 2.8681780170107407102 -3.2488162155847164492 0.21951222327842184745 1.1925137859047432176 -0.019844553308864476548 0.12483102514599352106 -2.8870746865992034103 0.52151021681322873302 2.7351678524404752224 -2.9832204909775095203 -2.3402854645007202805 0.75586214411075025588 -1.5821998032949080581 1.053328763439225213 -1.9418976790503466034 1.3886870829118285187 -4.8319121456109614954 2.6143812331035261032 -5.816657820312476801 -0.95986451971509945125 0.54059534943218512382 0.062977127270657295988 0.32910448116532731166 5.897410225313616472 -6.85813941500957025 -6.3325144369361048291 0.38471793067351250928 -0.4701230168073696758 0.57440030417465703927 0.67849225354983955238 3.0312970563879213515 3.9026020355211854529 -0.48759222666203050345 0.19802321880288931144 1.0188143937505163006 0.039397244825361887877 -1.9311240526462545297 4.7170498272540797302 -4.2098182730054682921 -1.5091346150759301636 0.055191441336192137435 0.17363159111757109354 0.26864169543393356943 -1.3147544513264888266 -0.27303855413044547662 -4.870233794159675611 5.4114095459419750966;6.14196431203858495 -7.0183420588599751966 -4.7465008954886380721 10.170160164506183875 -9.7354903539511088439 12.217897235248237564 3.1531865874827258445 11.307658949490576816 1.6209646838679241387 -1.0219910742345845733 6.7186158222654661643 -13.23249301301212455 0.7590670591354699015 -2.4447140772185811386 -6.8899908070092781287 -2.6680095982764657769 8.501496700936797879 -4.6891473457914054634 2.0677092489725525937 -0.29093793894214536877 -6.4327883123336331295 4.7965990542369878469 -4.1194270453718733194 17.9399387044523273 -28.886807006255871499 -0.071472459566740309533 5.266765133141081634 2.3634507780110731723 8.487414432935423747 -5.2363075841259068 2.3045244684915831002 -3.9953718172275238807 -2.1375322953523605563 -7.0810373001209017119 0.78714960349421947416 9.5432453509600421171 12.074494201077129674 6.3701046454727192625 -5.0169903950717937846 0.41887953638761343811 -12.728470655250273325 3.2177430075833104439 5.0049343050441477132 -10.96658601470533867 3.8663170932626362841 11.232467121178462577 2.202473508617172282 16.791205224016778175 6.819925186600681144 -1.5013820086614311222 -1.2114159380608136019 12.527970423858418414 -11.558580780251576314 5.7742820610279101956 -22.397206952560566151 3.8062318627883824362 8.5821627920397389744 -12.006390402362093539 -5.1221528615486349167 -1.6159168288789236279 -5.5218998016770832749 3.9428275077150614081 1.3152808509095537115 -9.9954157765475279973 2.7195786123182914551 1.5865822352178207133 -2.8858450305462834962 4.6144191259372222547 11.454233002769507621 2.8544148248270850843 1.0680103500647220027 -12.929941355527738267 -2.5203596386775894977 9.9341304465654864941 -15.731711217693524318 -8.1895871609582293615 -5.7643426930034156186 -10.133892194237446915 4.2222899132104743103 2.8233364699591145808 5.4534319165165712207 9.1456266204328873215 -12.243610725233384784 -2.5881495696642633497 -0.80365365627906015789 3.5874700311248970408 -7.6538982400526700545 -2.2509914790846830002 6.3810277176950087608 3.3488134907972733068 -2.6548976414938620927 10.591189385362000053 -7.5388043390886094741 2.773185188699855086 -4.2331703158205922222 -6.1819043535535440625 6.4892153703472619242 -5.9268222008795081734 -2.3869064410464169157 9.0235470530079595619 -6.543077210944800548 -15.389253887734252402 -1.833717747601410375 -0.920019642451816555 1.6949329002864850224 -0.3437857459105400082 6.6509736154434140332 -7.3711094121499680654 -10.867340678281141919 -3.6565835010941696304 6.3730029569944157686 -0.94697025285561642338;14.349702520447113585 -6.3948226523707250024 -3.9672612439019001584 -9.2575728466583342424 -15.426963671372618592 -7.5051738591386110144 -3.7695032679328468461 -4.2287297409388111546 3.4514771870095199979 -7.7781074849001718974 -8.6255507150866410626 7.9589978546197528431 9.1014039553003076577 12.733711244213450797 -3.7916912219797072048 -18.71743326807816743 2.6522667901428262915 -25.827603600185621957 -1.7161409692008642303 -23.76585700530571188 1.6610603070244209789 4.7561079953860119218 -8.8860515304985767671 -12.997463669469450309 19.247274989038331228 -0.32721016148514447952 5.138026475603422405 3.6904600671585665594 -8.1885601707484880762 -4.2150541437236412889 -4.5398885382905618258 8.2184387510835623658 4.1947626557978363593 12.415709295543887691 8.1502266444287574387 2.0168302115603422564 -7.7345426846353113604 -6.6489026564261139995 3.2574158424995642847 -7.2831734697809924484 -11.715621017160376738 -0.70904596118584206632 -13.645791228372033288 3.474929484153383541 4.6672537235778968068 4.8360973861101381743 -7.7079144926460632092 2.8922785004548097199 9.9797897070299264044 -9.1874628620976483973 8.3476771218633878391 -10.6646997674372912 -4.7579883231405100119 -8.0629914051209947701 -8.7157966409345331016 7.5185544897328462355 2.2049169393227638913 10.384258871811207214 4.0408560042035279736 15.154824658079284916 -4.8130750222388556381 2.3462845683234663241 0.40939430685212679917 -8.6117113850463589131 6.0963496846589197986 -7.3269754029205076407 6.7322721259529387794 11.817467558167596309 5.0835286710271576638 -6.7957543635934190007 -12.591271180424397969 -18.105304649116963134 1.5348322285334128345 19.733884096234639571 16.440845215349568775 -1.2093494959864792282 -0.34021855777185106007 2.200807337233665617 3.907157415345731355 0.67066599658931924655 30.152836208805435803 -5.7627105546708214945 -15.314341854628192863 -9.9337176241507361141 5.982588852797019463 25.264184136556863791 11.490963429290593112 -13.871717204098665377 1.0818208780650286904 1.1702215269935118958 -11.675852269388657945 3.5162778715321456602 2.6900900659486803868 -5.0698059697534327839 -17.443998057574624738 5.2818815592035637252 -20.284920570896733949 0.98052847897887085438 -2.9437458716917923596 -11.341419904038836819 5.334563072989528365 -7.2863920964559509841 34.042401578128163919 8.8138925618287906616 -3.7826847402661822883 -16.397677701427721075 -3.0273876848007303941 -0.79387150946281703767 -1.5461103335254651192 0.31432213669915237686 -2.2707408917676845661 8.8758576537789366512;13.575984789060736802 19.65340379262602255 -4.1297977664270248965 7.1287586663704374246 -2.477814326226893904 31.129604818626212648 -2.8262504916090445128 -23.547272103802487919 -4.6577160592021034091 -10.294831266947719328 -8.6317543061800385829 17.47664565942497461 3.8723496972027531271 0.26173215321417686585 -23.551241429492193902 -14.058580102158213521 14.769469232964876682 -10.909222733544329031 16.583950992484457032 0.65132558189809530713 0.60642150367765279562 13.269436241064365589 -31.06198194129970247 -15.626968347613772181 -9.2257897868674767494 -3.9577005747460276552 0.14609085544479327723 -3.6645861360797367112 2.6154960088170429167 14.710756598936093553 11.330840172055332005 -9.9844162428359446437 -7.8006349052779118125 8.9049682430694474533 1.6539013961545148135 -4.1650796531474449935 -6.2091309930003735218 -10.04379549628582069 -6.0257467911788857862 7.3251775332752462333 -12.34205424773293025 -2.9994120767769181235 -1.1886820672338311855 -5.0058982069101833901 -5.8668318184205761057 2.2601130875094961326 8.1444122157485576707 10.603589289694358655 -2.3550014934880607598 -14.390586039820931319 -13.231668979805764508 14.407176341011144416 -2.0650428730997081317 12.065871596532030452 -15.948617310905408573 -2.5304574352751521005 -10.573519529615085233 0.18035888132892585745 -22.816766342166499015 29.181121468094961102 -8.9365932358820767689 -2.2678354524542339021 1.3881180597158973011 -18.915364849820850424 -2.0155414653238805656 -9.7358868342567213006 17.930129783713866232 14.142740604531978121 0.56675675450382845266 0.96049955686390076082 -10.687604511122048123 -7.5097830519112784842 -5.8686397653479422942 4.8463919425452477441 -3.7405341164930794307 0.063152069149255640745 -7.8519490799036582018 3.6998361527644449964 -5.0136044757820927842 3.5935637477426678466 -11.75301997872582227 -7.1313678300534260046 -2.8893553492643930802 -1.6966050817487638991 6.2353782181553221164 -1.6218468056284494061 7.6339881972113001751 10.227004794589612757 9.2446579397725940908 3.7788781663719923642 2.5355723642851892841 -4.318012311592129393 -13.113305279076760357 -5.333250210667448421 2.2619710496241198783 -12.779967796026426186 15.289985223814216653 8.0584902619657921008 17.015593255625788061 33.234486068229330158 27.32116589526897954 7.2117472540268732217 6.4073220538835773397 4.2553447725483692921 3.0670414728632477974 -7.3233857716167563012 23.382947334754639712 -14.034077360526872269 -1.1691654349344846597 -9.0318919239377208896 -8.9177190780539152826 -0.85567888372891809379;15.822519065456219778 -5.94331530800065444 -0.29480412539476885669 17.098987652354935562 14.317275585344326316 -7.2329278064922313263 -6.8278028555922736231 19.80036324334144382 38.785076793067197798 -12.543275558224863175 -16.473040753248227475 4.177902602259254472 2.0536188351779181005 -5.724728950787870474 5.0873812838607168629 -7.9210904300535300848 -9.4699919197367758983 -1.9852243412648293841 -0.059925784902823853173 7.5542542305332442965 2.3695588884552112319 12.507818293213546212 9.0745867537348701148 11.032990910924887373 5.701645457372645609 7.78957339249700631 -6.4135943839080375994 3.7495746617238978615 16.230738521822232201 13.655965428566172903 3.5687612266280090978 -6.8859827561450064337 -14.530797698261324058 7.360495153265171453 4.6739415180429215724 3.2152836455317697073 -2.3543315274292737627 2.0841803075606852858 13.803374856351362965 -2.7095702406955131103 -10.011365012640212058 -5.3842197219356782156 0.23733212246897761322 -18.112922895560885195 10.57888157070096824 10.694514020621999961 7.6011071795883475843 -20.025375880604094903 -3.4201014617060261358 -3.5608521463735409718 19.070082165357490567 24.040332029671034775 -5.5196791455053642039 -7.3040373812375012363 -21.181764967458590831 -2.4901469066559851484 5.4974617226724422636 20.075203564180114313 -6.6407646880151016688 -14.161096747205665025 -13.593777928042571901 -1.9669666005653714258 -18.677040091287771872 -18.05390710549165334 -16.677495168873299747 7.0013341306612861814 8.8945957416389642702 -11.018675605706839349 6.0989106162129358424 7.8763245160687915813 -3.3944293053900720381 -18.228128207858016907 -5.0357216949483722956 0.68397844564604470818 -5.6931674732713899445 8.1402258375243299326 7.3834388707257581075 -15.722553914458723412 6.1288633716849636457 16.075742475408404175 2.8154334960163387436 -6.4004386153355135036 14.943679851244741741 6.3673987228931840932 17.042613042751380448 -4.8857000373825147932 12.089691892069172496 4.461496437766927059 2.6765763819325663064 -7.8107156531310888425 0.28418682279419615888 -12.268640129583523901 8.9236510423943009584 -11.075160497974582796 4.1051818361734682128 -15.81918790994835966 -4.6927216290303581658 8.6496302560334363818 -11.482257864494359367 -25.518788788454148886 3.0239977173490109053 -15.143877306829610419 21.579392759427211246 -12.377329020595404074 -5.2180919505588123641 3.3286827726962093799 -21.451791066693530752 -9.5829372708117048774 11.428726964008374622 12.436930568595496283 7.4543802970499886129 -1.0571714227046591361;0.38284901391754766475 0.56535948877505726173 0.10275733317543433998 -0.3491779725190196082 -1.7963273839453619551 4.148038767123265913 -5.697033559998924801 -0.2086666026919010708 -0.633055102230845268 2.3675561551559818341 -1.6107739803712664006 2.6981964156570859004 -3.7766033694308736024 -4.9684816101443161074 -0.50896070363376211265 2.1090501126544207722 1.309217491928619248 -1.7264850361668457879 -1.6506254371056903185 4.2994739163143833593 -11.294290741302438263 -0.21226112052605761171 0.59388792020210523503 1.1840698377429834665 -2.7114798371725958859 0.33402135284562806117 3.9264637170065022076 6.5901650640644868773 -0.44034455695559637789 0.75129924134803505176 1.924917723758290844 -2.8070725587055154193 0.067771900358246206508 1.6632842907372946684 -1.6894325870365345388 -0.36379268733917280443 -1.3761157614249679426 0.7241483099021017722 0.80550445422206040647 0.37293998624382429519 4.3460862167501668196 -1.187090082006238001 -0.91980805599758652669 -0.95726027235104926838 2.6685368139927225783 -1.6816032503324787051 -0.85236166175955552227 -4.9547146536854924648 5.5477741696789912851 0.44285062704011707302 0.3651704244711815317 -1.5138414497745946719 1.1853895690690989806 2.2534231372156030559 -1.9386762780398703043 -7.5053694456888155884 -3.1192410144341469191 1.7873626683032668438 -1.4052909513233919903 -0.11594039799271271818 2.410353204946420469 -2.7962186160528652579 9.3655891931613464152 -2.3524544866015197897 1.61696440567412969 -0.59670889625788658961 -0.25131678489538256116 -3.6032883040880956393 0.33773584705220871527 -0.14343635050238309758 2.281867581018482305 -1.9279309761682219548 -0.49584729893519163824 0.18134877471920907155 -0.95800809271491105257 4.5521856741225725784 0.64882127298462521914 -1.9902275043712536196 1.132708621295333451 -1.5127063930283179971 5.6279981699925647476 -2.2675973330503875758 -8.455235478216104994 22.282847142120150608 1.9141702617277220888 -1.654780842427273635 0.24355628015832975208 1.3472703592693038299 4.9610713323803414809 -1.8236045397019946535 -1.6203178370631434735 -0.8315592476288267143 0.50446834378073313054 0.32974679165466724839 -1.3689988314579051298 2.1833525531358874971 3.1255966075777661395 -6.007540769781402723 1.2811719120424251983 -0.13325728180196450001 -0.18536192809807272575 -1.3675069506325152613 1.2230378488806707971 -2.7743635648828863793 2.389268121927715427 0.75064628328285820658 0.14037416038656086448 -0.52895391371486533139 -2.9332708228464769995 0.88626609502081521441 -3.861760669721537198 -1.934214330290559225;2.7440328281953672018 0.43151319433042673035 0.4167826747493764139 -0.26713283052035807774 0.97759541404806271636 3.8321597511773171085 -6.1091423741991022212 0.67509354431805668195 -0.89114074398046705383 1.7332831530251116003 0.44970635264255975905 -1.8354184690444559358 0.98141403216020606237 -4.2798862842396951933 -0.66175058575411860318 0.72165350267524686068 -1.1256312453539605301 -0.054620746027188638028 0.12953440753123440787 -2.6844627791507922332 12.080062656014602496 -1.6867841601808279961 0.89274822518484397982 0.12363723568983664425 1.1053660532686169216 -3.7381745864580810945 -2.6861916188368444303 11.972464035140109928 0.6581788380654357562 1.0390756281646142956 -1.4967345460509509092 0.31127786362635367912 0.5141118676252809383 0.037962578179905615006 -9.0356316739749846789 -2.5339368226462375411 -0.0022367842167214380122 -0.22194914616859229284 0.18104130538055440702 0.68987915160228052702 -5.0099930882476968463 24.527011950935857953 0.49313338818175678213 0.44214432404299697232 3.1335862981258006954 -1.1908953757486822056 -1.078709207229622935 1.0603700890590692651 3.4447444450976032471 0.88124700299762792621 -0.19233481765488122384 -2.4618322872254934097 0.3148912584112334434 -0.73684723049736566836 1.3174171691173210963 -7.7932838766632777094 0.98968580407802198007 -0.16886957688811488065 -0.063571741478561649696 -0.84272212263060808368 -3.7550110389547706191 1.1232245086998162709 1.4975782827019252785 3.7303738237854382476 0.31623765689006022583 -0.72851029356308671936 -0.41315670323299119593 1.2793872742849701218 -0.2254653869653442666 -1.994277396135043956 -1.5994836433085501959 -0.85519697110373704696 -1.0709001054774398565 0.5168810284437991287 0.59497339471925370091 -1.9624246392997877209 2.538116333898371213 0.69741409944333621063 0.086115905116100677219 -0.069647722392017441528 1.9363283143277061349 0.52005918200505762972 2.0920055726120692086 -12.322782988723897546 3.0597779976256695988 -0.88089289743403009769 -1.6319867251502211403 1.5573026554169673297 -0.48319918451622734246 2.713454830688967867 4.7834955442918500879 -3.853216023760781539 1.0449365975787447969 0.051622346644904004709 1.2071229491440658155 -1.2699017249055450929 -0.24650250101409598713 0.026933032746582541428 -1.6921281362691138472 -1.062576397279658913 1.4342711055410000132 -1.0743539380800581906 -0.10660663668074049637 -1.0264953455592900067 -19.64284140042163429 -0.21935330658430882145 0.98616173157679609673 0.091935446942382759161 -0.071288979200150370819 1.9366085696282455686 2.3635829081183103995 3.1349586636797810435;-14.556466931161399003 17.791498919282986435 24.311937166154674372 29.581880570418512377 -18.81054083420587375 -13.06533882938762936 -4.887956302582672663 5.9552913528889241945 -9.0781159580590884417 -29.011899360702457784 -0.50643492143382040638 4.7128253098392898224 -2.3236710031382785679 2.4810107650106272281 -25.352063911715163158 10.143877503541894214 22.510743384260546662 1.8384172724849505709 -5.1801769298059969771 -0.067315494889585103522 5.9773777342294733828 -0.26244213932934856714 5.1942205515962962536 9.9973522368278331385 -3.8458480204510032685 -1.1072567791882041988 14.373091840884477222 -5.0202318252529911646 5.6642440327929204358 2.2958957512450939298 -6.7198817929359240253 -10.697314785569348672 2.9089700632955661774 15.564722067899692703 3.243890809447317114 1.0568859728144568422 -3.2621215956296172322 -16.737531416153899499 -0.44306809322686269148 8.5458944147253408374 -5.7531352178286025989 -2.5519917246840173597 13.285136786943725795 5.6087804919333574816 -11.855151758607675561 4.5144964776183948985 -3.8651380738435561213 4.6209491887904912133 3.5219666633690471791 13.673420838665277799 11.146976519349374612 10.555083518616068972 -6.5493735378571091843 -2.8876936249790516875 10.444876443778523978 3.2186445282770375087 -13.651116256652233716 -27.444338977278949443 0.49127700198205487281 6.54480056154403389 -22.375788511427625593 -4.7770280828036550957 -11.914491284637380275 5.6409636925260748797 7.7632700300541355176 -2.4345056060452834323 -14.124350714285833774 -6.8244268291187877296 -13.854898475512785083 -18.295967804078319574 17.677152691353796854 -2.5494580027792661525 -1.3661857144333422465 2.5544632782756560019 -24.487320258409326357 11.506629718519388206 -7.3169924213663630752 -18.195708317605870263 -15.81826885982650488 12.901660488126189819 16.884078965587569598 0.12494926806267758757 16.548711964872182989 3.4623356569400711713 0.00190822129075862712 14.057458012807183323 -3.5311345891561227717 -2.198844957947576173 7.5590067685484667592 -0.040470329730328380435 7.8245803965868709895 24.840803460434543126 -12.235268188688932511 11.240726188260154572 0.41022803329550194817 5.0576317912696389101 26.549714411048302765 2.6450495696725537798 -7.5181092563366114234 -18.069833710567120733 -2.8137149195185666706 -1.0095507289831582298 2.7613373219105983303 -4.6795387825207841459 -4.9896575035504939777 13.060975345491337762 -2.4179311295616678912 -23.117112556540064361 -7.761999718821376959 8.0724956681454962393 -4.6482472905525025197 1.7586678276274174682;2.2695176507756276152 4.2598515840212449746 7.0364809699202011117 -9.8375736773405133562 5.1112184196383854129 -2.0540993650096033285 1.9308620686412110157 -4.31402292814109245 4.5536880913374657709 -2.1179706258252877227 -17.533298217688763287 -14.02048528044520026 -9.395587812588658494 -0.85369585130040959164 -7.7636891216492713852 8.2213785622000337128 -2.5254723782318944103 2.1400331248437258758 -5.2460250193575648225 -0.6679156499121289281 -1.6142550966631197262 -4.197032446352963575 3.2288216300285541571 -1.241687747458522173 4.7112994952504472224 -7.3172261287896143145 11.751894111563007783 3.2324807559910180288 -7.1257998202177237346 5.1152124563472165519 -3.6673648404866390216 0.1185730366234688804 2.8009074573526064889 -21.165887128607987933 -5.9216805596129225009 0.95482969701778097615 -18.587307517709973581 -13.330449452029430546 -4.7241085705236871561 -13.189607439522982091 -8.8572517644787716051 -0.89167743819061395794 16.090936636576710583 7.1739850085545899816 -2.9200994443604937345 1.3103990821190865113 -2.2601991173502082866 2.3011387877673636915 -3.155204730201516039 -15.034662823240211083 7.0474679737235215171 -13.672440471918205773 12.490785415564207739 11.395874243197459563 15.965090921887059139 -1.8316080521872255549 -0.87741580747440239829 22.876576186605873886 -11.707426336562445357 -8.1376797094561190704 11.505809071102323315 8.3295652466011738113 0.15662327115707291858 16.449041914893054894 18.41448680728589693 11.541176061798410046 7.7094143006077429092 5.1398819084403912782 -5.8405139761581228441 6.047965165313985203 7.1392895670283067489 6.9529297671071130793 -18.284036522294424998 9.644020850555552471 -13.250943146823022545 7.7339194744016523941 -5.1818505925441380455 8.6417572429349114316 -11.957893478152994859 -8.9392427296440661877 -9.3061418616248676727 11.452985946321613042 -4.6635370735631651584 0.77371380619866036987 -3.260961597218328567 -17.003145580102032142 13.526291968398448162 18.431736553195872119 -1.4436193482056296489 -13.232909336641169418 -1.9353136350791189102 -11.182707469479229445 -5.479367149109186208 3.2011745366573554072 23.91757183833507483 -0.087737166141721958934 1.2900960044930602777 0.76624767002917515413 -39.449571773552392528 2.4084313876547640554 -6.342416720214614223 -0.28409226422358857533 11.053562796435306481 0.73059685195555890136 -2.8509794236994934202 -23.008120149504701857 -3.3589526042630026836 7.3477923342906459325 -5.1296369311657352696 -3.1937067602541304723 6.0521055325558510418 -1.5901461052389329609;-6.5310751144950529579 -1.8736198729712052469 2.0456414791777248752 -2.5235701927024312141 3.9602848888351456225 -2.1756870598020308094 18.256338809155192138 -3.5649844041230398517 -3.5404225818919936586 2.1622417455428921684 -0.68737066654339562533 14.597671435162681064 -20.798918252704048371 -5.7176373631238526229 9.0672537140718940663 -2.9207618886083097642 -1.2412290593537300687 1.6585032439465836607 6.6737214772525383921 -9.4592357216543181408 -7.5437262787080143767 -3.3905448507837547822 12.074217475694112522 8.8519150637124361936 12.071332431633958748 18.129612139792641301 -19.203251691604524609 -14.595787037190058655 -16.728723279007446934 0.60963126091439345799 23.643901446130758615 -26.82670295045295461 12.137214555419138406 -9.3793250700890649085 8.2166331852009637515 10.48957306288788871 -2.7106886389660660441 -12.245117683829887412 10.111821939971530782 -6.9773591638781491397 24.263715948959948321 6.1693588418857112643 -6.8434875017160319288 -8.8783454639326446767 -1.8221094466109577503 -3.4801203584239397415 7.3608686462026060582 -2.4994293534471276885 2.8229500891218801684 -3.8601441732548886776 -18.251479974820743024 7.6382426578417144114 16.498084100094711602 -26.675280481240559283 9.8776700535935209047 5.7276419962151319254 -1.7668579872912026918 -6.3703548558986717865 -3.3288906057053750942 22.177398141410268551 -9.7927251275924351859 -24.719292600304957119 -5.7666111508139792363 5.4221569896462025184 -5.5929572934783404747 6.5240674423421500805 0.2363693364720731438 -40.913889813814002139 6.7406187985570511501 -15.994127766401245339 1.4772074369573018338 1.9189794884557369592 -24.021076773184212527 -1.412307887106962756 28.758168972496637394 6.5859343412519075756 -2.9951698269576345623 -10.0316051526256107 12.371290144082669471 -7.5157631359958703143 0.8553111822346788351 -7.383761613154520731 7.9105728510577444368 -5.2545974842019482764 18.388164552962162901 -8.2259573272341715011 10.730726342129017326 -4.2367430336565545801 14.049704907274927379 -13.704558158953950908 8.0159070213875320832 -2.7199666022348907291 10.486278389480672146 -11.668415014867852264 -2.4765824566005325558 -54.230871613205948734 -4.6360708252310924848 6.2435532268779727616 14.828333286920251766 5.2962271230989923509 24.977247526971915192 -26.236041260675651898 17.512861267916687069 25.535245333043015137 5.4562528289280267657 4.9962108391913453431 6.8677106900425295422 -5.3328783896326834579 5.1040473455430754868 -1.7887419736553109573 -0.62390956318447399198 -5.8500022284116202087;16.781068464037780075 -26.963549273824401808 -15.969261123329218321 21.672314054187861387 -4.6728966059742669259 0.69511419927175599476 0.50187291383806609257 8.9378759701561172335 2.8352769563381015061 -7.1880409338111022066 -7.754202239326175139 -0.61772598363365216478 2.4131321142104820154 -1.5939163899483088649 1.8606451902832290557 -4.2583046479102941717 10.031183186410645547 -22.774035455611201684 -12.336354099018114638 0.63784624106985199354 3.0823765398553231165 -0.60328357305858326676 5.605606123846291311 -0.0060292111405473303165 0.6242076173568520403 -0.35405066289973474714 5.1515867690097723042 6.749040295148611257 -7.9499237760300953681 14.210255721018073771 -7.5070040248642344594 4.704739244105907936 -7.5059934015628906323 -12.150807942943405493 -5.35415407758404438 0.52541402120871771864 11.422505863062276887 -15.53555123027219409 4.3464435650182986492 -21.098637219681915411 -10.142104685238082951 -1.0533743183221224715 -8.7902616450828574557 -19.073819388649127404 -4.1231240432534326246 8.6200670694638503733 3.2898999797398635891 16.476496283011400124 -4.2634251202756185961 -2.9436764774521999577 -5.1266505578595014114 4.7532839950898910786 14.66185897897906365 3.1607042274541861104 -1.7825739969608307423 -0.40637243526037564179 1.4929340277375438006 14.008422517914251415 -22.895355969158753595 1.1454948083074116827 -1.1435419912156374878 0.16389620843089022784 -4.6481550398317512673 -5.271911644092626581 -10.553976017091422079 3.3838109206727344791 -12.523918814703471014 -6.3508488276759527125 5.0465031125196464501 -8.1989205213984437393 -6.5147282223635123444 22.366085246992284397 7.0502334179589833951 22.213663533352573154 7.2986340051214675384 2.2226986879749639492 -2.0198242289505090596 -24.853303009053039574 -9.7115397562556946554 -14.408080940290391325 1.8171608548276330097 -0.12910330840828315724 -17.510074058579384371 -1.8374507061250919815 10.632396503380501684 6.0287689984811070332 -18.832682043640620151 21.970863406858264 10.679714245564097652 -4.2996495765280160484 0.24886335186758340443 -0.22915943720493869851 -6.8074300470887800785 -15.126216991791043398 22.557903589072591188 -4.5056555905115587279 10.141217807902188852 3.5109367591702085321 -11.302517457972768966 3.2890870326527661405 18.511415839884975298 21.82027714267500329 10.941330914669004315 3.2307968450025512652 -1.2067388871404052253 -4.3674613996767819302 3.9890805859679940859 3.201368350587657563 2.6155307174982596052 6.2650779832750922438 0.72536359802776284589 -1.1193612808876292064;5.5285450456909659422 -5.1248853033920589439 0.59917170339599279405 -3.3356387959701478962 2.0988566956347627368 -0.74061929024060846327 -0.066060489861001325806 -1.2303448675932990852 2.6252134435040721527 0.42108832160781956011 -0.37286383544279266822 -4.5356752850568327062 3.5986807971298113706 7.0503922544578330189 -6.2269800240282773274 -0.54695992177987762251 1.850095760006625234 -4.9024414889451950472 1.9872327650750944983 -17.203415213156905139 -33.887210861789981209 1.2366176881105999108 1.40361625795392575 -1.5860864737895017385 0.568292023639835997 -12.102702647234998778 2.945806600816661458 15.744252032169541167 2.4441433389428794953 1.0187518733112272962 2.7504514975359075635 -0.28254598259557162088 -1.6396565625328713978 1.6769809264621948763 -10.886851966748087861 -2.452220056667484549 -1.3560722891413570235 -0.16335015556290455319 -3.2162290220822038478 4.6088300333750948923 6.3456450924907947808 5.1032492619746383511 0.54100841624803597263 -4.1066657926788163735 -0.015544124421178029394 0.95221973793442027389 -14.643637962422614507 2.3008098603814408634 30.02831940825135959 -9.4749907745494983402 1.4428514748217939889 0.035117716988112945842 1.5620216213845723452 2.2082378407820142385 -3.5186684380745938405 -0.97577684371660811102 8.9319370485343014821 -2.1041036855023875773 -4.6273407058879136855 8.1202462964886912289 -9.4110449816890557884 12.711644957645919618 10.265355351533118622 7.6201421765595043212 3.5607345506980196959 4.2486022156063878441 -14.266166957706573726 2.2170535306914307405 -4.9015307106191983166 8.8948969002221023317 -1.571334447331581563 -0.049579956057853258322 5.3543218905658775952 -0.86468639929509460984 11.163818255442805594 4.7316155657723530936 -2.4309033161309918647 7.7576852053595670711 -3.1193416701022647075 -1.2418404047400437573 4.9599834115958856273 -9.2933965399883504688 2.0923376506201614156 -16.393740124817210102 -1.2835275020977672256 1.033145789704191575 4.2790091166108741305 -2.276488136466279677 3.7088698173764629296 9.5635364614801954275 21.449735673802095448 -8.5687753028463529148 3.5928943998218638711 6.5313421660343200514 -3.7516343861317915653 5.5643450918346122336 6.8353814245356048218 -3.8742651125607774354 -5.1573335136518885236 -1.5778979362302196776 2.3599875815904045595 -3.8252261670741445343 0.19316186536355806069 -2.1181924894368737711 -12.342815923758067242 -2.6130321544192525174 1.6117747046408561484 -2.7809879949878766325 0.33762806754484997462 -1.9084797131749349219 -4.5631697309083927294 -7.5619393261235199333;-5.6054942673368550743 4.5462395004477897942 -1.5516568034991204961 -12.130366435661724012 12.96373455368671479 -23.946505279000760424 -6.4635536399431021692 -9.6698090441494812808 -14.867429847007720412 -6.2866886722471386761 1.4249184518646291764 6.4304821682934818483 -5.0933020252034495456 -0.6160074149628195217 2.4242752051350544562 -9.0870242497651965152 6.7339112905120916963 7.954115993670311191 1.5606977040658192024 -10.308739491193554372 4.3107967018250930025 6.3229099045268037926 -6.4458055161718128545 14.082264682784293441 -12.514557750652759438 23.531610149497602436 -33.197119544538239211 3.0701876544736581565 -16.487467426649729418 -16.547810878988659766 3.4340486353835344424 5.7775130114952188976 6.6685635956243860534 -15.313200231929272377 7.6646236741686779581 13.491783536344151173 11.04600239636268455 16.006013919609600293 9.1892326591395274704 -13.617734839786461265 7.0769691739647626605 -5.5739766015747136407 -35.834200256008124086 14.207866705057925927 -9.360865676250426759 -2.8295154454243345299 -14.964438894559817683 8.623403022382087002 4.5112231289202142648 -9.7710570694829677052 0.58461386261037029399 4.0611298726518541002 19.541678812584589053 -1.1344578697332292627 13.210806165172767734 -0.30540198370581328469 6.076662156365861378 14.791068506544860384 4.341304236688264595 -18.690289975502970776 13.594966117988569465 6.2083994351054334615 -6.9130280690712826441 -3.0854623365247380029 -8.2569666702085271481 5.7336596722460635434 -18.076728758761738902 -19.795814959794682864 10.979663240152319759 10.509328395246152255 -10.37305543427417831 3.0799813189653666434 -13.516800070724327654 10.666508647782436014 -1.6776300687054903626 -0.075417387764660004379 -0.25704395440067862033 2.5405786386759592332 4.4334891138394105781 9.6615798969587345368 -13.974983525257412609 3.4129028342654814665 3.277053347577372211 0.37550562748428251147 1.5922794463522742525 -16.278203604539069005 2.3794065596251239292 1.4019913689320797623 23.741753865002817037 -15.723075211378294114 4.2396296706607579097 6.0783877366135694587 37.724165326215604921 -28.072801163170264971 14.01526700237360501 11.590394719044882166 -5.7624065772270007812 -1.2279484824538271504 -17.816160367523757202 -3.3717867241889769581 -2.4261997559309378403 -0.21442419454749517271 -31.088841008151060663 11.24584921936068227 -9.0302995192748714004 2.2025256081532500474 -10.49109369182141549 12.623970378270712445 0.012845636028815721197 22.230774899711860826 45.402071329360502716 -6.0839021378546149776;-3.1143500727045596577 -3.3971995827548289171 11.040708862497258025 -11.541573167851559845 -6.2242155039373203707 -6.8856967075892239194 10.600265668796220453 4.4633848483172098298 0.36286566450953250396 7.5219939025757884821 -22.648768364333655256 13.848147704532998148 -5.0087180810689915234 -4.8177537892309052481 -3.717209526024038091 0.08890976589184229617 8.5586131196318735448 10.19418275538162888 12.577099820597798185 3.0234881994884861278 -0.53270505076403784628 4.0650594649489697474 0.83095230973016853682 5.789967675662349933 6.8219422628348374005 -2.5732259734296323295 -2.5717783556544033807 0.93258682517490010255 12.48390223222482831 -19.549730778139824849 6.8141037355084819183 0.94880160521245893168 5.5261075378908852684 -3.1811212121222598448 -12.952009107175292968 -19.050819990831410422 7.711759225157627462 6.7603397805277438692 -2.8905342382278553792 0.050457582118895061285 -16.078283408010612732 -4.6040813727522742482 -0.19420948791866177174 -6.2470161663346219783 8.1524336170061619811 -22.209531993811083339 11.416536595423348643 24.40982259640008678 -14.292903540052513733 -4.1176000350786834403 0.90088300390638265114 -3.1749432232186256542 30.134034815065469104 -7.8802833231537805503 -10.875138069684229691 1.6084799567674843424 -2.8459197424088689132 1.3697562079206551111 -8.5662832448298917853 10.608693095101671133 -13.648472615796674035 -23.282528754812108929 -10.786660784619241937 1.7941561882250693927 -4.5168855460792158851 1.8929915703883186673 -6.7810741077983038849 28.32840727435462469 12.905202250824588717 6.014176947019609365 7.634787152056783377 -1.0222960388627300166 3.2110447967959809823 -15.384077108843049686 6.6373433501289405001 8.5011362606937979081 -0.41344554059131910506 2.2280413268785705938 -5.4189729180126793295 4.0715633107257840351 24.697958558149956332 1.1859376717293064196 -12.592403285618058106 15.816830632580279214 14.617296123706319477 -6.1301511033523148342 6.9586274493689650456 -7.6634487498931820326 -10.388749169665027594 13.690924776865648127 17.39262865925907775 -6.2235920538080344855 8.6745985339772886391 -16.74296765931568487 -11.949830707846473388 -7.9926135829672393385 0.61271771172561517727 11.655447177352900923 -14.624668471986472795 15.978682515436579692 8.2994277610309517001 -7.6348873913250114853 18.968666351965033812 9.9083852371937020109 -5.1230435409032795135 1.1936896633120250844 6.0533550508312448102 -10.257450016999595022 -18.898460299331340195 -20.966595600418965972 -15.830523610231674425 -5.4888162968770330963;0.73281436308780878441 -2.6644326742957153975 -1.4957945267976748838 0.90740077066999802469 -0.97803508879742406812 3.9249656300176578583 -7.1092964537541627479 5.9205690204771475038 1.2508296053870970876 0.16385308638372758638 -3.149659447143178248 -7.8462638642659596755 4.7523195719867610265 19.466996935032483407 -3.9626485932339248208 -1.8055230878864230171 2.6683145015021616508 0.16569995052548436298 4.1786939730153829231 7.0365759773164109347 -5.0719786793002068492 -0.73138969562127209567 -4.4740338511173805003 0.12817923506897077601 3.8837930355246683689 -13.597827307307735367 2.9663217975643876301 15.208052916870160587 -3.6605991474575980682 -3.9444288928253645743 2.3645509066402703446 -1.8955610264328495163 3.7185464168686817032 1.6724632217959147784 -6.6662814507015450971 1.5916868726666058009 2.1853574904412758073 1.5328560808091489243 -1.7947210146662815333 -1.5238829435805136825 -7.0242384737826082386 8.5852020568090825492 0.35107843154942308672 -1.8026457408572285068 0.29768075143108402303 4.9381187840198075278 11.79835640236630212 5.3505746237860005721 15.347375209908991067 -2.1572435101727771567 -0.3500621350891226502 0.67069268825416483715 -0.073543260238321916944 -0.095533927298536547301 -10.315708923055669999 -12.847345077309419992 4.5511550327367196189 -2.4567683683649392812 1.131432621766119917 3.6580470248763319319 -3.6688940993004814928 -5.5828045123632463742 -3.3298203883726462671 -0.46598620836804455214 -3.7181163994158454855 5.9349990616015011469 -5.2002833751722148392 17.861685984142468442 7.934281743954741728 2.0669401749848423933 -3.7616027294589544638 0.9008538955232405776 -2.094713952946272606 2.6803000786330102301 1.4731516865045635178 -14.238812563479150697 2.3782866641614361924 2.4779127960953957199 3.3092228175608515706 -1.5307139404511700409 -7.9792765921022485998 -9.3028988575034308184 9.2553311804381603878 2.9852958946639338578 -3.1139912851414872641 5.7512083541052803071 2.2786876142379943744 -10.053745825335518305 2.6745693627804656423 -5.4179130061473159685 -3.4202902802105148439 5.4245174268698699294 -2.4006793838353539527 -3.207336631186683551 0.11204816231090297673 2.4374174326225124254 1.933959101007578063 -2.1741217277484805592 -2.76410529024117535 4.8068841331048801635 0.08215755246014067037 0.55170839796519266507 13.550167283352470449 -1.9761191768787453871 -8.4011365736602368059 1.6327852376414266899 -1.1890770168546609398 -2.4625047971559923532 1.6802121119711572739 -3.9169251017043085206 -11.679724964919953933 -14.821971440176366031;-8.4340420191131109107 16.54964455838529247 -6.2168720356832123386 -5.2610189994706653138 4.0111447007052634106 -8.9407653666608393195 -0.71627841274869763488 4.2756917161887724177 -9.0319715550905588231 5.7597896959654937277 3.3572109021130014384 6.0426566406379746965 -3.7450496552013774476 -5.3044630681698556884 1.5146018580998859004 0.16937412014329922272 13.573373900570674166 -0.49343092207298067109 4.5170484927078868864 14.814439074397755647 -4.3844878779009626157 -11.901188328723995014 -3.1262815925226314917 5.6459815162991100479 4.3226066904452276063 -16.384277404585866122 -27.295152158293440436 2.8968084034192442822 9.7549155809165490894 -2.5622752446572114593 -3.8929036773007323902 -10.159908417094031918 2.9969775204610096253 19.502135750853980767 6.5749836920497983783 -27.730140926638018328 -9.5206450923930407981 -11.816640764510195183 25.091034765488512193 -12.660875953308684316 8.1371271653536449975 -0.48202703702321897383 8.8229000598328681804 10.077498829545463721 -1.923310896942328263 12.847143368842289135 -14.20236332073102048 -0.65338878829954594174 2.0416242441491982973 -2.1177131669331910047 24.005036831013583765 -8.9299450793252148628 13.596391572743005582 -1.6682960610762975762 -1.2113417324518347407 -2.4189779440218170947 15.923171495740056969 -2.1672828842949365402 5.2800760999058180545 -15.70815125507745158 -5.2083547007629276138 -8.5702629388468238858 6.2764442928063086669 7.0934188185348929778 10.093080424825341623 -17.887495674886800145 12.195389176532140496 -20.022005343651379405 -6.8324531539878581299 -2.8907854662377596711 -0.28013980434827745469 -1.717879923621641991 -2.2348697625719684545 -22.70832175952433829 14.361595986431829886 -4.3739140042388751084 19.044706870371545193 7.6319350425101255553 3.5054619678842851016 27.75206860753775473 -8.4935681638446389741 11.523444686667062342 -6.8904132342959014679 -9.4248707533693298899 5.409191069468754165 -18.300306971216286911 13.190255213232164877 1.3919519285641639428 16.739356029726600639 9.2225910631481085034 -8.3488042499039814004 -15.569513210080190291 15.618499407334043738 -7.4020001474804697494 6.8628315336504837063 -8.4382019038920805798 14.589183813418472369 11.306788314715207733 -5.0708008476420474153 -17.844297642009390614 7.2304806655456053122 8.9813340097924871941 0.43701731247842867667 -16.34036166445212146 -6.6872528559456680952 10.8289517928462935 -1.6540242448328217328 -17.416483304559811529 7.6239115004386395213 6.2765179234384484985 -9.0671243168565816006 -1.3873098620274306736;12.8890814937637046 18.009215635148308365 -25.058036852777313186 -7.9913677619373624239 9.9197033225494450903 -6.6750229504838047845 -0.63332786354871017931 8.2437667261334048874 21.123807977232893052 11.964538906692872899 3.1007257662916254404 15.235008961500364322 -23.961049560887492049 -1.5328048710188175718 -5.9109486033836677876 -10.668637445541824249 -4.9981523908353322483 6.4564314404631950595 -11.513471067617986776 22.451843512572036587 -1.0887941506716327655 -6.6456831822394608622 -12.633729906690453149 4.7373516589221349449 24.574865028765465524 -1.0485259233782766586 2.0251425843928618775 -1.5783958693281388008 -0.94168978740957431928 19.264059015758078885 -5.238326489639518968 8.6901827608173007889 -9.7428933623863613889 -6.4253461669821447799 -6.4133346329121305729 24.21291701760411641 -0.41553793287331597384 -3.2837391566501095141 23.916548577183270652 13.182538187482865766 10.873379473961692909 -2.9775517805225533152 0.2415423455574663425 19.003032487090436575 -11.409372656222995346 16.135833174133832557 27.654054587695796386 6.4743499333957963415 -7.8324244979509876075 5.2109321020157350901 -30.599389922765077188 -33.948603116215060993 -0.73847565452389241081 7.0154199067000693191 -13.574014547339150027 -3.7526840666349827735 2.0894399973236881252 12.484332181232767667 7.8158450294844428186 5.1443813288765625202 -8.4138730329525088791 -14.053688263389183533 -5.8120091422278399307 14.200661065303803454 -5.6042347796988645214 -5.5129836961899805203 -10.053157874197527377 -18.184995860770051479 -9.8470538042251032351 -9.8682901626509060833 -9.0651703488687207511 5.9500143270514822547 -10.034352238576385474 -23.844260833158497093 -2.7176197395750429919 -3.5866824993684280898 -4.5475790063116434681 -13.991079689412739384 36.638917484312031547 -9.3629018887471175958 -2.0414239311297488477 3.9478880795901836187 -4.8495814566194646034 0.40522127356593479197 6.6148880336881221709 19.741307387589706934 0.11634640011605501542 -2.3695719587775192494 -3.4259909363614666766 16.708844799759571487 7.3603108127452889775 -37.469047211094611782 -19.513139964994802966 30.474052437047944863 -9.7372617386882094337 -1.0748204691151841406 -0.058342105889605755387 17.755624664354563436 -21.696609893266288083 7.6741199116486544796 9.0471781203491552503 15.928533397804464755 14.707492363738277064 9.9904075972386614524 3.0853897830181113981 -2.2224795787873432573 3.7855558381007883284 8.5380836334132617083 -9.2511023870048134654 10.00983014380002345 -13.391018786368052318 4.8137281948323034086;4.0811263331552156686 3.0808840506454870933 0.7051238908207524414 -8.2326529218137292077 -0.77714792769201412881 -14.267884386234721106 8.6531183812208087858 -1.2264904713946993553 9.4311263652842196592 3.8836348846752981601 8.3630280612653269401 -0.16125419303540255989 -0.97765861145901178375 -13.365777591615382036 -7.9897919757826301179 -4.0509021785042333974 2.9121996913663963369 14.827157080919018739 1.8841850814104157408 0.0060538260618305805849 -12.896457509219990456 0.82487033093401951334 1.3327487170086156354 -12.369470722691882969 6.816640012902600354 -17.70224168621810179 -10.861165944757416923 9.9116102450812739733 -8.0330264069469183852 9.5241604186950965527 -22.248077308269134988 14.328529320285559479 -2.2779787362871166678 18.528297464683276985 -0.94498692544467810528 2.8019584139515862908 -5.915810945603531934 -3.8896989580462384417 1.1754380156807957558 7.6080109674799905051 16.657163904515627451 6.9370622126442471611 -11.535334257338936581 -3.2277609194474337073 -2.4769799147820736884 17.792981807218801293 12.827880452896250674 -24.98952455957446972 -15.728065184891537598 5.7301044703745196429 -8.1589464580395070215 -0.02252397091090374559 -13.240107166531899452 5.8897088848387690874 -1.5299465547894297579 -10.029420624392436423 -4.3710201978862395222 2.0074634828309676493 2.4204638386522745463 -9.3680209085695960169 5.4959757427244522177 -2.0069036137338240877 -5.5729179944214930487 1.3440273505119946229 -6.1023348935050787389 1.8035375281272925108 -13.187397565626103102 -6.0500154502932197431 -17.15350918234871358 -5.0236641333735043702 -19.446162846909693656 20.319741813744297332 1.5434717880449215777 -5.3119029677794049604 8.5006559556898313446 10.13977708245236542 15.672556150640934547 9.8363127246655999159 7.6051538197519468198 6.6118357637703581986 -10.904021218425430817 -33.055246572458557353 9.0113640531743879336 2.639511262406708525 2.0556207317152810354 -4.7967972598715107324 1.2306623349733905037 24.2925178570593161 -5.1370602227394241979 -1.0053438182189495809 18.549702347757477838 4.2259813043548009048 9.2906940725032267636 -3.3056629264916006505 13.091458796953499899 -20.920036420929900345 18.479367008463590594 14.6054987837326955 -8.8101807357519277275 -10.885800389838131252 8.8363225530083457926 -3.1898242058192529669 6.0910666905387458314 -6.5237324043959379338 4.5271273887924428081 -0.96374191700290445795 13.993317874270113421 -20.622271557451934854 -4.2144730010570157219 21.288967966423200551 5.7563924237064529876 -13.502078537022542903;25.101942126743878703 16.582118627961197177 1.4776919999786897186 5.6157177895285119718 7.5049872377960991088 14.783051439354899514 3.2072326451401114156 -2.6130943814033416039 -13.26049464238660569 11.400834843805576213 -9.6291218351727305702 1.7924696957486103699 6.0164099123458774088 7.5537441996161565072 4.2219053429983048886 -16.155581396010937567 9.6983818869890683345 -14.945680160883698662 8.9687664954181247623 11.027095424403508872 9.538103380865390335 3.6324950480914997009 -40.428402551339154058 10.313880548030393669 19.996848622490045244 -3.9513317649453449931 9.2595661840339182902 12.350107929557404773 1.3063668088664028843 2.6754410007308528918 7.739198494075475665 1.9572827048462897448 -6.2521542056359376005 13.33552922950797992 -7.876108991416944427 -22.985261751458637036 5.003992582812455403 10.480788353263008617 -1.179480572166037744 -13.328403838318161334 -15.689525252738789618 -5.2474486278971905762 -12.593202557230926075 -1.5623212457571118428 0.15708962428026973512 18.829693872346830119 4.0660913633752269192 -2.6499708353210262857 -4.9229436690948373823 12.522135776063032964 -16.231816558935157957 28.149041522603361898 8.2031809696766266882 -12.596391541728188201 -34.584008665101521274 -4.3310415648963074275 -7.5793853575536029865 -0.50820371560328192473 -6.9527592651859739803 -28.686096812601491024 9.2024760738406872207 1.0131770384094536119 3.4358306902735007426 -16.696362834530919628 12.109789536997331183 6.8520277467391794701 3.9085098836818730206 -4.3548472032488261263 11.722245397685421509 4.476996395419948982 -4.5301908390725671438 -2.2708206943779170039 2.4689793130833987966 17.152237715799955708 3.3645683985121754844 -6.2358699149539686957 -7.8467583689776336797 -4.3667556088029488848 12.985139129373076017 2.0817670199687703381 -5.4795298756101171733 -13.983592613237405544 -7.8510503980959427395 0.13068552063150806752 22.818425594950511481 -7.2555239187379880761 -14.274227230741832528 4.7599011348998736537 0.97773792206714227326 6.1977948139474969835 -2.4092416569207282251 -8.2137403225386851346 -30.675934775496990881 5.2393115647931391976 20.912420822512899576 -2.6392861196630277298 8.5169228134157588528 -12.970052509825057641 6.7943819752774636811 -26.820146935911665764 -19.447023157123425108 -6.4016826284740737663 15.258211606549849648 5.5609361590660242314 3.2522958693182402179 3.5756325021564241418 10.985633407150197982 2.6998226089676871098 4.8368666512470142038 2.9735711351319018547 -10.813997776074231183 7.7672827050664459136;-8.625626675279820077 -4.2605847780397088087 4.9419631266267671776 -12.201214518143775223 11.036765115641554047 -2.8557529279656397314 -2.0717463698946119166 -10.723017984792548418 3.6920868163597315714 2.6049574092974845385 -10.080491275571773713 -0.32138243171788438701 1.9246650687044124517 9.7332149607349993659 2.6740193033261432376 -0.098473313322757771715 -2.5513651526414991011 11.173235192227298995 -11.074138959027909124 12.373010490927690341 9.368615618061447492 4.5124721415486277465 -2.4289413687654950458 32.93231003009919533 -15.001155792431248415 8.5534001843364766415 18.822088662020686201 23.861185142017234284 -0.70777377602646618371 -1.4485102223471710836 -27.553682631812566939 1.8601297781441306078 9.3244787122580046201 2.2681583849852628987 -11.184926507009674168 -6.9310329404315256241 2.0783226838746426957 4.9593642123449734882 10.783268403074769637 -16.729154102357956191 8.7848258972551001023 -6.7911735692108790019 -2.8847783644835747197 -10.378320478225433021 16.568748011122352182 -16.338164144351107865 -23.209783814489291842 0.31505709720461538836 -4.4739541525427428681 -7.8781586463522241814 0.11856558284861140606 -0.018452475833328652044 5.8665101332304736559 14.526418172657615813 -4.5386194840159479469 -5.1551620410610938805 4.1580630127846696098 -4.2609596023701250544 -6.9786616837982453632 10.622247165631199195 22.699914713049878401 -23.533051443933210578 16.365573443597480008 4.7415915925130711628 0.8495507156523147696 -2.5894006007830032701 11.547001698852751517 16.045000615012831702 -5.6936352810508115141 7.3992901656010028333 4.9498530385470038695 -3.9456400893264076402 8.9297582567287836497 6.5081207041105075817 -18.426184287683156526 -2.6334828658309374916 8.0126310707709293979 -1.3805156945475303143 -6.9976537674191074956 7.5124641864241104017 -21.341590037918724221 -3.8283522261276852205 -3.5913289492067859143 4.2660672953519540584 1.6855402987776357815 10.396602143065829083 5.8202783586613620059 -5.2367108952268228705 -6.6956364454153423083 -0.4425208937811062615 -5.1754253267130803096 0.44519560816203451736 16.480706370738786859 0.64479380893706172984 -4.9819533598337137903 26.694769559237879974 -12.773571198759032796 -45.052924176186103011 8.8069321455337998827 -23.739621463666598089 -6.2282222363797927756 -1.4490791261472846241 34.741640207338392088 7.1453326115323037016 -1.3943984646500955371 9.2560765055508174015 -22.428938864690923793 0.81469242345446257758 9.2793652324983177948 -11.038083549670322014 -5.627735954594076162 2.3057866973686280687];

% Layer 2
b2 = [-0.42911464766927892578;0.42912196256623241775];
LW2_1 = [-0.0023944016926771127113 0.12663438380696620533 0.066766876154223345208 -0.019824160743388802297 -0.020027351707420291277 0.26452566567436291978 0.11737852468242399029 -0.10001952565993239841 0.062114903526822973223 0.00041240546045184789392 -0.51049432183021337117 -0.049266857486927821685 0.019414163988245816683 0.089480017463922159604 0.037404289770209993293 0.36729703066671803846 0.79140869370756139478 0.059850282062842707909 -0.020381155550736607118 -0.12817694614411406784 -0.01773603824384033939 0.36229390335984246185 0.12921195558184803143 -0.15899079215091274642 0.35866037904413394788 -0.14014222999009720572 -0.093001558965767450182 -0.12201516234665814309 -0.082690830523864777835 0.063383158188139970823;0.0023966718510044036222 -0.12663474791485310189 -0.066768297321597100402 0.019825637810432818198 0.02002891424703533152 -0.26452781496576366349 -0.1173783324199956235 0.10002191969863595544 -0.062115750092993915477 -0.00040964651922615474833 0.51049573324874686353 0.049264628577878145921 -0.019413880990267765037 -0.089478202750022939327 -0.037402988454974341048 -0.36729770141796574956 -0.79140917975695912467 -0.059851434092217666028 0.020379714374322552284 0.12817629306734279471 0.017734417277900153126 -0.3622925170639258452 -0.12921221888462641747 0.15899017801215153955 -0.35865967036038864935 0.14014080838947934327 0.093000589933607130666 0.12201487023019674805 0.082691692060440608048 -0.063384122425428984782];

% Output 1
y1_step1.ymin = -1;
y1_step1.gain = [0.001001001001001;0.001001001001001];
y1_step1.xoffset = [-999;-999];

% ===== SIMULATION ========

% Dimensions
Q = size(x1,1); % samples

% Input 1
x1 = x1';
xp1 = mapminmax_apply(x1,x1_step1);

% Layer 1
a1 = tansig_apply(repmat(b1,1,Q) + IW1_1*xp1);

% Layer 2
a2 = repmat(b2,1,Q) + LW2_1*a1;

% Output 1
y1 = mapminmax_reverse(a2,y1_step1);
y1 = y1';
end

% ===== MODULE FUNCTIONS ========

% Map Minimum and Maximum Input Processing Function
function y = mapminmax_apply(x,settings)
y = bsxfun(@minus,x,settings.xoffset);
y = bsxfun(@times,y,settings.gain);
y = bsxfun(@plus,y,settings.ymin);
end

% Sigmoid Symmetric Transfer Function
function a = tansig_apply(n,~)
a = 2 ./ (1 + exp(-2*n)) - 1;
end

% Map Minimum and Maximum Output Reverse-Processing Function
function x = mapminmax_reverse(y,settings)
x = bsxfun(@minus,y,settings.ymin);
x = bsxfun(@rdivide,x,settings.gain);
x = bsxfun(@plus,x,settings.xoffset);
end
